<?xml version="1.0"?>
<opencv_storage>
<stage3>
  <maxWeakCount>7</maxWeakCount>
  <stageThreshold>-1.4657671451568604e+00</stageThreshold>
  <weakClassifiers>
    <_>
      <internalNodes>
        0 -1 88112 -2.3773847520351410e-01</internalNodes>
      <leafValues>
        8.1250000000000000e-01 -3.1597220897674561e-01</leafValues></_>
    <_>
      <internalNodes>
        0 -1 11969 5.5758637608960271e-04</internalNodes>
      <leafValues>
        -7.0760118961334229e-01 3.8857632875442505e-01</leafValues></_>
    <_>
      <internalNodes>
        0 -1 395 1.9246440380811691e-02</internalNodes>
      <leafValues>
        -7.8562223911285400e-01 3.2352906465530396e-01</leafValues></_>
    <_>
      <internalNodes>
        0 -1 90960 -1.7408924177289009e-02</internalNodes>
      <leafValues>
        3.0565035343170166e-01 -7.8090691566467285e-01</leafValues></_>
    <_>
      <internalNodes>
        0 -1 50166 -7.0537615101784468e-04</internalNodes>
      <leafValues>
        9.6107769012451172e-01 -3.2186132669448853e-01</leafValues></_>
    <_>
      <internalNodes>
        0 -1 115018 1.4106764865573496e-05</internalNodes>
      <leafValues>
        -5.2131515741348267e-01 5.4332798719406128e-01</leafValues></_>
    <_>
      <internalNodes>
        0 -1 76871 -2.4973929394036531e-03</internalNodes>
      <leafValues>
        7.8343045711517334e-01 -3.8007026910781860e-01</leafValues></_></weakClassifiers></stage3>
</opencv_storage>
