<?xml version="1.0"?>
<opencv_storage>
<stage1>
  <maxWeakCount>6</maxWeakCount>
  <stageThreshold>-6.3734602928161621e-01</stageThreshold>
  <weakClassifiers>
    <_>
      <internalNodes>
        0 -1 54351 -9.1282710433006287e-02</internalNodes>
      <leafValues>
        5.9237188100814819e-01 -6.5308803319931030e-01</leafValues></_>
    <_>
      <internalNodes>
        0 -1 90316 -8.6098462343215942e-02</internalNodes>
      <leafValues>
        4.5305442810058594e-01 -6.8780153989791870e-01</leafValues></_>
    <_>
      <internalNodes>
        0 -1 12678 5.6917235255241394e-02</internalNodes>
      <leafValues>
        -8.8658434152603149e-01 2.9281574487686157e-01</leafValues></_>
    <_>
      <internalNodes>
        0 -1 25363 1.1867043212987483e-04</internalNodes>
      <leafValues>
        -7.3704028129577637e-01 3.9417219161987305e-01</leafValues></_>
    <_>
      <internalNodes>
        0 -1 67782 -7.1285897865891457e-04</internalNodes>
      <leafValues>
        8.4656369686126709e-01 -3.0878189206123352e-01</leafValues></_>
    <_>
      <internalNodes>
        0 -1 78759 5.7494954671710730e-04</internalNodes>
      <leafValues>
        -6.6610848903656006e-01 3.6388158798217773e-01</leafValues></_></weakClassifiers></stage1>
</opencv_storage>
