<?xml version="1.0"?>
<opencv_storage>
<cascade>
  <stageType>BOOST</stageType>
  <featureType>LBP</featureType>
  <height>16</height>
  <width>32</width>
  <stageParams>
    <boostType>GAB</boostType>
    <minHitRate>9.9500000476837158e-01</minHitRate>
    <maxFalseAlarm>5.0000000000000000e-01</maxFalseAlarm>
    <weightTrimRate>9.4999999999999996e-01</weightTrimRate>
    <maxDepth>1</maxDepth>
    <maxWeakCount>100</maxWeakCount></stageParams>
  <featureParams>
    <maxCatCount>256</maxCatCount>
    <featSize>1</featSize></featureParams>
  <stageNum>2</stageNum>
  <stages>
    <!-- stage 0 -->
    <_>
      <maxWeakCount>1</maxWeakCount>
      <stageThreshold>9.0476191043853760e-01</stageThreshold>
      <weakClassifiers>
        <_>
          <internalNodes>
            0 -1 1 -2113905530 -2147462896 1073795074 -2080317376 32768
            -2147434496 -536815104 -587021296</internalNodes>
          <leafValues>
            -1. 9.0476191043853760e-01</leafValues></_></weakClassifiers></_>
    <!-- stage 1 -->
    <_>
      <maxWeakCount>2</maxWeakCount>
      <stageThreshold>-9.3902088701725006e-02</stageThreshold>
      <weakClassifiers>
        <_>
          <internalNodes>
            0 -1 0 0 0 0 0 32904 0 -2013233016 -2138535800</internalNodes>
          <leafValues>
            -9.3704599142074585e-01 1.</leafValues></_>
        <_>
          <internalNodes>
            0 -1 2 184758223 -1996103609 -533181509 -1990856687
            -640521677 -1885997295 -394093025 -21499217</internalNodes>
          <leafValues>
            -9.9031668901443481e-01 8.4314393997192383e-01</leafValues></_></weakClassifiers></_></stages>
  <features>
    <_>
      <rect>
        0 0 4 5</rect></_>
    <_>
      <rect>
        12 1 4 5</rect></_>
    <_>
      <rect>
        12 4 3 2</rect></_></features></cascade>
</opencv_storage>
