<?xml version="1.0"?>
<opencv_storage>
<cascade>
  <stageType>BOOST</stageType>
  <featureType>LBP</featureType>
  <height>16</height>
  <width>32</width>
  <stageParams>
    <boostType>GAB</boostType>
    <minHitRate>9.9500000476837158e-01</minHitRate>
    <maxFalseAlarm>5.0000000000000000e-01</maxFalseAlarm>
    <weightTrimRate>9.4999999999999996e-01</weightTrimRate>
    <maxDepth>1</maxDepth>
    <maxWeakCount>100</maxWeakCount></stageParams>
  <featureParams>
    <maxCatCount>256</maxCatCount>
    <featSize>1</featSize></featureParams>
  <stageNum>2</stageNum>
  <stages>
    <!-- stage 0 -->
    <_>
      <maxWeakCount>2</maxWeakCount>
      <stageThreshold>-1.1211597919464111e-01</stageThreshold>
      <weakClassifiers>
        <_>
          <internalNodes>
            0 -1 3 8388352 -256 -65552 -524298 12578700 8423552 8915086
            -896874353</internalNodes>
          <leafValues>
            -9.6551722288131714e-01 9.7872340679168701e-01</leafValues></_>
        <_>
          <internalNodes>
            0 -1 4 603980817 -1975423993 402657284 288009 -2113661660
            -119463871 -654039643 -41</internalNodes>
          <leafValues>
            -9.9501544237136841e-01 8.5340124368667603e-01</leafValues></_></weakClassifiers></_>
    <!-- stage 1 -->
    <_>
      <maxWeakCount>3</maxWeakCount>
      <stageThreshold>-9.6927022933959961e-01</stageThreshold>
      <weakClassifiers>
        <_>
          <internalNodes>
            0 -1 0 -2147483648 0 0 0 32768 0 -2147450872 -2138537846</internalNodes>
          <leafValues>
            -9.6543210744857788e-01 9.5789474248886108e-01</leafValues></_>
        <_>
          <internalNodes>
            0 -1 2 1073774592 0 0 0 -2147450752 0 -2139062144
            -2138535800</internalNodes>
          <leafValues>
            -9.4257605075836182e-01 8.8409036397933960e-01</leafValues></_>
        <_>
          <internalNodes>
            0 -1 1 16384 0 0 0 -2147450872 -2147450880 -2146926454
            -2004301688</internalNodes>
          <leafValues>
            -8.8776189088821411e-01 9.3873786926269531e-01</leafValues></_></weakClassifiers></_></stages>
  <features>
    <_>
      <rect>
        0 0 2 5</rect></_>
    <_>
      <rect>
        0 0 4 5</rect></_>
    <_>
      <rect>
        0 1 3 5</rect></_>
    <_>
      <rect>
        0 2 5 3</rect></_>
    <_>
      <rect>
        9 3 5 3</rect></_></features></cascade>
</opencv_storage>
