<?xml version="1.0"?>
<opencv_storage>
<cascade>
  <stageType>BOOST</stageType>
  <featureType>LBP</featureType>
  <height>16</height>
  <width>32</width>
  <stageParams>
    <boostType>GAB</boostType>
    <minHitRate>9.9500000476837158e-01</minHitRate>
    <maxFalseAlarm>5.0000000000000000e-01</maxFalseAlarm>
    <weightTrimRate>9.4999999999999996e-01</weightTrimRate>
    <maxDepth>1</maxDepth>
    <maxWeakCount>100</maxWeakCount></stageParams>
  <featureParams>
    <maxCatCount>256</maxCatCount>
    <featSize>1</featSize></featureParams>
  <stageNum>2</stageNum>
  <stages>
    <!-- stage 0 -->
    <_>
      <maxWeakCount>2</maxWeakCount>
      <stageThreshold>-9.6917025744915009e-02</stageThreshold>
      <weakClassifiers>
        <_>
          <internalNodes>
            0 -1 0 258918154 -2099200 -98376 -65668 -268501000
            -2147450880 -2139062136 -679542902</internalNodes>
          <leafValues>
            -9.5599019527435303e-01 1.</leafValues></_>
        <_>
          <internalNodes>
            0 -1 2 -788014377 -1073626685 -1063200439 -918495231
            -738148192 -1060579328 -353646503 -20257776</internalNodes>
          <leafValues>
            -9.8534804582595825e-01 8.5907322168350220e-01</leafValues></_></weakClassifiers></_>
    <!-- stage 1 -->
    <_>
      <maxWeakCount>2</maxWeakCount>
      <stageThreshold>-1.3874602317810059e-01</stageThreshold>
      <weakClassifiers>
        <_>
          <internalNodes>
            0 -1 1 -4194488 -1 -4194504 -1 2146434989 -262146 1040746702
            -65</internalNodes>
          <leafValues>
            -9.3236714601516724e-01 1.</leafValues></_>
        <_>
          <internalNodes>
            0 -1 3 -800980993 -738146687 1073805255 -1073427445
            -671084544 -805124992 -998118772 -469384943</internalNodes>
          <leafValues>
            -9.7099065780639648e-01 7.9362112283706665e-01</leafValues></_></weakClassifiers></_></stages>
  <features>
    <_>
      <rect>
        0 1 4 5</rect></_>
    <_>
      <rect>
        0 1 5 5</rect></_>
    <_>
      <rect>
        11 7 3 2</rect></_>
    <_>
      <rect>
        12 6 3 3</rect></_></features></cascade>
</opencv_storage>
