<?xml version="1.0"?>
<opencv_storage>
<cascade>
  <stageType>BOOST</stageType>
  <featureType>LBP</featureType>
  <height>16</height>
  <width>32</width>
  <stageParams>
    <boostType>GAB</boostType>
    <minHitRate>9.9500000476837158e-01</minHitRate>
    <maxFalseAlarm>5.0000000000000000e-01</maxFalseAlarm>
    <weightTrimRate>9.4999999999999996e-01</weightTrimRate>
    <maxDepth>1</maxDepth>
    <maxWeakCount>100</maxWeakCount></stageParams>
  <featureParams>
    <maxCatCount>256</maxCatCount>
    <featSize>1</featSize></featureParams>
  <stageNum>2</stageNum>
  <stages>
    <!-- stage 0 -->
    <_>
      <maxWeakCount>2</maxWeakCount>
      <stageThreshold>-1.7034325003623962e-01</stageThreshold>
      <weakClassifiers>
        <_>
          <internalNodes>
            0 -1 0 1324941306 268238846 0 1 32768 1876951040 -1073743882
            -2139058962</internalNodes>
          <leafValues>
            -9.1846525669097900e-01 1.</leafValues></_>
        <_>
          <internalNodes>
            0 -1 3 -752891905 -182992813 1096159447 -603008737
            -779124101 -124649335 -292822837 -341129004</internalNodes>
          <leafValues>
            -9.8532187938690186e-01 7.4812197685241699e-01</leafValues></_></weakClassifiers></_>
    <!-- stage 1 -->
    <_>
      <maxWeakCount>2</maxWeakCount>
      <stageThreshold>-1.2898251414299011e-01</stageThreshold>
      <weakClassifiers>
        <_>
          <internalNodes>
            0 -1 1 -268386304 -1 -32984 -2 -2147450742 -2147450880
            -2139060088 -2013214584</internalNodes>
          <leafValues>
            -9.0476191043853760e-01 1.</leafValues></_>
        <_>
          <internalNodes>
            0 -1 2 286331438 -1325327833 38406 -1593781712 -469740539
            -1593785341 -433537020 -386536195</internalNodes>
          <leafValues>
            -9.3468171358108521e-01 7.7577936649322510e-01</leafValues></_></weakClassifiers></_></stages>
  <features>
    <_>
      <rect>
        0 1 2 5</rect></_>
    <_>
      <rect>
        0 1 4 5</rect></_>
    <_>
      <rect>
        14 2 3 4</rect></_>
    <_>
      <rect>
        15 7 1 1</rect></_></features></cascade>
</opencv_storage>
