<?xml version="1.0"?>
<opencv_storage>
<cascade>
  <stageType>BOOST</stageType>
  <featureType>LBP</featureType>
  <height>16</height>
  <width>32</width>
  <stageParams>
    <boostType>GAB</boostType>
    <minHitRate>9.9500000476837158e-01</minHitRate>
    <maxFalseAlarm>5.0000000000000000e-01</maxFalseAlarm>
    <weightTrimRate>9.4999999999999996e-01</weightTrimRate>
    <maxDepth>1</maxDepth>
    <maxWeakCount>100</maxWeakCount></stageParams>
  <featureParams>
    <maxCatCount>256</maxCatCount>
    <featSize>1</featSize></featureParams>
  <stageNum>2</stageNum>
  <stages>
    <!-- stage 0 -->
    <_>
      <maxWeakCount>2</maxWeakCount>
      <stageThreshold>4.9019608646631241e-02</stageThreshold>
      <weakClassifiers>
        <_>
          <internalNodes>
            0 -1 1 0 0 0 16777216 0 0 32906 -888436725</internalNodes>
          <leafValues>
            -9.5098036527633667e-01 9.5652174949645996e-01</leafValues></_>
        <_>
          <internalNodes>
            0 -1 2 256 67239936 0 -2071134144 -2004123240 9013386
            -2004186998 -270537525</internalNodes>
          <leafValues>
            -8.9902675151824951e-01 1.</leafValues></_></weakClassifiers></_>
    <!-- stage 1 -->
    <_>
      <maxWeakCount>2</maxWeakCount>
      <stageThreshold>-1.7196989059448242e-01</stageThreshold>
      <weakClassifiers>
        <_>
          <internalNodes>
            0 -1 3 -653787137 -183300096 100373 1090732039 -1069168532
            -1170161664 -935149364 -143620</internalNodes>
          <leafValues>
            -9.6977329254150391e-01 8.2524269819259644e-01</leafValues></_>
        <_>
          <internalNodes>
            0 -1 0 0 16777216 0 16842752 43008 -2012708864 -2147483509
            -1081112053</internalNodes>
          <leafValues>
            -9.6300417184829712e-01 7.9780340194702148e-01</leafValues></_></weakClassifiers></_></stages>
  <features>
    <_>
      <rect>
        0 1 9 2</rect></_>
    <_>
      <rect>
        1 0 10 2</rect></_>
    <_>
      <rect>
        2 3 7 2</rect></_>
    <_>
      <rect>
        14 5 1 2</rect></_></features></cascade>
</opencv_storage>
