<?xml version="1.0"?>
<opencv_storage>
<cascade>
  <stageType>BOOST</stageType>
  <featureType>LBP</featureType>
  <height>16</height>
  <width>32</width>
  <stageParams>
    <boostType>GAB</boostType>
    <minHitRate>9.9500000476837158e-01</minHitRate>
    <maxFalseAlarm>5.0000000000000000e-01</maxFalseAlarm>
    <weightTrimRate>9.4999999999999996e-01</weightTrimRate>
    <maxDepth>1</maxDepth>
    <maxWeakCount>100</maxWeakCount></stageParams>
  <featureParams>
    <maxCatCount>256</maxCatCount>
    <featSize>1</featSize></featureParams>
  <stageNum>2</stageNum>
  <stages>
    <!-- stage 0 -->
    <_>
      <maxWeakCount>2</maxWeakCount>
      <stageThreshold>-1.5727666020393372e-01</stageThreshold>
      <weakClassifiers>
        <_>
          <internalNodes>
            0 -1 1 -268386112 -805306368 1073741888 -1073741824
            -2147450880 -1073741824 0 -1073741824</internalNodes>
          <leafValues>
            -9.3689322471618652e-01 9.7727274894714355e-01</leafValues></_>
        <_>
          <internalNodes>
            0 -1 3 -576760353 454056519 1443234775 2146914428 973488143
            302121165 -397704517 -20984065</internalNodes>
          <leafValues>
            -9.6574318408966064e-01 7.7961653470993042e-01</leafValues></_></weakClassifiers></_>
    <!-- stage 1 -->
    <_>
      <maxWeakCount>2</maxWeakCount>
      <stageThreshold>-8.4713697433471680e-02</stageThreshold>
      <weakClassifiers>
        <_>
          <internalNodes>
            0 -1 2 -805253120 -805256064 2048 -805306368 -2147450880
            -805306368 32768 -1073709056</internalNodes>
          <leafValues>
            -9.6977329254150391e-01 8.2524269819259644e-01</leafValues></_>
        <_>
          <internalNodes>
            0 -1 0 -805257088 -805306368 128 1073758208 32896
            -1073709056 0 -2147483648</internalNodes>
          <leafValues>
            -9.0995639562606812e-01 9.4009792804718018e-01</leafValues></_></weakClassifiers></_></stages>
  <features>
    <_>
      <rect>
        4 10 9 2</rect></_>
    <_>
      <rect>
        8 10 7 2</rect></_>
    <_>
      <rect>
        9 10 6 2</rect></_>
    <_>
      <rect>
        15 7 1 1</rect></_></features></cascade>
</opencv_storage>
