<?xml version="1.0"?>
<opencv_storage>
<cascade>
  <stageType>BOOST</stageType>
  <featureType>LBP</featureType>
  <height>16</height>
  <width>32</width>
  <stageParams>
    <boostType>GAB</boostType>
    <minHitRate>9.9500000476837158e-01</minHitRate>
    <maxFalseAlarm>5.0000000000000000e-01</maxFalseAlarm>
    <weightTrimRate>9.4999999999999996e-01</weightTrimRate>
    <maxDepth>1</maxDepth>
    <maxWeakCount>100</maxWeakCount></stageParams>
  <featureParams>
    <maxCatCount>256</maxCatCount>
    <featSize>1</featSize></featureParams>
  <stageNum>3</stageNum>
  <stages>
    <!-- stage 0 -->
    <_>
      <maxWeakCount>3</maxWeakCount>
      <stageThreshold>-9.5545196533203125e-01</stageThreshold>
      <weakClassifiers>
        <_>
          <internalNodes>
            0 -1 0 0 0 0 0 32768 0 32904 -2138537846</internalNodes>
          <leafValues>
            -9.2307692766189575e-01 1.</leafValues></_>
        <_>
          <internalNodes>
            0 -1 7 -1073741824 -788496384 0 -218071040 16384 1073741824
            -2147483648 -8140543</internalNodes>
          <leafValues>
            -8.7428903579711914e-01 9.4891017675399780e-01</leafValues></_>
        <_>
          <internalNodes>
            0 -1 6 248015 -934166335 -1073620771 -528301874 -1937518527
            -2073522155 -779879458 -938740313</internalNodes>
          <leafValues>
            -9.2897272109985352e-01 8.4191399812698364e-01</leafValues></_></weakClassifiers></_>
    <!-- stage 1 -->
    <_>
      <maxWeakCount>3</maxWeakCount>
      <stageThreshold>-9.6986001729965210e-01</stageThreshold>
      <weakClassifiers>
        <_>
          <internalNodes>
            0 -1 3 33554312 -2 -216 -65 -50 -8388626 -2139058296
            -2012624758</internalNodes>
          <leafValues>
            -9.3236714601516724e-01 1.</leafValues></_>
        <_>
          <internalNodes>
            0 -1 2 0 64 0 4194304 8421512 -2139095036 -2146924389
            -1999665013</internalNodes>
          <leafValues>
            -8.3332997560501099e-01 9.8523563146591187e-01</leafValues></_>
        <_>
          <internalNodes>
            0 -1 5 -733815299 -1811626859 1208008901 -664420347
            -716110957 4474011 -913820661 -338909048</internalNodes>
          <leafValues>
            -8.6932891607284546e-01 7.9583710432052612e-01</leafValues></_></weakClassifiers></_>
    <!-- stage 2 -->
    <_>
      <maxWeakCount>2</maxWeakCount>
      <stageThreshold>-1.0099824517965317e-01</stageThreshold>
      <weakClassifiers>
        <_>
          <internalNodes>
            0 -1 4 -1073709056 -2147483648 0 0 -2147450752 -2147483648
            -2139062136 -2139060088</internalNodes>
          <leafValues>
            -9.3236714601516724e-01 1.</leafValues></_>
        <_>
          <internalNodes>
            0 -1 1 0 0 0 0 136 32768 557194 -930445297</internalNodes>
          <leafValues>
            -9.0762323141098022e-01 8.3136892318725586e-01</leafValues></_></weakClassifiers></_></stages>
  <features>
    <_>
      <rect>
        0 0 2 5</rect></_>
    <_>
      <rect>
        0 1 5 3</rect></_>
    <_>
      <rect>
        0 2 5 2</rect></_>
    <_>
      <rect>
        0 3 4 4</rect></_>
    <_>
      <rect>
        0 6 3 3</rect></_>
    <_>
      <rect>
        7 7 5 2</rect></_>
    <_>
      <rect>
        13 5 2 3</rect></_>
    <_>
      <rect>
        23 2 3 4</rect></_></features></cascade>
</opencv_storage>
