<?xml version="1.0"?>
<opencv_storage>
<cascade>
  <stageType>BOOST</stageType>
  <featureType>LBP</featureType>
  <height>16</height>
  <width>32</width>
  <stageParams>
    <boostType>GAB</boostType>
    <minHitRate>9.9500000476837158e-01</minHitRate>
    <maxFalseAlarm>5.0000000000000000e-01</maxFalseAlarm>
    <weightTrimRate>9.4999999999999996e-01</weightTrimRate>
    <maxDepth>1</maxDepth>
    <maxWeakCount>100</maxWeakCount></stageParams>
  <featureParams>
    <maxCatCount>256</maxCatCount>
    <featSize>1</featSize></featureParams>
  <stageNum>2</stageNum>
  <stages>
    <!-- stage 0 -->
    <_>
      <maxWeakCount>3</maxWeakCount>
      <stageThreshold>-9.7277498245239258e-01</stageThreshold>
      <weakClassifiers>
        <_>
          <internalNodes>
            0 -1 2 -13710720 -17895682 -1904218113 -536870913 1073774592
            -1073741823 1065353216 -32769</internalNodes>
          <leafValues>
            -9.2753624916076660e-01 9.7674417495727539e-01</leafValues></_>
        <_>
          <internalNodes>
            0 -1 3 0 0 0 17891329 0 0 3 -16020965</internalNodes>
          <leafValues>
            -8.9383316040039062e-01 9.6183818578720093e-01</leafValues></_>
        <_>
          <internalNodes>
            0 -1 0 67666199 -1811939070 4423952 -844595184 -2004248433
            1294483598 -1399938646 -561315890</internalNodes>
          <leafValues>
            -8.9332872629165649e-01 8.4859436750411987e-01</leafValues></_></weakClassifiers></_>
    <!-- stage 1 -->
    <_>
      <maxWeakCount>3</maxWeakCount>
      <stageThreshold>-8.0858463048934937e-01</stageThreshold>
      <weakClassifiers>
        <_>
          <internalNodes>
            0 -1 1 -2013462788 -131576 -16842753 -1342186241 -4260120
            -52 -1476329473 -2130033</internalNodes>
          <leafValues>
            -9.1826921701431274e-01 9.7619044780731201e-01</leafValues></_>
        <_>
          <internalNodes>
            0 -1 4 -805256000 -805273600 49152 1073774592 -2147450880
            -1073709056 1073741824 -1073741824</internalNodes>
          <leafValues>
            -8.4682780504226685e-01 9.0001261234283447e-01</leafValues></_>
        <_>
          <internalNodes>
            0 -1 5 -131076 -8196 -3 1574952957 -1 -289 -524298
            -140773505</internalNodes>
          <leafValues>
            -7.8174871206283569e-01 9.5651245117187500e-01</leafValues></_></weakClassifiers></_></stages>
  <features>
    <_>
      <rect>
        4 6 3 1</rect></_>
    <_>
      <rect>
        5 0 6 2</rect></_>
    <_>
      <rect>
        8 10 7 2</rect></_>
    <_>
      <rect>
        9 0 6 2</rect></_>
    <_>
      <rect>
        10 10 5 2</rect></_>
    <_>
      <rect>
        14 0 5 2</rect></_></features></cascade>
</opencv_storage>
