<?xml version="1.0"?>
<opencv_storage>
<cascade>
  <stageType>BOOST</stageType>
  <featureType>LBP</featureType>
  <height>16</height>
  <width>32</width>
  <stageParams>
    <boostType>GAB</boostType>
    <minHitRate>9.9500000476837158e-01</minHitRate>
    <maxFalseAlarm>5.0000000000000000e-01</maxFalseAlarm>
    <weightTrimRate>9.4999999999999996e-01</weightTrimRate>
    <maxDepth>1</maxDepth>
    <maxWeakCount>100</maxWeakCount></stageParams>
  <featureParams>
    <maxCatCount>256</maxCatCount>
    <featSize>1</featSize></featureParams>
  <stageNum>2</stageNum>
  <stages>
    <!-- stage 0 -->
    <_>
      <maxWeakCount>2</maxWeakCount>
      <stageThreshold>-1.0865036398172379e-01</stageThreshold>
      <weakClassifiers>
        <_>
          <internalNodes>
            0 -1 0 -2147430328 -1073692672 -1073692672 -2147450880
            -2138521462 -1073692672 -2138517108 -510068578</internalNodes>
          <leafValues>
            -9.4567900896072388e-01 8.7368422746658325e-01</leafValues></_>
        <_>
          <internalNodes>
            0 -1 1 -805257024 -805273600 -2147450880 32768 -2147450752
            -1073709056 -1073708928 -2147434496</internalNodes>
          <leafValues>
            -9.4975382089614868e-01 8.3702862262725830e-01</leafValues></_></weakClassifiers></_>
    <!-- stage 1 -->
    <_>
      <maxWeakCount>2</maxWeakCount>
      <stageThreshold>-2.8227981925010681e-01</stageThreshold>
      <weakClassifiers>
        <_>
          <internalNodes>
            0 -1 2 -805253120 -738197504 1073762368 -721420288 32768
            -1073479680 0 -1073741824</internalNodes>
          <leafValues>
            -9.2628991603851318e-01 8.2795697450637817e-01</leafValues></_>
        <_>
          <internalNodes>
            0 -1 3 -1423464317 -922631791 -805125799 -586825509
            -1014918962 -2000584448 -1862223599 -5380097</internalNodes>
          <leafValues>
            -9.9446338415145874e-01 6.4401012659072876e-01</leafValues></_></weakClassifiers></_></stages>
  <features>
    <_>
      <rect>
        4 3 3 4</rect></_>
    <_>
      <rect>
        9 10 4 2</rect></_>
    <_>
      <rect>
        13 10 5 2</rect></_>
    <_>
      <rect>
        14 6 1 2</rect></_></features></cascade>
</opencv_storage>
