<?xml version="1.0"?>
<opencv_storage>
<cascade>
  <stageType>BOOST</stageType>
  <featureType>LBP</featureType>
  <height>16</height>
  <width>32</width>
  <stageParams>
    <boostType>GAB</boostType>
    <minHitRate>9.9500000476837158e-01</minHitRate>
    <maxFalseAlarm>5.0000000000000000e-01</maxFalseAlarm>
    <weightTrimRate>9.4999999999999996e-01</weightTrimRate>
    <maxDepth>1</maxDepth>
    <maxWeakCount>100</maxWeakCount></stageParams>
  <featureParams>
    <maxCatCount>256</maxCatCount>
    <featSize>1</featSize></featureParams>
  <stageNum>2</stageNum>
  <stages>
    <!-- stage 0 -->
    <_>
      <maxWeakCount>2</maxWeakCount>
      <stageThreshold>2.0733525976538658e-02</stageThreshold>
      <weakClassifiers>
        <_>
          <internalNodes>
            0 -1 2 1609428218 -5766752 -16777474 -552730627 -16843524
            -18 -1095233793 -1953789457</internalNodes>
          <leafValues>
            -9.5110023021697998e-01 9.7802197933197021e-01</leafValues></_>
        <_>
          <internalNodes>
            0 -1 0 0 8 0 218365952 -2013230952 -1970796408 -2012739574
            -1349538133</internalNodes>
          <leafValues>
            -9.3021702766418457e-01 9.7183376550674438e-01</leafValues></_></weakClassifiers></_>
    <!-- stage 1 -->
    <_>
      <maxWeakCount>2</maxWeakCount>
      <stageThreshold>-9.6341788768768311e-02</stageThreshold>
      <weakClassifiers>
        <_>
          <internalNodes>
            0 -1 1 0 0 0 16842753 0 512 32907 -1416910677</internalNodes>
          <leafValues>
            -9.0023750066757202e-01 1.</leafValues></_>
        <_>
          <internalNodes>
            0 -1 3 -888680833 -938340345 65555 1493909524 1090535567
            -2130706431 -527789856 -16778260</internalNodes>
          <leafValues>
            -9.7174876928329468e-01 8.0389571189880371e-01</leafValues></_></weakClassifiers></_></stages>
  <features>
    <_>
      <rect>
        0 3 10 2</rect></_>
    <_>
      <rect>
        2 0 8 2</rect></_>
    <_>
      <rect>
        6 1 6 2</rect></_>
    <_>
      <rect>
        14 3 1 3</rect></_></features></cascade>
</opencv_storage>
