<?xml version="1.0"?>
<opencv_storage>
<cascade>
  <stageType>BOOST</stageType>
  <featureType>LBP</featureType>
  <height>16</height>
  <width>32</width>
  <stageParams>
    <boostType>GAB</boostType>
    <minHitRate>9.9500000476837158e-01</minHitRate>
    <maxFalseAlarm>5.0000000000000000e-01</maxFalseAlarm>
    <weightTrimRate>9.4999999999999996e-01</weightTrimRate>
    <maxDepth>1</maxDepth>
    <maxWeakCount>100</maxWeakCount></stageParams>
  <featureParams>
    <maxCatCount>256</maxCatCount>
    <featSize>1</featSize></featureParams>
  <stageNum>3</stageNum>
  <stages>
    <!-- stage 0 -->
    <_>
      <maxWeakCount>2</maxWeakCount>
      <stageThreshold>-1.3481876254081726e-01</stageThreshold>
      <weakClassifiers>
        <_>
          <internalNodes>
            0 -1 2 847952 -2097152 -65794 -32780 -2004219766 -2012575736
            -2012741366 -1886418805</internalNodes>
          <leafValues>
            -9.1846525669097900e-01 1.</leafValues></_>
        <_>
          <internalNodes>
            0 -1 4 220202319 -15135473 67109380 -1149119151 276853249
            -1113570815 -939488128 -589496381</internalNodes>
          <leafValues>
            -9.9029386043548584e-01 7.8364646434783936e-01</leafValues></_></weakClassifiers></_>
    <!-- stage 1 -->
    <_>
      <maxWeakCount>2</maxWeakCount>
      <stageThreshold>-1.8797266483306885e-01</stageThreshold>
      <weakClassifiers>
        <_>
          <internalNodes>
            0 -1 1 425072 65536 -65546 -98320 -1467447158 -2147448694
            -2004318065 -1349547125</internalNodes>
          <leafValues>
            -9.1387557983398438e-01 1.</leafValues></_>
        <_>
          <internalNodes>
            0 -1 3 -1744575905 1426087937 -2147481536 -1069547244
            -1623298085 -125249279 -1297272235 -663563</internalNodes>
          <leafValues>
            -9.7557210922241211e-01 7.2590291500091553e-01</leafValues></_></weakClassifiers></_>
    <!-- stage 2 -->
    <_>
      <maxWeakCount>2</maxWeakCount>
      <stageThreshold>-2.4752542376518250e-01</stageThreshold>
      <weakClassifiers>
        <_>
          <internalNodes>
            0 -1 0 0 0 0 65536 32898 134219776 8388746 -1886680437</internalNodes>
          <leafValues>
            -9.2307692766189575e-01 1.</leafValues></_>
        <_>
          <internalNodes>
            0 -1 5 1091818079 1359020109 -2080239279 1124090208
            1079042189 -1977498957 -268433404 -1886850003</internalNodes>
          <leafValues>
            -9.2725950479507446e-01 6.7555147409439087e-01</leafValues></_></weakClassifiers></_></stages>
  <features>
    <_>
      <rect>
        0 1 8 2</rect></_>
    <_>
      <rect>
        0 2 8 2</rect></_>
    <_>
      <rect>
        0 2 9 2</rect></_>
    <_>
      <rect>
        10 3 3 3</rect></_>
    <_>
      <rect>
        13 3 4 3</rect></_>
    <_>
      <rect>
        17 6 2 2</rect></_></features></cascade>
</opencv_storage>
