<?xml version="1.0"?>
<opencv_storage>
<cascade>
  <stageType>BOOST</stageType>
  <featureType>LBP</featureType>
  <height>16</height>
  <width>32</width>
  <stageParams>
    <boostType>GAB</boostType>
    <minHitRate>9.9500000476837158e-01</minHitRate>
    <maxFalseAlarm>5.0000000000000000e-01</maxFalseAlarm>
    <weightTrimRate>9.4999999999999996e-01</weightTrimRate>
    <maxDepth>1</maxDepth>
    <maxWeakCount>100</maxWeakCount></stageParams>
  <featureParams>
    <maxCatCount>256</maxCatCount>
    <featSize>1</featSize></featureParams>
  <stageNum>2</stageNum>
  <stages>
    <!-- stage 0 -->
    <_>
      <maxWeakCount>2</maxWeakCount>
      <stageThreshold>-8.7290503084659576e-02</stageThreshold>
      <weakClassifiers>
        <_>
          <internalNodes>
            0 -1 0 32776 49152 0 32768 -2004579190 -2147434496
            -2146924408 -1065293816</internalNodes>
          <leafValues>
            -9.8994976282119751e-01 9.2156863212585449e-01</leafValues></_>
        <_>
          <internalNodes>
            0 -1 1 -804667254 -1065302003 1207959552 -2147434488
            -1064515442 -1005796861 -393688950 -930559872</internalNodes>
          <leafValues>
            -9.8978257179260254e-01 9.0265923738479614e-01</leafValues></_></weakClassifiers></_>
    <!-- stage 1 -->
    <_>
      <maxWeakCount>2</maxWeakCount>
      <stageThreshold>-1.6503690183162689e-01</stageThreshold>
      <weakClassifiers>
        <_>
          <internalNodes>
            0 -1 3 1359215615 -176044589 646450121 -859005695 -610955013
            -16702393 -1378747457 -288620573</internalNodes>
          <leafValues>
            -9.8984771966934204e-01 8.4905660152435303e-01</leafValues></_>
        <_>
          <internalNodes>
            0 -1 2 -1854440225 -2010787681 2113 -867837043 -1955364225
            12701408 -1564343881 -487333973</internalNodes>
          <leafValues>
            -9.8935616016387939e-01 8.2481080293655396e-01</leafValues></_></weakClassifiers></_></stages>
  <features>
    <_>
      <rect>
        5 1 5 5</rect></_>
    <_>
      <rect>
        7 6 4 3</rect></_>
    <_>
      <rect>
        11 4 3 2</rect></_>
    <_>
      <rect>
        15 7 2 1</rect></_></features></cascade>
</opencv_storage>
