<?xml version="1.0"?>
<opencv_storage>
<cascade>
  <stageType>BOOST</stageType>
  <featureType>LBP</featureType>
  <height>16</height>
  <width>32</width>
  <stageParams>
    <boostType>GAB</boostType>
    <minHitRate>9.9500000476837158e-01</minHitRate>
    <maxFalseAlarm>5.0000000000000000e-01</maxFalseAlarm>
    <weightTrimRate>9.4999999999999996e-01</weightTrimRate>
    <maxDepth>1</maxDepth>
    <maxWeakCount>100</maxWeakCount></stageParams>
  <featureParams>
    <maxCatCount>256</maxCatCount>
    <featSize>1</featSize></featureParams>
  <stageNum>3</stageNum>
  <stages>
    <!-- stage 0 -->
    <_>
      <maxWeakCount>2</maxWeakCount>
      <stageThreshold>-1.7177957296371460e-01</stageThreshold>
      <weakClassifiers>
        <_>
          <internalNodes>
            0 -1 0 0 3072 0 83951617 8388616 -2013265920 2059
            -1344599541</internalNodes>
          <leafValues>
            -9.3704599142074585e-01 1.</leafValues></_>
        <_>
          <internalNodes>
            0 -1 3 1090519339 -16669143 17408 -542001919 33554688
            -1123806720 -2147467008 -3222585</internalNodes>
          <leafValues>
            -9.9504411220550537e-01 7.6526641845703125e-01</leafValues></_></weakClassifiers></_>
    <!-- stage 1 -->
    <_>
      <maxWeakCount>2</maxWeakCount>
      <stageThreshold>-1.5043875575065613e-01</stageThreshold>
      <weakClassifiers>
        <_>
          <internalNodes>
            0 -1 0 16777216 16777216 0 16973824 -2013265920 -1903548096
            134217739 -1886451185</internalNodes>
          <leafValues>
            -9.4088667631149292e-01 8.7234044075012207e-01</leafValues></_>
        <_>
          <internalNodes>
            0 -1 4 -15740449 -35189809 135636 -576598906 1276838616
            -207384116 -904602502 -18945314</internalNodes>
          <leafValues>
            -9.8962569236755371e-01 7.9044795036315918e-01</leafValues></_></weakClassifiers></_>
    <!-- stage 2 -->
    <_>
      <maxWeakCount>2</maxWeakCount>
      <stageThreshold>-5.7824896648526192e-03</stageThreshold>
      <weakClassifiers>
        <_>
          <internalNodes>
            0 -1 2 -458756 -984328 -16842754 -513 -4521986 -65553
            -30474241 -1343488513</internalNodes>
          <leafValues>
            -9.1387557983398438e-01 1.</leafValues></_>
        <_>
          <internalNodes>
            0 -1 1 -805257024 -1073709056 1073741952 0 -2139061120
            -1073706880 -2147450880 -2013231104</internalNodes>
          <leafValues>
            -8.9783614873886108e-01 9.0809309482574463e-01</leafValues></_></weakClassifiers></_></stages>
  <features>
    <_>
      <rect>
        2 1 10 2</rect></_>
    <_>
      <rect>
        2 9 8 2</rect></_>
    <_>
      <rect>
        5 0 6 3</rect></_>
    <_>
      <rect>
        12 3 5 3</rect></_>
    <_>
      <rect>
        15 7 1 1</rect></_></features></cascade>
</opencv_storage>
