<?xml version="1.0"?>
<opencv_storage>
<cascade>
  <stageType>BOOST</stageType>
  <featureType>LBP</featureType>
  <height>16</height>
  <width>32</width>
  <stageParams>
    <boostType>GAB</boostType>
    <minHitRate>9.9500000476837158e-01</minHitRate>
    <maxFalseAlarm>5.0000000000000000e-01</maxFalseAlarm>
    <weightTrimRate>9.4999999999999996e-01</weightTrimRate>
    <maxDepth>1</maxDepth>
    <maxWeakCount>100</maxWeakCount></stageParams>
  <featureParams>
    <maxCatCount>256</maxCatCount>
    <featSize>1</featSize></featureParams>
  <stageNum>2</stageNum>
  <stages>
    <!-- stage 0 -->
    <_>
      <maxWeakCount>3</maxWeakCount>
      <stageThreshold>-9.6589165925979614e-01</stageThreshold>
      <weakClassifiers>
        <_>
          <internalNodes>
            0 -1 2 0 0 0 16842752 0 0 2 -16053749</internalNodes>
          <leafValues>
            -9.3689322471618652e-01 9.7727274894714355e-01</leafValues></_>
        <_>
          <internalNodes>
            0 -1 3 -805257088 -805273600 49152 -2080374784 -1073709056
            -1073741824 0 -1073741824</internalNodes>
          <leafValues>
            -8.8002920150756836e-01 9.1930788755416870e-01</leafValues></_>
        <_>
          <internalNodes>
            0 -1 0 0 0 0 16842752 2056 -1475870720 1 -1953822582</internalNodes>
          <leafValues>
            -8.8821923732757568e-01 8.5103076696395874e-01</leafValues></_></weakClassifiers></_>
    <!-- stage 1 -->
    <_>
      <maxWeakCount>3</maxWeakCount>
      <stageThreshold>-1.1216474771499634e+00</stageThreshold>
      <weakClassifiers>
        <_>
          <internalNodes>
            0 -1 1 850964 -33620992 -65540 -33587204 130 640 -2147450709
            -1960081269</internalNodes>
          <leafValues>
            -9.1346156597137451e-01 9.5238095521926880e-01</leafValues></_>
        <_>
          <internalNodes>
            0 -1 5 -175640129 -939445931 -805294963 -738194160
            -1873686040 -666700256 -1275025647 -53873197</internalNodes>
          <leafValues>
            -9.3425482511520386e-01 7.1124362945556641e-01</leafValues></_>
        <_>
          <internalNodes>
            0 -1 4 50659652 150998712 1 -1862270976 -2122281960
            -1463769984 168462346 -1617984757</internalNodes>
          <leafValues>
            -9.1942954063415527e-01 7.7374011278152466e-01</leafValues></_></weakClassifiers></_></stages>
  <features>
    <_>
      <rect>
        1 1 10 2</rect></_>
    <_>
      <rect>
        3 0 7 2</rect></_>
    <_>
      <rect>
        8 0 7 2</rect></_>
    <_>
      <rect>
        8 10 7 2</rect></_>
    <_>
      <rect>
        9 1 6 2</rect></_>
    <_>
      <rect>
        14 6 2 2</rect></_></features></cascade>
</opencv_storage>
