<?xml version="1.0"?>
<opencv_storage>
<stage0>
  <maxWeakCount>5</maxWeakCount>
  <stageThreshold>-1.3961219787597656e+00</stageThreshold>
  <weakClassifiers>
    <_>
      <internalNodes>
        0 -1 1201 1.2359985709190369e-01</internalNodes>
      <leafValues>
        -6.5588617324829102e-01 6.1305922269821167e-01</leafValues></_>
    <_>
      <internalNodes>
        0 -1 22290 1.8749810755252838e-02</internalNodes>
      <leafValues>
        -6.0909312963485718e-01 4.6108460426330566e-01</leafValues></_>
    <_>
      <internalNodes>
        0 -1 33462 -5.0364546477794647e-02</internalNodes>
      <leafValues>
        4.6058574318885803e-01 -4.3877395987510681e-01</leafValues></_>
    <_>
      <internalNodes>
        0 -1 88749 1.0101746302098036e-03</internalNodes>
      <leafValues>
        2.7309510111808777e-01 -5.2988570928573608e-01</leafValues></_>
    <_>
      <internalNodes>
        0 -1 109479 6.1893067322671413e-04</internalNodes>
      <leafValues>
        -4.3142837285995483e-01 3.6614003777503967e-01</leafValues></_></weakClassifiers></stage0>
</opencv_storage>
