<?xml version="1.0"?>
<opencv_storage>
<cascade>
  <stageType>BOOST</stageType>
  <featureType>HAAR</featureType>
  <height>16</height>
  <width>32</width>
  <stageParams>
    <boostType>GAB</boostType>
    <minHitRate>9.9500000476837158e-01</minHitRate>
    <maxFalseAlarm>5.0000000000000000e-01</maxFalseAlarm>
    <weightTrimRate>9.4999999999999996e-01</weightTrimRate>
    <maxDepth>1</maxDepth>
    <maxWeakCount>100</maxWeakCount></stageParams>
  <featureParams>
    <maxCatCount>0</maxCatCount>
    <featSize>1</featSize>
    <mode>BASIC</mode></featureParams>
  <stageNum>2</stageNum>
  <stages>
    <!-- stage 0 -->
    <_>
      <maxWeakCount>2</maxWeakCount>
      <stageThreshold>-1.5156444907188416e-01</stageThreshold>
      <weakClassifiers>
        <_>
          <internalNodes>
            0 -1 3 1.7944929003715515e-01</internalNodes>
          <leafValues>
            -9.5918369293212891e-01 9.2156863212585449e-01</leafValues></_>
        <_>
          <internalNodes>
            0 -1 2 6.5125584602355957e-02</internalNodes>
          <leafValues>
            -1. 8.0761921405792236e-01</leafValues></_></weakClassifiers></_>
    <!-- stage 1 -->
    <_>
      <maxWeakCount>3</maxWeakCount>
      <stageThreshold>-8.8544887304306030e-01</stageThreshold>
      <weakClassifiers>
        <_>
          <internalNodes>
            0 -1 0 4.0972459316253662e-01</internalNodes>
          <leafValues>
            -8.6206895112991333e-01 8.8832485675811768e-01</leafValues></_>
        <_>
          <internalNodes>
            0 -1 4 1.6786411404609680e-01</internalNodes>
          <leafValues>
            -8.4237456321716309e-01 8.7473994493484497e-01</leafValues></_>
        <_>
          <internalNodes>
            0 -1 1 1.7165353894233704e-01</internalNodes>
          <leafValues>
            -8.9811986684799194e-01 8.2586318254470825e-01</leafValues></_></weakClassifiers></_></stages>
  <features>
    <_>
      <rects>
        <_>
          4 0 23 12 -1.</_>
        <_>
          4 6 23 6 2.</_></rects>
      <tilted>0</tilted></_>
    <_>
      <rects>
        <_>
          5 0 20 16 -1.</_>
        <_>
          5 8 20 8 2.</_></rects>
      <tilted>0</tilted></_>
    <_>
      <rects>
        <_>
          15 0 3 12 -1.</_>
        <_>
          15 6 3 6 2.</_></rects>
      <tilted>0</tilted></_>
    <_>
      <rects>
        <_>
          15 0 9 12 -1.</_>
        <_>
          15 6 9 6 2.</_></rects>
      <tilted>0</tilted></_>
    <_>
      <rects>
        <_>
          15 0 11 10 -1.</_>
        <_>
          15 5 11 5 2.</_></rects>
      <tilted>0</tilted></_></features></cascade>
</opencv_storage>
