<?xml version="1.0"?>
<opencv_storage>
<stage2>
  <maxWeakCount>9</maxWeakCount>
  <stageThreshold>-1.2189724445343018e+00</stageThreshold>
  <weakClassifiers>
    <_>
      <internalNodes>
        0 -1 99227 3.6598704755306244e-02</internalNodes>
      <leafValues>
        -5.3678476810455322e-01 4.5496535301208496e-01</leafValues></_>
    <_>
      <internalNodes>
        0 -1 22753 -1.6766318003647029e-04</internalNodes>
      <leafValues>
        5.1882648468017578e-01 -4.9991652369499207e-01</leafValues></_>
    <_>
      <internalNodes>
        0 -1 92233 -1.7402600497007370e-04</internalNodes>
      <leafValues>
        5.8981424570083618e-01 -3.7884607911109924e-01</leafValues></_>
    <_>
      <internalNodes>
        0 -1 127712 -2.4029440828599036e-04</internalNodes>
      <leafValues>
        3.4133750200271606e-01 -5.7071769237518311e-01</leafValues></_>
    <_>
      <internalNodes>
        0 -1 106225 -1.2520912103354931e-02</internalNodes>
      <leafValues>
        3.6197841167449951e-01 -6.5496015548706055e-01</leafValues></_>
    <_>
      <internalNodes>
        0 -1 95151 1.5412736684083939e-04</internalNodes>
      <leafValues>
        -4.9196305871009827e-01 3.4718388319015503e-01</leafValues></_>
    <_>
      <internalNodes>
        0 -1 83850 5.9039343614131212e-04</internalNodes>
      <leafValues>
        -7.1637421846389771e-01 2.8363081812858582e-01</leafValues></_>
    <_>
      <internalNodes>
        0 -1 7038 -1.1546652019023895e-01</internalNodes>
      <leafValues>
        4.5228281617164612e-01 -4.2804414033889771e-01</leafValues></_>
    <_>
      <internalNodes>
        0 -1 33746 3.7680375389754772e-03</internalNodes>
      <leafValues>
        -5.7289993762969971e-01 2.7591374516487122e-01</leafValues></_></weakClassifiers></stage2>
</opencv_storage>
