<?xml version="1.0"?>
<opencv_storage>
<stage2>
  <maxWeakCount>10</maxWeakCount>
  <stageThreshold>-1.5231703519821167e+00</stageThreshold>
  <weakClassifiers>
    <_>
      <internalNodes>
        0 -1 43551 -3.2422383083030581e-04</internalNodes>
      <leafValues>
        8.5714286565780640e-01 -4.2696627974510193e-01</leafValues></_>
    <_>
      <internalNodes>
        0 -1 343 -1.2267279089428484e-04</internalNodes>
      <leafValues>
        5.8349698781967163e-01 -5.7655853033065796e-01</leafValues></_>
    <_>
      <internalNodes>
        0 -1 72782 -7.8208581544458866e-04</internalNodes>
      <leafValues>
        3.0973246693611145e-01 -8.0747234821319580e-01</leafValues></_>
    <_>
      <internalNodes>
        0 -1 77113 7.9342827666550875e-04</internalNodes>
      <leafValues>
        -6.0706984996795654e-01 3.2789736986160278e-01</leafValues></_>
    <_>
      <internalNodes>
        0 -1 15398 -4.2561633745208383e-04</internalNodes>
      <leafValues>
        7.6379120349884033e-01 -3.1829944252967834e-01</leafValues></_>
    <_>
      <internalNodes>
        0 -1 106951 -5.8420107234269381e-04</internalNodes>
      <leafValues>
        5.5698955059051514e-01 -3.5009700059890747e-01</leafValues></_>
    <_>
      <internalNodes>
        0 -1 23343 2.0765085355378687e-04</internalNodes>
      <leafValues>
        2.5639855861663818e-01 -8.5253536701202393e-01</leafValues></_>
    <_>
      <internalNodes>
        0 -1 103249 -7.2299730964004993e-03</internalNodes>
      <leafValues>
        -8.2820802927017212e-01 2.0355574786663055e-01</leafValues></_>
    <_>
      <internalNodes>
        0 -1 83039 -4.1583369602449238e-04</internalNodes>
      <leafValues>
        8.7217050790786743e-01 -2.5278574228286743e-01</leafValues></_>
    <_>
      <internalNodes>
        0 -1 10491 3.4012612886726856e-03</internalNodes>
      <leafValues>
        -5.9448593854904175e-01 4.1288641095161438e-01</leafValues></_></weakClassifiers></stage2>
</opencv_storage>
