<?xml version="1.0"?>
<opencv_storage>
<cascade>
  <stageType>BOOST</stageType>
  <featureType>HAAR</featureType>
  <height>16</height>
  <width>32</width>
  <stageParams>
    <boostType>GAB</boostType>
    <minHitRate>9.9500000476837158e-01</minHitRate>
    <maxFalseAlarm>5.0000000000000000e-01</maxFalseAlarm>
    <weightTrimRate>9.4999999999999996e-01</weightTrimRate>
    <maxDepth>1</maxDepth>
    <maxWeakCount>100</maxWeakCount></stageParams>
  <featureParams>
    <maxCatCount>0</maxCatCount>
    <featSize>1</featSize>
    <mode>BASIC</mode></featureParams>
  <stageNum>5</stageNum>
  <stages>
    <!-- stage 0 -->
    <_>
      <maxWeakCount>4</maxWeakCount>
      <stageThreshold>-6.4688378572463989e-01</stageThreshold>
      <weakClassifiers>
        <_>
          <internalNodes>
            0 -1 5 5.7253856211900711e-03</internalNodes>
          <leafValues>
            3.9723503589630127e-01 -8.3689320087432861e-01</leafValues></_>
        <_>
          <internalNodes>
            0 -1 39 -5.6375749409198761e-03</internalNodes>
          <leafValues>
            -7.7711486816406250e-01 2.9585349559783936e-01</leafValues></_>
        <_>
          <internalNodes>
            0 -1 17 1.3145282864570618e-01</internalNodes>
          <leafValues>
            -7.0749664306640625e-01 2.8961157798767090e-01</leafValues></_>
        <_>
          <internalNodes>
            0 -1 58 8.3669118583202362e-02</internalNodes>
          <leafValues>
            -3.9545565843582153e-01 4.8501253128051758e-01</leafValues></_></weakClassifiers></_>
    <!-- stage 1 -->
    <_>
      <maxWeakCount>8</maxWeakCount>
      <stageThreshold>-1.5394781827926636e+00</stageThreshold>
      <weakClassifiers>
        <_>
          <internalNodes>
            0 -1 43 6.7062414018437266e-05</internalNodes>
          <leafValues>
            -6.4516127109527588e-01 2.8985506296157837e-01</leafValues></_>
        <_>
          <internalNodes>
            0 -1 0 -1.2529065832495689e-02</internalNodes>
          <leafValues>
            -9.0088796615600586e-01 1.6420820355415344e-01</leafValues></_>
        <_>
          <internalNodes>
            0 -1 11 4.5355343818664551e-01</internalNodes>
          <leafValues>
            -4.9191153049468994e-01 3.9198294281959534e-01</leafValues></_>
        <_>
          <internalNodes>
            0 -1 22 -3.9095580577850342e-03</internalNodes>
          <leafValues>
            -6.7108160257339478e-01 2.1335411071777344e-01</leafValues></_>
        <_>
          <internalNodes>
            0 -1 37 -4.7493584454059601e-02</internalNodes>
          <leafValues>
            -8.8942915201187134e-01 1.0324200242757797e-01</leafValues></_>
        <_>
          <internalNodes>
            0 -1 63 1.4150143833830953e-03</internalNodes>
          <leafValues>
            -1.9575677812099457e-01 6.1527621746063232e-01</leafValues></_>
        <_>
          <internalNodes>
            0 -1 21 -1.1096567846834660e-02</internalNodes>
          <leafValues>
            -8.3391642570495605e-01 1.3359183073043823e-01</leafValues></_>
        <_>
          <internalNodes>
            0 -1 44 -2.4996441788971424e-03</internalNodes>
          <leafValues>
            -8.5572183132171631e-01 6.3390992581844330e-02</leafValues></_></weakClassifiers></_>
    <!-- stage 2 -->
    <_>
      <maxWeakCount>12</maxWeakCount>
      <stageThreshold>-1.0911084413528442e+00</stageThreshold>
      <weakClassifiers>
        <_>
          <internalNodes>
            0 -1 14 1.5883556334301829e-03</internalNodes>
          <leafValues>
            -7.0680630207061768e-01 2.2167487442493439e-01</leafValues></_>
        <_>
          <internalNodes>
            0 -1 42 -6.7727351561188698e-03</internalNodes>
          <leafValues>
            -5.9751689434051514e-01 1.9540789723396301e-01</leafValues></_>
        <_>
          <internalNodes>
            0 -1 19 9.1972807422280312e-03</internalNodes>
          <leafValues>
            1.5009687840938568e-01 -7.9668837785720825e-01</leafValues></_>
        <_>
          <internalNodes>
            0 -1 32 1.4895524829626083e-02</internalNodes>
          <leafValues>
            1.3405568897724152e-01 -7.6354050636291504e-01</leafValues></_>
        <_>
          <internalNodes>
            0 -1 51 -6.7261641379445791e-04</internalNodes>
          <leafValues>
            -4.4764035940170288e-01 1.8176360428333282e-01</leafValues></_>
        <_>
          <internalNodes>
            0 -1 40 -1.2494141235947609e-02</internalNodes>
          <leafValues>
            -6.8599820137023926e-01 1.0821522772312164e-01</leafValues></_>
        <_>
          <internalNodes>
            0 -1 3 2.2995560429990292e-03</internalNodes>
          <leafValues>
            -1.5665519237518311e-01 6.0524725914001465e-01</leafValues></_>
        <_>
          <internalNodes>
            0 -1 9 -3.0848807655274868e-03</internalNodes>
          <leafValues>
            1.0268239676952362e-01 -5.9783923625946045e-01</leafValues></_>
        <_>
          <internalNodes>
            0 -1 53 2.4118704459397122e-05</internalNodes>
          <leafValues>
            -8.1118367612361908e-02 7.2266530990600586e-01</leafValues></_>
        <_>
          <internalNodes>
            0 -1 30 -1.3431972824037075e-02</internalNodes>
          <leafValues>
            -7.6578080654144287e-01 9.2403769493103027e-02</leafValues></_>
        <_>
          <internalNodes>
            0 -1 46 -4.3357200920581818e-03</internalNodes>
          <leafValues>
            -5.6098854541778564e-01 1.1480176448822021e-01</leafValues></_>
        <_>
          <internalNodes>
            0 -1 28 8.4303217008709908e-03</internalNodes>
          <leafValues>
            1.5329612791538239e-01 -4.7242501378059387e-01</leafValues></_></weakClassifiers></_>
    <!-- stage 3 -->
    <_>
      <maxWeakCount>20</maxWeakCount>
      <stageThreshold>-9.4997489452362061e-01</stageThreshold>
      <weakClassifiers>
        <_>
          <internalNodes>
            0 -1 23 -7.4353202944621444e-04</internalNodes>
          <leafValues>
            -4.3122676014900208e-01 2.1845574676990509e-01</leafValues></_>
        <_>
          <internalNodes>
            0 -1 56 3.8164646830409765e-03</internalNodes>
          <leafValues>
            -5.7419240474700928e-01 1.5089245140552521e-01</leafValues></_>
        <_>
          <internalNodes>
            0 -1 12 4.9626315012574196e-03</internalNodes>
          <leafValues>
            1.1364576965570450e-01 -9.1956073045730591e-01</leafValues></_>
        <_>
          <internalNodes>
            0 -1 6 -9.8151671409141272e-05</internalNodes>
          <leafValues>
            6.0067975521087646e-01 -1.5798607468605042e-01</leafValues></_>
        <_>
          <internalNodes>
            0 -1 2 -1.7643174529075623e-01</internalNodes>
          <leafValues>
            9.5631325244903564e-01 -1.0143351554870605e-01</leafValues></_>
        <_>
          <internalNodes>
            0 -1 10 4.1522929677739739e-05</internalNodes>
          <leafValues>
            -7.1439042687416077e-02 8.9042019844055176e-01</leafValues></_>
        <_>
          <internalNodes>
            0 -1 54 6.6170413047075272e-03</internalNodes>
          <leafValues>
            -7.0897215604782104e-01 1.1785585433244705e-01</leafValues></_>
        <_>
          <internalNodes>
            0 -1 15 -2.5910821932484396e-05</internalNodes>
          <leafValues>
            -4.3671524524688721e-01 1.6266861557960510e-01</leafValues></_>
        <_>
          <internalNodes>
            0 -1 38 -4.7547779104206711e-05</internalNodes>
          <leafValues>
            8.1949180364608765e-01 -1.1287908256053925e-01</leafValues></_>
        <_>
          <internalNodes>
            0 -1 57 5.0194993615150452e-02</internalNodes>
          <leafValues>
            -1.5437497198581696e-01 4.7291630506515503e-01</leafValues></_>
        <_>
          <internalNodes>
            0 -1 18 -2.7593673439696431e-04</internalNodes>
          <leafValues>
            -5.5265182256698608e-01 1.5928503870964050e-01</leafValues></_>
        <_>
          <internalNodes>
            0 -1 1 -2.5332039222121239e-03</internalNodes>
          <leafValues>
            -4.1290473937988281e-01 1.7523138225078583e-01</leafValues></_>
        <_>
          <internalNodes>
            0 -1 61 2.9338835738599300e-03</internalNodes>
          <leafValues>
            -4.9187448620796204e-01 1.4273619651794434e-01</leafValues></_>
        <_>
          <internalNodes>
            0 -1 60 1.0677300393581390e-01</internalNodes>
          <leafValues>
            -1.1237618327140808e-01 7.7861171960830688e-01</leafValues></_>
        <_>
          <internalNodes>
            0 -1 4 -1.6381221357733011e-03</internalNodes>
          <leafValues>
            -2.4705235660076141e-01 2.5795742869377136e-01</leafValues></_>
        <_>
          <internalNodes>
            0 -1 25 -2.5778257846832275e-01</internalNodes>
          <leafValues>
            2.4055166542530060e-01 -2.7934023737907410e-01</leafValues></_>
        <_>
          <internalNodes>
            0 -1 50 1.4084656140767038e-04</internalNodes>
          <leafValues>
            -3.3187791705131531e-01 2.9758507013320923e-01</leafValues></_>
        <_>
          <internalNodes>
            0 -1 59 3.3240340650081635e-02</internalNodes>
          <leafValues>
            4.3914800882339478e-01 -1.6917812824249268e-01</leafValues></_>
        <_>
          <internalNodes>
            0 -1 64 7.0536116254515946e-05</internalNodes>
          <leafValues>
            -1.2023469060659409e-01 5.7793438434600830e-01</leafValues></_>
        <_>
          <internalNodes>
            0 -1 13 3.7056190194562078e-04</internalNodes>
          <leafValues>
            -1.8081335723400116e-01 3.9251109957695007e-01</leafValues></_></weakClassifiers></_>
    <!-- stage 4 -->
    <_>
      <maxWeakCount>21</maxWeakCount>
      <stageThreshold>-1.0472306013107300e+00</stageThreshold>
      <weakClassifiers>
        <_>
          <internalNodes>
            0 -1 31 -3.4052014234475791e-04</internalNodes>
          <leafValues>
            8.1081080436706543e-01 -1.8404908478260040e-01</leafValues></_>
        <_>
          <internalNodes>
            0 -1 27 6.9047156721353531e-03</internalNodes>
          <leafValues>
            1.5668001770973206e-01 -7.7251571416854858e-01</leafValues></_>
        <_>
          <internalNodes>
            0 -1 16 1.6491932910867035e-04</internalNodes>
          <leafValues>
            -2.0147147774696350e-01 5.3800398111343384e-01</leafValues></_>
        <_>
          <internalNodes>
            0 -1 34 1.4623342081904411e-02</internalNodes>
          <leafValues>
            -1.3498027622699738e-01 7.7087765932083130e-01</leafValues></_>
        <_>
          <internalNodes>
            0 -1 8 5.1580504514276981e-03</internalNodes>
          <leafValues>
            -1.3734780251979828e-01 8.7621778249740601e-01</leafValues></_>
        <_>
          <internalNodes>
            0 -1 33 -1.0328916832804680e-02</internalNodes>
          <leafValues>
            -7.6191300153732300e-01 1.7045840620994568e-01</leafValues></_>
        <_>
          <internalNodes>
            0 -1 52 -2.1616863086819649e-03</internalNodes>
          <leafValues>
            4.3230637907981873e-01 -2.3202802240848541e-01</leafValues></_>
        <_>
          <internalNodes>
            0 -1 26 -1.4518639363814145e-04</internalNodes>
          <leafValues>
            4.1129246354103088e-01 -2.6387849450111389e-01</leafValues></_>
        <_>
          <internalNodes>
            0 -1 62 -4.8042018897831440e-04</internalNodes>
          <leafValues>
            6.6797173023223877e-01 -1.6887603700160980e-01</leafValues></_>
        <_>
          <internalNodes>
            0 -1 20 -1.5393791720271111e-02</internalNodes>
          <leafValues>
            6.6068375110626221e-01 -1.5623041987419128e-01</leafValues></_>
        <_>
          <internalNodes>
            0 -1 36 -6.1383325373753905e-05</internalNodes>
          <leafValues>
            6.0210835933685303e-01 -1.5251719951629639e-01</leafValues></_>
        <_>
          <internalNodes>
            0 -1 55 1.1669911145872902e-05</internalNodes>
          <leafValues>
            -1.0235049575567245e-01 9.0502536296844482e-01</leafValues></_>
        <_>
          <internalNodes>
            0 -1 29 3.4420251846313477e-02</internalNodes>
          <leafValues>
            1.3234844803810120e-01 -7.8845930099487305e-01</leafValues></_>
        <_>
          <internalNodes>
            0 -1 48 7.3829910252243280e-04</internalNodes>
          <leafValues>
            -1.0966616123914719e-01 1.</leafValues></_>
        <_>
          <internalNodes>
            0 -1 7 8.5342861711978912e-04</internalNodes>
          <leafValues>
            -8.5848815739154816e-02 1.</leafValues></_>
        <_>
          <internalNodes>
            0 -1 45 3.4462638199329376e-02</internalNodes>
          <leafValues>
            -6.5714046359062195e-02 8.3748567104339600e-01</leafValues></_>
        <_>
          <internalNodes>
            0 -1 41 -4.3217949569225311e-03</internalNodes>
          <leafValues>
            -5.1363313198089600e-01 1.8854419887065887e-01</leafValues></_>
        <_>
          <internalNodes>
            0 -1 24 -6.4221424981951714e-03</internalNodes>
          <leafValues>
            8.9733850955963135e-01 -9.4614170491695404e-02</leafValues></_>
        <_>
          <internalNodes>
            0 -1 49 8.5031036287546158e-03</internalNodes>
          <leafValues>
            -1.0817470401525497e-01 6.4765667915344238e-01</leafValues></_>
        <_>
          <internalNodes>
            0 -1 35 1.4816995710134506e-02</internalNodes>
          <leafValues>
            -1.6056297719478607e-01 5.0488293170928955e-01</leafValues></_>
        <_>
          <internalNodes>
            0 -1 47 2.4074640125036240e-02</internalNodes>
          <leafValues>
            1.8843436241149902e-01 -4.5576709508895874e-01</leafValues></_></weakClassifiers></_></stages>
  <features>
    <_>
      <rects>
        <_>
          0 0 30 6 -1.</_>
        <_>
          0 0 15 3 2.</_>
        <_>
          15 3 15 3 2.</_></rects>
      <tilted>0</tilted></_>
    <_>
      <rects>
        <_>
          0 4 30 2 -1.</_>
        <_>
          0 4 15 1 2.</_>
        <_>
          15 5 15 1 2.</_></rects>
      <tilted>0</tilted></_>
    <_>
      <rects>
        <_>
          0 6 10 10 -1.</_>
        <_>
          0 11 10 5 2.</_></rects>
      <tilted>0</tilted></_>
    <_>
      <rects>
        <_>
          0 7 2 2 -1.</_>
        <_>
          1 7 1 2 2.</_></rects>
      <tilted>0</tilted></_>
    <_>
      <rects>
        <_>
          0 10 4 2 -1.</_>
        <_>
          0 10 2 1 2.</_>
        <_>
          2 11 2 1 2.</_></rects>
      <tilted>0</tilted></_>
    <_>
      <rects>
        <_>
          0 11 30 4 -1.</_>
        <_>
          10 11 10 4 3.</_></rects>
      <tilted>0</tilted></_>
    <_>
      <rects>
        <_>
          0 12 12 4 -1.</_>
        <_>
          4 12 4 4 3.</_></rects>
      <tilted>0</tilted></_>
    <_>
      <rects>
        <_>
          1 2 2 2 -1.</_>
        <_>
          1 2 1 1 2.</_>
        <_>
          2 3 1 1 2.</_></rects>
      <tilted>0</tilted></_>
    <_>
      <rects>
        <_>
          1 4 1 12 -1.</_>
        <_>
          1 8 1 4 3.</_></rects>
      <tilted>0</tilted></_>
    <_>
      <rects>
        <_>
          1 6 4 10 -1.</_>
        <_>
          1 6 2 5 2.</_>
        <_>
          3 11 2 5 2.</_></rects>
      <tilted>0</tilted></_>
    <_>
      <rects>
        <_>
          1 10 4 6 -1.</_>
        <_>
          1 12 4 2 3.</_></rects>
      <tilted>0</tilted></_>
    <_>
      <rects>
        <_>
          2 0 20 15 -1.</_>
        <_>
          2 5 20 5 3.</_></rects>
      <tilted>0</tilted></_>
    <_>
      <rects>
        <_>
          2 9 18 4 -1.</_>
        <_>
          11 9 9 4 2.</_></rects>
      <tilted>0</tilted></_>
    <_>
      <rects>
        <_>
          2 11 12 4 -1.</_>
        <_>
          6 11 4 4 3.</_></rects>
      <tilted>0</tilted></_>
    <_>
      <rects>
        <_>
          3 1 2 6 -1.</_>
        <_>
          3 4 2 3 2.</_></rects>
      <tilted>0</tilted></_>
    <_>
      <rects>
        <_>
          3 2 15 1 -1.</_>
        <_>
          8 2 5 1 3.</_></rects>
      <tilted>0</tilted></_>
    <_>
      <rects>
        <_>
          3 12 15 4 -1.</_>
        <_>
          8 12 5 4 3.</_></rects>
      <tilted>0</tilted></_>
    <_>
      <rects>
        <_>
          4 1 6 15 -1.</_>
        <_>
          4 6 6 5 3.</_></rects>
      <tilted>0</tilted></_>
    <_>
      <rects>
        <_>
          4 2 24 1 -1.</_>
        <_>
          12 2 8 1 3.</_></rects>
      <tilted>0</tilted></_>
    <_>
      <rects>
        <_>
          4 3 12 8 -1.</_>
        <_>
          4 3 6 4 2.</_>
        <_>
          10 7 6 4 2.</_></rects>
      <tilted>0</tilted></_>
    <_>
      <rects>
        <_>
          4 9 2 4 -1.</_>
        <_>
          4 11 2 2 2.</_></rects>
      <tilted>0</tilted></_>
    <_>
      <rects>
        <_>
          5 1 24 4 -1.</_>
        <_>
          17 1 12 4 2.</_></rects>
      <tilted>0</tilted></_>
    <_>
      <rects>
        <_>
          5 2 12 4 -1.</_>
        <_>
          9 2 4 4 3.</_></rects>
      <tilted>0</tilted></_>
    <_>
      <rects>
        <_>
          5 2 24 4 -1.</_>
        <_>
          17 2 12 4 2.</_></rects>
      <tilted>0</tilted></_>
    <_>
      <rects>
        <_>
          5 4 4 2 -1.</_>
        <_>
          7 4 2 2 2.</_></rects>
      <tilted>0</tilted></_>
    <_>
      <rects>
        <_>
          5 5 22 10 -1.</_>
        <_>
          5 10 22 5 2.</_></rects>
      <tilted>0</tilted></_>
    <_>
      <rects>
        <_>
          5 8 2 2 -1.</_>
        <_>
          5 9 2 1 2.</_></rects>
      <tilted>0</tilted></_>
    <_>
      <rects>
        <_>
          5 10 2 3 -1.</_>
        <_>
          5 11 2 1 3.</_></rects>
      <tilted>0</tilted></_>
    <_>
      <rects>
        <_>
          6 2 20 4 -1.</_>
        <_>
          6 2 10 2 2.</_>
        <_>
          16 4 10 2 2.</_></rects>
      <tilted>0</tilted></_>
    <_>
      <rects>
        <_>
          6 10 24 2 -1.</_>
        <_>
          14 10 8 2 3.</_></rects>
      <tilted>0</tilted></_>
    <_>
      <rects>
        <_>
          6 10 18 5 -1.</_>
        <_>
          15 10 9 5 2.</_></rects>
      <tilted>0</tilted></_>
    <_>
      <rects>
        <_>
          6 11 20 2 -1.</_>
        <_>
          16 11 10 2 2.</_></rects>
      <tilted>0</tilted></_>
    <_>
      <rects>
        <_>
          7 0 20 5 -1.</_>
        <_>
          17 0 10 5 2.</_></rects>
      <tilted>0</tilted></_>
    <_>
      <rects>
        <_>
          7 0 22 6 -1.</_>
        <_>
          7 0 11 3 2.</_>
        <_>
          18 3 11 3 2.</_></rects>
      <tilted>0</tilted></_>
    <_>
      <rects>
        <_>
          7 4 6 3 -1.</_>
        <_>
          9 4 2 3 3.</_></rects>
      <tilted>0</tilted></_>
    <_>
      <rects>
        <_>
          7 6 2 6 -1.</_>
        <_>
          7 8 2 2 3.</_></rects>
      <tilted>0</tilted></_>
    <_>
      <rects>
        <_>
          7 11 14 2 -1.</_>
        <_>
          7 11 7 1 2.</_>
        <_>
          14 12 7 1 2.</_></rects>
      <tilted>0</tilted></_>
    <_>
      <rects>
        <_>
          8 0 20 14 -1.</_>
        <_>
          8 0 10 7 2.</_>
        <_>
          18 7 10 7 2.</_></rects>
      <tilted>0</tilted></_>
    <_>
      <rects>
        <_>
          8 14 24 2 -1.</_>
        <_>
          16 14 8 2 3.</_></rects>
      <tilted>0</tilted></_>
    <_>
      <rects>
        <_>
          9 0 22 5 -1.</_>
        <_>
          20 0 11 5 2.</_></rects>
      <tilted>0</tilted></_>
    <_>
      <rects>
        <_>
          9 2 18 5 -1.</_>
        <_>
          18 2 9 5 2.</_></rects>
      <tilted>0</tilted></_>
    <_>
      <rects>
        <_>
          11 0 18 6 -1.</_>
        <_>
          20 0 9 6 2.</_></rects>
      <tilted>0</tilted></_>
    <_>
      <rects>
        <_>
          11 2 18 5 -1.</_>
        <_>
          20 2 9 5 2.</_></rects>
      <tilted>0</tilted></_>
    <_>
      <rects>
        <_>
          12 2 12 13 -1.</_>
        <_>
          18 2 6 13 2.</_></rects>
      <tilted>0</tilted></_>
    <_>
      <rects>
        <_>
          12 11 10 4 -1.</_>
        <_>
          17 11 5 4 2.</_></rects>
      <tilted>0</tilted></_>
    <_>
      <rects>
        <_>
          13 0 12 11 -1.</_>
        <_>
          17 0 4 11 3.</_></rects>
      <tilted>0</tilted></_>
    <_>
      <rects>
        <_>
          13 0 12 7 -1.</_>
        <_>
          19 0 6 7 2.</_></rects>
      <tilted>0</tilted></_>
    <_>
      <rects>
        <_>
          13 3 8 9 -1.</_>
        <_>
          17 3 4 9 2.</_></rects>
      <tilted>0</tilted></_>
    <_>
      <rects>
        <_>
          13 11 2 3 -1.</_>
        <_>
          14 11 1 3 2.</_></rects>
      <tilted>0</tilted></_>
    <_>
      <rects>
        <_>
          14 3 6 12 -1.</_>
        <_>
          14 3 3 6 2.</_>
        <_>
          17 9 3 6 2.</_></rects>
      <tilted>0</tilted></_>
    <_>
      <rects>
        <_>
          14 11 10 5 -1.</_>
        <_>
          19 11 5 5 2.</_></rects>
      <tilted>0</tilted></_>
    <_>
      <rects>
        <_>
          15 10 12 3 -1.</_>
        <_>
          19 10 4 3 3.</_></rects>
      <tilted>0</tilted></_>
    <_>
      <rects>
        <_>
          16 6 8 4 -1.</_>
        <_>
          16 6 4 2 2.</_>
        <_>
          20 8 4 2 2.</_></rects>
      <tilted>0</tilted></_>
    <_>
      <rects>
        <_>
          16 14 16 2 -1.</_>
        <_>
          24 14 8 2 2.</_></rects>
      <tilted>0</tilted></_>
    <_>
      <rects>
        <_>
          17 0 2 15 -1.</_>
        <_>
          17 5 2 5 3.</_></rects>
      <tilted>0</tilted></_>
    <_>
      <rects>
        <_>
          20 14 12 1 -1.</_>
        <_>
          26 14 6 1 2.</_></rects>
      <tilted>0</tilted></_>
    <_>
      <rects>
        <_>
          21 0 1 8 -1.</_>
        <_>
          21 4 1 4 2.</_></rects>
      <tilted>0</tilted></_>
    <_>
      <rects>
        <_>
          21 0 9 9 -1.</_>
        <_>
          21 3 9 3 3.</_></rects>
      <tilted>0</tilted></_>
    <_>
      <rects>
        <_>
          22 0 7 12 -1.</_>
        <_>
          22 4 7 4 3.</_></rects>
      <tilted>0</tilted></_>
    <_>
      <rects>
        <_>
          22 2 8 8 -1.</_>
        <_>
          22 6 8 4 2.</_></rects>
      <tilted>0</tilted></_>
    <_>
      <rects>
        <_>
          22 3 4 12 -1.</_>
        <_>
          22 7 4 4 3.</_></rects>
      <tilted>0</tilted></_>
    <_>
      <rects>
        <_>
          24 0 3 12 -1.</_>
        <_>
          24 4 3 4 3.</_></rects>
      <tilted>0</tilted></_>
    <_>
      <rects>
        <_>
          26 8 3 3 -1.</_>
        <_>
          26 9 3 1 3.</_></rects>
      <tilted>0</tilted></_>
    <_>
      <rects>
        <_>
          28 7 4 9 -1.</_>
        <_>
          28 10 4 3 3.</_></rects>
      <tilted>0</tilted></_>
    <_>
      <rects>
        <_>
          31 6 1 9 -1.</_>
        <_>
          31 9 1 3 3.</_></rects>
      <tilted>0</tilted></_></features></cascade>
</opencv_storage>
