<?xml version="1.0"?>
<opencv_storage>
<stage3>
  <maxWeakCount>20</maxWeakCount>
  <stageThreshold>-9.4997489452362061e-01</stageThreshold>
  <weakClassifiers>
    <_>
      <internalNodes>
        0 -1 38970 -7.4353202944621444e-04</internalNodes>
      <leafValues>
        -4.3122676014900208e-01 2.1845574676990509e-01</leafValues></_>
    <_>
      <internalNodes>
        0 -1 113256 3.8164646830409765e-03</internalNodes>
      <leafValues>
        -5.7419240474700928e-01 1.5089245140552521e-01</leafValues></_>
    <_>
      <internalNodes>
        0 -1 21692 4.9626315012574196e-03</internalNodes>
      <leafValues>
        1.1364576965570450e-01 -9.1956073045730591e-01</leafValues></_>
    <_>
      <internalNodes>
        0 -1 7423 -9.8151671409141272e-05</internalNodes>
      <leafValues>
        6.0067975521087646e-01 -1.5798607468605042e-01</leafValues></_>
    <_>
      <internalNodes>
        0 -1 5095 -1.7643174529075623e-01</internalNodes>
      <leafValues>
        9.5631325244903564e-01 -1.0143351554870605e-01</leafValues></_>
    <_>
      <internalNodes>
        0 -1 14446 4.1522929677739739e-05</internalNodes>
      <leafValues>
        -7.1439042687416077e-02 8.9042019844055176e-01</leafValues></_>
    <_>
      <internalNodes>
        0 -1 100188 6.6170413047075272e-03</internalNodes>
      <leafValues>
        -7.0897215604782104e-01 1.1785585433244705e-01</leafValues></_>
    <_>
      <internalNodes>
        0 -1 24786 -2.5910821932484396e-05</internalNodes>
      <leafValues>
        -4.3671524524688721e-01 1.6266861557960510e-01</leafValues></_>
    <_>
      <internalNodes>
        0 -1 61975 -4.7547779104206711e-05</internalNodes>
      <leafValues>
        8.1949180364608765e-01 -1.1287908256053925e-01</leafValues></_>
    <_>
      <internalNodes>
        0 -1 113517 5.0194993615150452e-02</internalNodes>
      <leafValues>
        -1.5437497198581696e-01 4.7291630506515503e-01</leafValues></_>
    <_>
      <internalNodes>
        0 -1 31939 -2.7593673439696431e-04</internalNodes>
      <leafValues>
        -5.5265182256698608e-01 1.5928503870964050e-01</leafValues></_>
    <_>
      <internalNodes>
        0 -1 3943 -2.5332039222121239e-03</internalNodes>
      <leafValues>
        -4.1290473937988281e-01 1.7523138225078583e-01</leafValues></_>
    <_>
      <internalNodes>
        0 -1 120504 2.9338835738599300e-03</internalNodes>
      <leafValues>
        -4.9187448620796204e-01 1.4273619651794434e-01</leafValues></_>
    <_>
      <internalNodes>
        0 -1 116762 1.0677300393581390e-01</internalNodes>
      <leafValues>
        -1.1237618327140808e-01 7.7861171960830688e-01</leafValues></_>
    <_>
      <internalNodes>
        0 -1 6774 -1.6381221357733011e-03</internalNodes>
      <leafValues>
        -2.4705235660076141e-01 2.5795742869377136e-01</leafValues></_>
    <_>
      <internalNodes>
        0 -1 40904 -2.5778257846832275e-01</internalNodes>
      <leafValues>
        2.4055166542530060e-01 -2.7934023737907410e-01</leafValues></_>
    <_>
      <internalNodes>
        0 -1 91752 1.4084656140767038e-04</internalNodes>
      <leafValues>
        -3.3187791705131531e-01 2.9758507013320923e-01</leafValues></_>
    <_>
      <internalNodes>
        0 -1 116595 3.3240340650081635e-02</internalNodes>
      <leafValues>
        4.3914800882339478e-01 -1.6917812824249268e-01</leafValues></_>
    <_>
      <internalNodes>
        0 -1 128517 7.0536116254515946e-05</internalNodes>
      <leafValues>
        -1.2023469060659409e-01 5.7793438434600830e-01</leafValues></_>
    <_>
      <internalNodes>
        0 -1 22274 3.7056190194562078e-04</internalNodes>
      <leafValues>
        -1.8081335723400116e-01 3.9251109957695007e-01</leafValues></_></weakClassifiers></stage3>
</opencv_storage>
