<?xml version="1.0"?>
<opencv_storage>
<cascade>
  <stageType>BOOST</stageType>
  <featureType>HAAR</featureType>
  <height>16</height>
  <width>32</width>
  <stageParams>
    <boostType>GAB</boostType>
    <minHitRate>9.9500000476837158e-01</minHitRate>
    <maxFalseAlarm>5.0000000000000000e-01</maxFalseAlarm>
    <weightTrimRate>9.4999999999999996e-01</weightTrimRate>
    <maxDepth>1</maxDepth>
    <maxWeakCount>100</maxWeakCount></stageParams>
  <featureParams>
    <maxCatCount>0</maxCatCount>
    <featSize>1</featSize>
    <mode>BASIC</mode></featureParams>
  <stageNum>5</stageNum>
  <stages>
    <!-- stage 0 -->
    <_>
      <maxWeakCount>3</maxWeakCount>
      <stageThreshold>-1.2879003286361694e+00</stageThreshold>
      <weakClassifiers>
        <_>
          <internalNodes>
            0 -1 0 1.8560144305229187e-01</internalNodes>
          <leafValues>
            -8.5769730806350708e-01 8.0169284343719482e-01</leafValues></_>
        <_>
          <internalNodes>
            0 -1 25 -1.6272929310798645e-01</internalNodes>
          <leafValues>
            4.9087527394294739e-01 -8.3119690418243408e-01</leafValues></_>
        <_>
          <internalNodes>
            0 -1 14 1.3970755971968174e-02</internalNodes>
          <leafValues>
            -7.8523421287536621e-01 4.0099379420280457e-01</leafValues></_></weakClassifiers></_>
    <!-- stage 1 -->
    <_>
      <maxWeakCount>6</maxWeakCount>
      <stageThreshold>-1.2532675266265869e+00</stageThreshold>
      <weakClassifiers>
        <_>
          <internalNodes>
            0 -1 3 1.3315260410308838e-01</internalNodes>
          <leafValues>
            -7.2524750232696533e-01 7.3989897966384888e-01</leafValues></_>
        <_>
          <internalNodes>
            0 -1 21 -2.4238835275173187e-01</internalNodes>
          <leafValues>
            4.8943200707435608e-01 -6.1622536182403564e-01</leafValues></_>
        <_>
          <internalNodes>
            0 -1 17 -2.4532636161893606e-03</internalNodes>
          <leafValues>
            -7.5404143333435059e-01 2.9815331101417542e-01</leafValues></_>
        <_>
          <internalNodes>
            0 -1 16 7.6811164617538452e-03</internalNodes>
          <leafValues>
            3.4006905555725098e-01 -7.3323428630828857e-01</leafValues></_>
        <_>
          <internalNodes>
            0 -1 29 -2.8580578509718180e-04</internalNodes>
          <leafValues>
            2.3220148682594299e-01 -7.4397045373916626e-01</leafValues></_>
        <_>
          <internalNodes>
            0 -1 2 1.2131975963711739e-02</internalNodes>
          <leafValues>
            -7.6500749588012695e-01 2.6997622847557068e-01</leafValues></_></weakClassifiers></_>
    <!-- stage 2 -->
    <_>
      <maxWeakCount>7</maxWeakCount>
      <stageThreshold>-9.5134657621383667e-01</stageThreshold>
      <weakClassifiers>
        <_>
          <internalNodes>
            0 -1 12 1.3105822727084160e-02</internalNodes>
          <leafValues>
            -8.4165233373641968e-01 4.7988224029541016e-01</leafValues></_>
        <_>
          <internalNodes>
            0 -1 22 -2.7247369289398193e-01</internalNodes>
          <leafValues>
            5.2550560235977173e-01 -6.1488044261932373e-01</leafValues></_>
        <_>
          <internalNodes>
            0 -1 19 -8.0246321158483624e-04</internalNodes>
          <leafValues>
            -7.2026044130325317e-01 2.8945785760879517e-01</leafValues></_>
        <_>
          <internalNodes>
            0 -1 15 -2.7806899743154645e-04</internalNodes>
          <leafValues>
            3.4744030237197876e-01 -5.5955410003662109e-01</leafValues></_>
        <_>
          <internalNodes>
            0 -1 28 -4.5785471796989441e-02</internalNodes>
          <leafValues>
            2.6297169923782349e-01 -7.6305752992630005e-01</leafValues></_>
        <_>
          <internalNodes>
            0 -1 9 6.0829021036624908e-02</internalNodes>
          <leafValues>
            -7.1554893255233765e-01 2.6330152153968811e-01</leafValues></_>
        <_>
          <internalNodes>
            0 -1 6 5.2732019685208797e-04</internalNodes>
          <leafValues>
            -4.8349019885063171e-01 3.6804404854774475e-01</leafValues></_></weakClassifiers></_>
    <!-- stage 3 -->
    <_>
      <maxWeakCount>9</maxWeakCount>
      <stageThreshold>-7.2108596563339233e-01</stageThreshold>
      <weakClassifiers>
        <_>
          <internalNodes>
            0 -1 4 3.9652533829212189e-02</internalNodes>
          <leafValues>
            -5.9661835432052612e-01 6.3989639282226562e-01</leafValues></_>
        <_>
          <internalNodes>
            0 -1 26 -1.3482786715030670e-01</internalNodes>
          <leafValues>
            3.5520482063293457e-01 -6.3237255811691284e-01</leafValues></_>
        <_>
          <internalNodes>
            0 -1 20 1.9452626293059438e-04</internalNodes>
          <leafValues>
            -4.8171505331993103e-01 4.2512691020965576e-01</leafValues></_>
        <_>
          <internalNodes>
            0 -1 11 3.7994720041751862e-02</internalNodes>
          <leafValues>
            -6.7169976234436035e-01 3.8217726349830627e-01</leafValues></_>
        <_>
          <internalNodes>
            0 -1 27 -5.0700240535661578e-04</internalNodes>
          <leafValues>
            4.5688089728355408e-01 -4.8598340153694153e-01</leafValues></_>
        <_>
          <internalNodes>
            0 -1 8 -4.3120011687278748e-02</internalNodes>
          <leafValues>
            -9.1333931684494019e-01 1.5246848762035370e-01</leafValues></_>
        <_>
          <internalNodes>
            0 -1 1 1.0270280763506889e-02</internalNodes>
          <leafValues>
            -7.4655699729919434e-01 2.1302795410156250e-01</leafValues></_>
        <_>
          <internalNodes>
            0 -1 5 8.2202805206179619e-03</internalNodes>
          <leafValues>
            -5.7338774204254150e-01 3.2532727718353271e-01</leafValues></_>
        <_>
          <internalNodes>
            0 -1 24 1.6790374647825956e-03</internalNodes>
          <leafValues>
            -3.3434164524078369e-01 5.1361507177352905e-01</leafValues></_></weakClassifiers></_>
    <!-- stage 4 -->
    <_>
      <maxWeakCount>6</maxWeakCount>
      <stageThreshold>-1.1720489263534546e+00</stageThreshold>
      <weakClassifiers>
        <_>
          <internalNodes>
            0 -1 7 1.6064098477363586e-01</internalNodes>
          <leafValues>
            -6.1261260509490967e-01 7.6404494047164917e-01</leafValues></_>
        <_>
          <internalNodes>
            0 -1 18 1.7952550202608109e-02</internalNodes>
          <leafValues>
            -5.2862739562988281e-01 5.8424490690231323e-01</leafValues></_>
        <_>
          <internalNodes>
            0 -1 10 9.7713246941566467e-02</internalNodes>
          <leafValues>
            3.2606586813926697e-01 -8.9542776346206665e-01</leafValues></_>
        <_>
          <internalNodes>
            0 -1 13 1.0211173444986343e-01</internalNodes>
          <leafValues>
            -6.6075813770294189e-01 4.5713645219802856e-01</leafValues></_>
        <_>
          <internalNodes>
            0 -1 23 2.6216585189104080e-02</internalNodes>
          <leafValues>
            -4.6660384535789490e-01 7.2030293941497803e-01</leafValues></_>
        <_>
          <internalNodes>
            0 -1 30 -3.0330941081047058e-04</internalNodes>
          <leafValues>
            1. -3.4740734100341797e-01</leafValues></_></weakClassifiers></_></stages>
  <features>
    <_>
      <rects>
        <_>
          0 5 24 11 -1.</_>
        <_>
          12 5 12 11 2.</_></rects>
      <tilted>0</tilted></_>
    <_>
      <rects>
        <_>
          0 6 12 4 -1.</_>
        <_>
          6 6 6 4 2.</_></rects>
      <tilted>0</tilted></_>
    <_>
      <rects>
        <_>
          0 6 14 3 -1.</_>
        <_>
          7 6 7 3 2.</_></rects>
      <tilted>0</tilted></_>
    <_>
      <rects>
        <_>
          0 6 24 4 -1.</_>
        <_>
          12 6 12 4 2.</_></rects>
      <tilted>0</tilted></_>
    <_>
      <rects>
        <_>
          0 8 26 1 -1.</_>
        <_>
          13 8 13 1 2.</_></rects>
      <tilted>0</tilted></_>
    <_>
      <rects>
        <_>
          2 1 26 10 -1.</_>
        <_>
          2 1 13 5 2.</_>
        <_>
          15 6 13 5 2.</_></rects>
      <tilted>0</tilted></_>
    <_>
      <rects>
        <_>
          2 6 2 7 -1.</_>
        <_>
          3 6 1 7 2.</_></rects>
      <tilted>0</tilted></_>
    <_>
      <rects>
        <_>
          4 1 22 11 -1.</_>
        <_>
          15 1 11 11 2.</_></rects>
      <tilted>0</tilted></_>
    <_>
      <rects>
        <_>
          4 7 20 4 -1.</_>
        <_>
          4 9 20 2 2.</_></rects>
      <tilted>0</tilted></_>
    <_>
      <rects>
        <_>
          4 8 27 3 -1.</_>
        <_>
          13 8 9 3 3.</_></rects>
      <tilted>0</tilted></_>
    <_>
      <rects>
        <_>
          6 0 8 12 -1.</_>
        <_>
          6 6 8 6 2.</_></rects>
      <tilted>0</tilted></_>
    <_>
      <rects>
        <_>
          6 4 14 12 -1.</_>
        <_>
          13 4 7 12 2.</_></rects>
      <tilted>0</tilted></_>
    <_>
      <rects>
        <_>
          6 7 12 2 -1.</_>
        <_>
          12 7 6 2 2.</_></rects>
      <tilted>0</tilted></_>
    <_>
      <rects>
        <_>
          8 1 23 15 -1.</_>
        <_>
          8 6 23 5 3.</_></rects>
      <tilted>0</tilted></_>
    <_>
      <rects>
        <_>
          8 8 12 3 -1.</_>
        <_>
          14 8 6 3 2.</_></rects>
      <tilted>0</tilted></_>
    <_>
      <rects>
        <_>
          8 14 24 2 -1.</_>
        <_>
          20 14 12 2 2.</_></rects>
      <tilted>0</tilted></_>
    <_>
      <rects>
        <_>
          12 6 16 10 -1.</_>
        <_>
          12 6 8 5 2.</_>
        <_>
          20 11 8 5 2.</_></rects>
      <tilted>0</tilted></_>
    <_>
      <rects>
        <_>
          12 8 9 1 -1.</_>
        <_>
          15 8 3 1 3.</_></rects>
      <tilted>0</tilted></_>
    <_>
      <rects>
        <_>
          14 0 4 12 -1.</_>
        <_>
          14 6 4 6 2.</_></rects>
      <tilted>0</tilted></_>
    <_>
      <rects>
        <_>
          14 8 6 1 -1.</_>
        <_>
          16 8 2 1 3.</_></rects>
      <tilted>0</tilted></_>
    <_>
      <rects>
        <_>
          17 8 2 4 -1.</_>
        <_>
          17 8 1 2 2.</_>
        <_>
          18 10 1 2 2.</_></rects>
      <tilted>0</tilted></_>
    <_>
      <rects>
        <_>
          18 0 14 14 -1.</_>
        <_>
          25 0 7 14 2.</_></rects>
      <tilted>0</tilted></_>
    <_>
      <rects>
        <_>
          18 0 14 15 -1.</_>
        <_>
          25 0 7 15 2.</_></rects>
      <tilted>0</tilted></_>
    <_>
      <rects>
        <_>
          18 0 11 4 -1.</_>
        <_>
          18 2 11 2 2.</_></rects>
      <tilted>0</tilted></_>
    <_>
      <rects>
        <_>
          18 7 3 2 -1.</_>
        <_>
          18 8 3 1 2.</_></rects>
      <tilted>0</tilted></_>
    <_>
      <rects>
        <_>
          20 0 12 13 -1.</_>
        <_>
          26 0 6 13 2.</_></rects>
      <tilted>0</tilted></_>
    <_>
      <rects>
        <_>
          20 3 12 8 -1.</_>
        <_>
          26 3 6 8 2.</_></rects>
      <tilted>0</tilted></_>
    <_>
      <rects>
        <_>
          20 7 3 4 -1.</_>
        <_>
          21 7 1 4 3.</_></rects>
      <tilted>0</tilted></_>
    <_>
      <rects>
        <_>
          20 8 11 8 -1.</_>
        <_>
          20 12 11 4 2.</_></rects>
      <tilted>0</tilted></_>
    <_>
      <rects>
        <_>
          20 9 2 6 -1.</_>
        <_>
          21 9 1 6 2.</_></rects>
      <tilted>0</tilted></_>
    <_>
      <rects>
        <_>
          24 9 2 2 -1.</_>
        <_>
          24 9 1 1 2.</_>
        <_>
          25 10 1 1 2.</_></rects>
      <tilted>0</tilted></_></features></cascade>
</opencv_storage>
