<?xml version="1.0"?>
<opencv_storage>
<stage4>
  <maxWeakCount>6</maxWeakCount>
  <stageThreshold>-1.1720489263534546e+00</stageThreshold>
  <weakClassifiers>
    <_>
      <internalNodes>
        0 -1 31340 1.6064098477363586e-01</internalNodes>
      <leafValues>
        -6.1261260509490967e-01 7.6404494047164917e-01</leafValues></_>
    <_>
      <internalNodes>
        0 -1 87817 1.7952550202608109e-02</internalNodes>
      <leafValues>
        -5.2862739562988281e-01 5.8424490690231323e-01</leafValues></_>
    <_>
      <internalNodes>
        0 -1 43957 9.7713246941566467e-02</internalNodes>
      <leafValues>
        3.2606586813926697e-01 -8.9542776346206665e-01</leafValues></_>
    <_>
      <internalNodes>
        0 -1 57425 1.0211173444986343e-01</internalNodes>
      <leafValues>
        -6.6075813770294189e-01 4.5713645219802856e-01</leafValues></_>
    <_>
      <internalNodes>
        0 -1 104116 2.6216585189104080e-02</internalNodes>
      <leafValues>
        -4.6660384535789490e-01 7.2030293941497803e-01</leafValues></_>
    <_>
      <internalNodes>
        0 -1 121924 -3.0330941081047058e-04</internalNodes>
      <leafValues>
        1. -3.4740734100341797e-01</leafValues></_></weakClassifiers></stage4>
</opencv_storage>
