<?xml version="1.0"?>
<opencv_storage>
<stage2>
  <maxWeakCount>7</maxWeakCount>
  <stageThreshold>-9.5134657621383667e-01</stageThreshold>
  <weakClassifiers>
    <_>
      <internalNodes>
        0 -1 48065 1.3105822727084160e-02</internalNodes>
      <leafValues>
        -8.4165233373641968e-01 4.7988224029541016e-01</leafValues></_>
    <_>
      <internalNodes>
        0 -1 104073 -2.7247369289398193e-01</internalNodes>
      <leafValues>
        5.2550560235977173e-01 -6.1488044261932373e-01</leafValues></_>
    <_>
      <internalNodes>
        0 -1 91014 -8.0246321158483624e-04</internalNodes>
      <leafValues>
        -7.2026044130325317e-01 2.8945785760879517e-01</leafValues></_>
    <_>
      <internalNodes>
        0 -1 61991 -2.7806899743154645e-04</internalNodes>
      <leafValues>
        3.4744030237197876e-01 -5.5955410003662109e-01</leafValues></_>
    <_>
      <internalNodes>
        0 -1 112653 -4.5785471796989441e-02</internalNodes>
      <leafValues>
        2.6297169923782349e-01 -7.6305752992630005e-01</leafValues></_>
    <_>
      <internalNodes>
        0 -1 35396 6.0829021036624908e-02</internalNodes>
      <leafValues>
        -7.1554893255233765e-01 2.6330152153968811e-01</leafValues></_>
    <_>
      <internalNodes>
        0 -1 20027 5.2732019685208797e-04</internalNodes>
      <leafValues>
        -4.8349019885063171e-01 3.6804404854774475e-01</leafValues></_></weakClassifiers></stage2>
</opencv_storage>
