<?xml version="1.0"?>
<opencv_storage>
<cascade>
  <stageType>BOOST</stageType>
  <featureType>HAAR</featureType>
  <height>16</height>
  <width>32</width>
  <stageParams>
    <boostType>GAB</boostType>
    <minHitRate>9.9500000476837158e-01</minHitRate>
    <maxFalseAlarm>5.0000000000000000e-01</maxFalseAlarm>
    <weightTrimRate>9.4999999999999996e-01</weightTrimRate>
    <maxDepth>1</maxDepth>
    <maxWeakCount>100</maxWeakCount></stageParams>
  <featureParams>
    <maxCatCount>0</maxCatCount>
    <featSize>1</featSize>
    <mode>BASIC</mode></featureParams>
  <stageNum>5</stageNum>
  <stages>
    <!-- stage 0 -->
    <_>
      <maxWeakCount>3</maxWeakCount>
      <stageThreshold>-1.2117261886596680e+00</stageThreshold>
      <weakClassifiers>
        <_>
          <internalNodes>
            0 -1 15 2.5885953800752759e-04</internalNodes>
          <leafValues>
            -8.8203018903732300e-01 7.3823189735412598e-01</leafValues></_>
        <_>
          <internalNodes>
            0 -1 6 -6.0059293173253536e-04</internalNodes>
          <leafValues>
            6.3905572891235352e-01 -7.0915758609771729e-01</leafValues></_>
        <_>
          <internalNodes>
            0 -1 9 -5.4885260760784149e-02</internalNodes>
          <leafValues>
            3.7946164608001709e-01 -8.2983958721160889e-01</leafValues></_></weakClassifiers></_>
    <!-- stage 1 -->
    <_>
      <maxWeakCount>5</maxWeakCount>
      <stageThreshold>-1.2463687658309937e+00</stageThreshold>
      <weakClassifiers>
        <_>
          <internalNodes>
            0 -1 23 1.1234793782932684e-04</internalNodes>
          <leafValues>
            -6.9767439365386963e-01 6.5375304222106934e-01</leafValues></_>
        <_>
          <internalNodes>
            0 -1 3 -8.9893536642193794e-04</internalNodes>
          <leafValues>
            5.6850367784500122e-01 -6.6977965831756592e-01</leafValues></_>
        <_>
          <internalNodes>
            0 -1 13 -2.2282195277512074e-04</internalNodes>
          <leafValues>
            -9.2147785425186157e-01 2.7410289645195007e-01</leafValues></_>
        <_>
          <internalNodes>
            0 -1 24 1.2051234953105450e-03</internalNodes>
          <leafValues>
            -4.3106192350387573e-01 4.6956488490104675e-01</leafValues></_>
        <_>
          <internalNodes>
            0 -1 7 -1.0301247239112854e-02</internalNodes>
          <leafValues>
            2.7804425358772278e-01 -6.8897962570190430e-01</leafValues></_></weakClassifiers></_>
    <!-- stage 2 -->
    <_>
      <maxWeakCount>6</maxWeakCount>
      <stageThreshold>-9.5795434713363647e-01</stageThreshold>
      <weakClassifiers>
        <_>
          <internalNodes>
            0 -1 26 -5.0699701532721519e-03</internalNodes>
          <leafValues>
            2.9392173886299133e-01 -8.8471180200576782e-01</leafValues></_>
        <_>
          <internalNodes>
            0 -1 8 -1.5874714590609074e-03</internalNodes>
          <leafValues>
            2.9817861318588257e-01 -7.2415769100189209e-01</leafValues></_>
        <_>
          <internalNodes>
            0 -1 19 3.1154451426118612e-04</internalNodes>
          <leafValues>
            -8.2005572319030762e-01 2.6072236895561218e-01</leafValues></_>
        <_>
          <internalNodes>
            0 -1 17 -1.4063796261325479e-03</internalNodes>
          <leafValues>
            3.3971691131591797e-01 -5.6168413162231445e-01</leafValues></_>
        <_>
          <internalNodes>
            0 -1 5 -4.1325093479827046e-04</internalNodes>
          <leafValues>
            8.3773261308670044e-01 -2.4234163761138916e-01</leafValues></_>
        <_>
          <internalNodes>
            0 -1 30 -9.4096321845427155e-05</internalNodes>
          <leafValues>
            2.9281747341156006e-01 -6.7621684074401855e-01</leafValues></_></weakClassifiers></_>
    <!-- stage 3 -->
    <_>
      <maxWeakCount>11</maxWeakCount>
      <stageThreshold>-1.1143441200256348e+00</stageThreshold>
      <weakClassifiers>
        <_>
          <internalNodes>
            0 -1 25 -2.7884036535397172e-04</internalNodes>
          <leafValues>
            3.3582788705825806e-01 -6.7608284950256348e-01</leafValues></_>
        <_>
          <internalNodes>
            0 -1 0 2.7235541492700577e-02</internalNodes>
          <leafValues>
            -7.7347368001937866e-01 2.2805240750312805e-01</leafValues></_>
        <_>
          <internalNodes>
            0 -1 4 -2.4379979004152119e-04</internalNodes>
          <leafValues>
            7.3566848039627075e-01 -2.3261536657810211e-01</leafValues></_>
        <_>
          <internalNodes>
            0 -1 32 -6.8544439272955060e-05</internalNodes>
          <leafValues>
            3.3970019221305847e-01 -5.0331443548202515e-01</leafValues></_>
        <_>
          <internalNodes>
            0 -1 14 -4.3133674189448357e-03</internalNodes>
          <leafValues>
            2.1885962784290314e-01 -6.8961858749389648e-01</leafValues></_>
        <_>
          <internalNodes>
            0 -1 28 -1.2702765525318682e-04</internalNodes>
          <leafValues>
            5.8389234542846680e-01 -2.8886348009109497e-01</leafValues></_>
        <_>
          <internalNodes>
            0 -1 16 6.0315558221191168e-04</internalNodes>
          <leafValues>
            -3.3418360352516174e-01 5.0601005554199219e-01</leafValues></_>
        <_>
          <internalNodes>
            0 -1 12 -1.8284416000824422e-04</internalNodes>
          <leafValues>
            2.4214819073677063e-01 -5.4410231113433838e-01</leafValues></_>
        <_>
          <internalNodes>
            0 -1 21 3.2280702143907547e-03</internalNodes>
          <leafValues>
            2.8241935372352600e-01 -5.2756494283676147e-01</leafValues></_>
        <_>
          <internalNodes>
            0 -1 10 1.5291443094611168e-02</internalNodes>
          <leafValues>
            -3.9991936087608337e-01 4.4780072569847107e-01</leafValues></_>
        <_>
          <internalNodes>
            0 -1 23 1.7587537877261639e-03</internalNodes>
          <leafValues>
            -5.5943763256072998e-01 3.3877074718475342e-01</leafValues></_></weakClassifiers></_>
    <!-- stage 4 -->
    <_>
      <maxWeakCount>9</maxWeakCount>
      <stageThreshold>-1.1226048469543457e+00</stageThreshold>
      <weakClassifiers>
        <_>
          <internalNodes>
            0 -1 18 -2.0012367167510092e-04</internalNodes>
          <leafValues>
            5.0427353382110596e-01 -5.2880918979644775e-01</leafValues></_>
        <_>
          <internalNodes>
            0 -1 2 9.2138405889272690e-03</internalNodes>
          <leafValues>
            2.8835850954055786e-01 -7.2261446714401245e-01</leafValues></_>
        <_>
          <internalNodes>
            0 -1 29 -1.0902821668423712e-04</internalNodes>
          <leafValues>
            7.4569320678710938e-01 -3.1609660387039185e-01</leafValues></_>
        <_>
          <internalNodes>
            0 -1 22 9.1082118451595306e-03</internalNodes>
          <leafValues>
            -6.5875321626663208e-01 3.4654223918914795e-01</leafValues></_>
        <_>
          <internalNodes>
            0 -1 27 3.0398678034543991e-02</internalNodes>
          <leafValues>
            -4.2727151513099670e-01 5.1847326755523682e-01</leafValues></_>
        <_>
          <internalNodes>
            0 -1 11 -2.1683280356228352e-03</internalNodes>
          <leafValues>
            4.0475529432296753e-01 -5.5855333805084229e-01</leafValues></_>
        <_>
          <internalNodes>
            0 -1 20 -5.9819396119564772e-04</internalNodes>
          <leafValues>
            7.0498019456863403e-01 -3.2719704508781433e-01</leafValues></_>
        <_>
          <internalNodes>
            0 -1 31 -5.0688955525401980e-05</internalNodes>
          <leafValues>
            2.4693588912487030e-01 -8.5168349742889404e-01</leafValues></_>
        <_>
          <internalNodes>
            0 -1 1 -5.7686015963554382e-02</internalNodes>
          <leafValues>
            2.0451566576957703e-01 -7.9225856065750122e-01</leafValues></_></weakClassifiers></_></stages>
  <features>
    <_>
      <rects>
        <_>
          0 4 6 12 -1.</_>
        <_>
          3 4 3 12 2.</_></rects>
      <tilted>0</tilted></_>
    <_>
      <rects>
        <_>
          2 6 30 8 -1.</_>
        <_>
          17 6 15 8 2.</_></rects>
      <tilted>0</tilted></_>
    <_>
      <rects>
        <_>
          3 0 16 7 -1.</_>
        <_>
          11 0 8 7 2.</_></rects>
      <tilted>0</tilted></_>
    <_>
      <rects>
        <_>
          4 13 24 3 -1.</_>
        <_>
          12 13 8 3 3.</_></rects>
      <tilted>0</tilted></_>
    <_>
      <rects>
        <_>
          4 15 21 1 -1.</_>
        <_>
          11 15 7 1 3.</_></rects>
      <tilted>0</tilted></_>
    <_>
      <rects>
        <_>
          4 15 24 1 -1.</_>
        <_>
          12 15 8 1 3.</_></rects>
      <tilted>0</tilted></_>
    <_>
      <rects>
        <_>
          5 13 21 3 -1.</_>
        <_>
          12 13 7 3 3.</_></rects>
      <tilted>0</tilted></_>
    <_>
      <rects>
        <_>
          7 6 16 10 -1.</_>
        <_>
          15 6 8 10 2.</_></rects>
      <tilted>0</tilted></_>
    <_>
      <rects>
        <_>
          7 12 15 4 -1.</_>
        <_>
          12 12 5 4 3.</_></rects>
      <tilted>0</tilted></_>
    <_>
      <rects>
        <_>
          8 0 22 12 -1.</_>
        <_>
          8 0 11 6 2.</_>
        <_>
          19 6 11 6 2.</_></rects>
      <tilted>0</tilted></_>
    <_>
      <rects>
        <_>
          9 0 1 12 -1.</_>
        <_>
          9 6 1 6 2.</_></rects>
      <tilted>0</tilted></_>
    <_>
      <rects>
        <_>
          9 9 14 3 -1.</_>
        <_>
          16 9 7 3 2.</_></rects>
      <tilted>0</tilted></_>
    <_>
      <rects>
        <_>
          9 12 12 4 -1.</_>
        <_>
          13 12 4 4 3.</_></rects>
      <tilted>0</tilted></_>
    <_>
      <rects>
        <_>
          10 0 22 5 -1.</_>
        <_>
          21 0 11 5 2.</_></rects>
      <tilted>0</tilted></_>
    <_>
      <rects>
        <_>
          10 5 16 6 -1.</_>
        <_>
          10 5 8 3 2.</_>
        <_>
          18 8 8 3 2.</_></rects>
      <tilted>0</tilted></_>
    <_>
      <rects>
        <_>
          12 0 20 5 -1.</_>
        <_>
          22 0 10 5 2.</_></rects>
      <tilted>0</tilted></_>
    <_>
      <rects>
        <_>
          12 10 2 1 -1.</_>
        <_>
          13 10 1 1 2.</_></rects>
      <tilted>0</tilted></_>
    <_>
      <rects>
        <_>
          12 10 12 6 -1.</_>
        <_>
          16 10 4 6 3.</_></rects>
      <tilted>0</tilted></_>
    <_>
      <rects>
        <_>
          12 12 9 4 -1.</_>
        <_>
          15 12 3 4 3.</_></rects>
      <tilted>0</tilted></_>
    <_>
      <rects>
        <_>
          13 0 18 5 -1.</_>
        <_>
          22 0 9 5 2.</_></rects>
      <tilted>0</tilted></_>
    <_>
      <rects>
        <_>
          13 8 2 1 -1.</_>
        <_>
          14 8 1 1 2.</_></rects>
      <tilted>0</tilted></_>
    <_>
      <rects>
        <_>
          13 9 9 5 -1.</_>
        <_>
          16 9 3 5 3.</_></rects>
      <tilted>0</tilted></_>
    <_>
      <rects>
        <_>
          14 0 1 12 -1.</_>
        <_>
          14 6 1 6 2.</_></rects>
      <tilted>0</tilted></_>
    <_>
      <rects>
        <_>
          14 0 18 4 -1.</_>
        <_>
          23 0 9 4 2.</_></rects>
      <tilted>0</tilted></_>
    <_>
      <rects>
        <_>
          16 9 3 2 -1.</_>
        <_>
          17 9 1 2 3.</_></rects>
      <tilted>0</tilted></_>
    <_>
      <rects>
        <_>
          16 10 1 6 -1.</_>
        <_>
          16 12 1 2 3.</_></rects>
      <tilted>0</tilted></_>
    <_>
      <rects>
        <_>
          17 8 1 8 -1.</_>
        <_>
          17 12 1 4 2.</_></rects>
      <tilted>0</tilted></_>
    <_>
      <rects>
        <_>
          18 7 12 8 -1.</_>
        <_>
          22 7 4 8 3.</_></rects>
      <tilted>0</tilted></_>
    <_>
      <rects>
        <_>
          19 11 6 2 -1.</_>
        <_>
          21 11 2 2 3.</_></rects>
      <tilted>0</tilted></_>
    <_>
      <rects>
        <_>
          21 11 3 5 -1.</_>
        <_>
          22 11 1 5 3.</_></rects>
      <tilted>0</tilted></_>
    <_>
      <rects>
        <_>
          24 8 4 4 -1.</_>
        <_>
          26 8 2 4 2.</_></rects>
      <tilted>0</tilted></_>
    <_>
      <rects>
        <_>
          26 5 6 6 -1.</_>
        <_>
          29 5 3 6 2.</_></rects>
      <tilted>0</tilted></_>
    <_>
      <rects>
        <_>
          26 8 6 6 -1.</_>
        <_>
          28 8 2 6 3.</_></rects>
      <tilted>0</tilted></_></features></cascade>
</opencv_storage>
