<?xml version="1.0"?>
<opencv_storage>
<stage3>
  <maxWeakCount>11</maxWeakCount>
  <stageThreshold>-1.1143441200256348e+00</stageThreshold>
  <weakClassifiers>
    <_>
      <internalNodes>
        0 -1 99551 -2.7884036535397172e-04</internalNodes>
      <leafValues>
        3.3582788705825806e-01 -6.7608284950256348e-01</leafValues></_>
    <_>
      <internalNodes>
        0 -1 3546 2.7235541492700577e-02</internalNodes>
      <leafValues>
        -7.7347368001937866e-01 2.2805240750312805e-01</leafValues></_>
    <_>
      <internalNodes>
        0 -1 36918 -2.4379979004152119e-04</internalNodes>
      <leafValues>
        7.3566848039627075e-01 -2.3261536657810211e-01</leafValues></_>
    <_>
      <internalNodes>
        0 -1 125053 -6.8544439272955060e-05</internalNodes>
      <leafValues>
        3.3970019221305847e-01 -5.0331443548202515e-01</leafValues></_>
    <_>
      <internalNodes>
        0 -1 70690 -4.3133674189448357e-03</internalNodes>
      <leafValues>
        2.1885962784290314e-01 -6.8961858749389648e-01</leafValues></_>
    <_>
      <internalNodes>
        0 -1 109967 -1.2702765525318682e-04</internalNodes>
      <leafValues>
        5.8389234542846680e-01 -2.8886348009109497e-01</leafValues></_>
    <_>
      <internalNodes>
        0 -1 82334 6.0315558221191168e-04</internalNodes>
      <leafValues>
        -3.3418360352516174e-01 5.0601005554199219e-01</leafValues></_>
    <_>
      <internalNodes>
        0 -1 67257 -1.8284416000824422e-04</internalNodes>
      <leafValues>
        2.4214819073677063e-01 -5.4410231113433838e-01</leafValues></_>
    <_>
      <internalNodes>
        0 -1 86804 3.2280702143907547e-03</internalNodes>
      <leafValues>
        2.8241935372352600e-01 -5.2756494283676147e-01</leafValues></_>
    <_>
      <internalNodes>
        0 -1 62050 1.5291443094611168e-02</internalNodes>
      <leafValues>
        -3.9991936087608337e-01 4.4780072569847107e-01</leafValues></_>
    <_>
      <internalNodes>
        0 -1 88036 1.7587537877261639e-03</internalNodes>
      <leafValues>
        -5.5943763256072998e-01 3.3877074718475342e-01</leafValues></_></weakClassifiers></stage3>
</opencv_storage>
