<?xml version="1.0"?>
<opencv_storage>
<stage1>
  <maxWeakCount>5</maxWeakCount>
  <stageThreshold>-1.2463687658309937e+00</stageThreshold>
  <weakClassifiers>
    <_>
      <internalNodes>
        0 -1 88036 1.1234793782932684e-04</internalNodes>
      <leafValues>
        -6.9767439365386963e-01 6.5375304222106934e-01</leafValues></_>
    <_>
      <internalNodes>
        0 -1 36749 -8.9893536642193794e-04</internalNodes>
      <leafValues>
        5.6850367784500122e-01 -6.6977965831756592e-01</leafValues></_>
    <_>
      <internalNodes>
        0 -1 68066 -2.2282195277512074e-04</internalNodes>
      <leafValues>
        -9.2147785425186157e-01 2.7410289645195007e-01</leafValues></_>
    <_>
      <internalNodes>
        0 -1 99355 1.2051234953105450e-03</internalNodes>
      <leafValues>
        -4.3106192350387573e-01 4.6956488490104675e-01</leafValues></_>
    <_>
      <internalNodes>
        0 -1 53902 -1.0301247239112854e-02</internalNodes>
      <leafValues>
        2.7804425358772278e-01 -6.8897962570190430e-01</leafValues></_></weakClassifiers></stage1>
</opencv_storage>
