<?xml version="1.0"?>
<opencv_storage>
<stage4>
  <maxWeakCount>9</maxWeakCount>
  <stageThreshold>-1.1226048469543457e+00</stageThreshold>
  <weakClassifiers>
    <_>
      <internalNodes>
        0 -1 82758 -2.0012367167510092e-04</internalNodes>
      <leafValues>
        5.0427353382110596e-01 -5.2880918979644775e-01</leafValues></_>
    <_>
      <internalNodes>
        0 -1 23352 9.2138405889272690e-03</internalNodes>
      <leafValues>
        2.8835850954055786e-01 -7.2261446714401245e-01</leafValues></_>
    <_>
      <internalNodes>
        0 -1 115557 -1.0902821668423712e-04</internalNodes>
      <leafValues>
        7.4569320678710938e-01 -3.1609660387039185e-01</leafValues></_>
    <_>
      <internalNodes>
        0 -1 87658 9.1082118451595306e-03</internalNodes>
      <leafValues>
        -6.5875321626663208e-01 3.4654223918914795e-01</leafValues></_>
    <_>
      <internalNodes>
        0 -1 106182 3.0398678034543991e-02</internalNodes>
      <leafValues>
        -4.2727151513099670e-01 5.1847326755523682e-01</leafValues></_>
    <_>
      <internalNodes>
        0 -1 66637 -2.1683280356228352e-03</internalNodes>
      <leafValues>
        4.0475529432296753e-01 -5.5855333805084229e-01</leafValues></_>
    <_>
      <internalNodes>
        0 -1 86473 -5.9819396119564772e-04</internalNodes>
      <leafValues>
        7.0498019456863403e-01 -3.2719704508781433e-01</leafValues></_>
    <_>
      <internalNodes>
        0 -1 124764 -5.0688955525401980e-05</internalNodes>
      <leafValues>
        2.4693588912487030e-01 -8.5168349742889404e-01</leafValues></_>
    <_>
      <internalNodes>
        0 -1 20444 -5.7686015963554382e-02</internalNodes>
      <leafValues>
        2.0451566576957703e-01 -7.9225856065750122e-01</leafValues></_></weakClassifiers></stage4>
</opencv_storage>
