<?xml version="1.0"?>
<opencv_storage>
<cascade>
  <stageType>BOOST</stageType>
  <featureType>HAAR</featureType>
  <height>16</height>
  <width>32</width>
  <stageParams>
    <boostType>GAB</boostType>
    <minHitRate>9.9500000476837158e-01</minHitRate>
    <maxFalseAlarm>5.0000000000000000e-01</maxFalseAlarm>
    <weightTrimRate>9.4999999999999996e-01</weightTrimRate>
    <maxDepth>1</maxDepth>
    <maxWeakCount>100</maxWeakCount></stageParams>
  <featureParams>
    <maxCatCount>0</maxCatCount>
    <featSize>1</featSize>
    <mode>BASIC</mode></featureParams>
  <stageNum>1</stageNum>
  <stages>
    <!-- stage 0 -->
    <_>
      <maxWeakCount>3</maxWeakCount>
      <stageThreshold>-3.1379580497741699e-01</stageThreshold>
      <weakClassifiers>
        <_>
          <internalNodes>
            0 -1 1 1.7400641739368439e-01</internalNodes>
          <leafValues>
            -7.1219509840011597e-01 9.6436524391174316e-01</leafValues></_>
        <_>
          <internalNodes>
            0 -1 0 -3.4861921449191868e-04</internalNodes>
          <leafValues>
            9.7851777076721191e-01 -5.0645935535430908e-01</leafValues></_>
        <_>
          <internalNodes>
            0 -1 2 5.6404923088848591e-04</internalNodes>
          <leafValues>
            -5.7553547620773315e-01 9.0485864877700806e-01</leafValues></_></weakClassifiers></_></stages>
  <features>
    <_>
      <rects>
        <_>
          4 14 27 2 -1.</_>
        <_>
          13 14 9 2 3.</_></rects>
      <tilted>0</tilted></_>
    <_>
      <rects>
        <_>
          15 0 9 12 -1.</_>
        <_>
          15 6 9 6 2.</_></rects>
      <tilted>0</tilted></_>
    <_>
      <rects>
        <_>
          30 0 2 12 -1.</_>
        <_>
          30 6 2 6 2.</_></rects>
      <tilted>0</tilted></_></features></cascade>
</opencv_storage>
