<?xml version="1.0"?>
<opencv_storage>
<cascade>
  <stageType>BOOST</stageType>
  <featureType>HAAR</featureType>
  <height>16</height>
  <width>32</width>
  <stageParams>
    <boostType>GAB</boostType>
    <minHitRate>9.9500000476837158e-01</minHitRate>
    <maxFalseAlarm>5.0000000000000000e-01</maxFalseAlarm>
    <weightTrimRate>9.4999999999999996e-01</weightTrimRate>
    <maxDepth>1</maxDepth>
    <maxWeakCount>100</maxWeakCount></stageParams>
  <featureParams>
    <maxCatCount>0</maxCatCount>
    <featSize>1</featSize>
    <mode>BASIC</mode></featureParams>
  <stageNum>4</stageNum>
  <stages>
    <!-- stage 0 -->
    <_>
      <maxWeakCount>5</maxWeakCount>
      <stageThreshold>-8.9581751823425293e-01</stageThreshold>
      <weakClassifiers>
        <_>
          <internalNodes>
            0 -1 17 2.3860394954681396e-02</internalNodes>
          <leafValues>
            -8.4779298305511475e-01 5.9066808223724365e-01</leafValues></_>
        <_>
          <internalNodes>
            0 -1 8 -2.5149861350655556e-02</internalNodes>
          <leafValues>
            6.6054403781890869e-01 -6.8899643421173096e-01</leafValues></_>
        <_>
          <internalNodes>
            0 -1 18 -6.3291046535596251e-04</internalNodes>
          <leafValues>
            4.3209937214851379e-01 -8.2319182157516479e-01</leafValues></_>
        <_>
          <internalNodes>
            0 -1 3 -6.7292002495378256e-04</internalNodes>
          <leafValues>
            8.9383202791213989e-01 -4.4543695449829102e-01</leafValues></_>
        <_>
          <internalNodes>
            0 -1 0 6.6215116530656815e-03</internalNodes>
          <leafValues>
            -6.2431442737579346e-01 6.5430951118469238e-01</leafValues></_></weakClassifiers></_>
    <!-- stage 1 -->
    <_>
      <maxWeakCount>5</maxWeakCount>
      <stageThreshold>-1.1857687234878540e+00</stageThreshold>
      <weakClassifiers>
        <_>
          <internalNodes>
            0 -1 20 -5.3915847092866898e-04</internalNodes>
          <leafValues>
            5.0914961099624634e-01 -7.0491802692413330e-01</leafValues></_>
        <_>
          <internalNodes>
            0 -1 7 -1.9208034500479698e-02</internalNodes>
          <leafValues>
            4.5017907023429871e-01 -7.7076297998428345e-01</leafValues></_>
        <_>
          <internalNodes>
            0 -1 4 -1.2636363971978426e-03</internalNodes>
          <leafValues>
            5.6238669157028198e-01 -6.0938596725463867e-01</leafValues></_>
        <_>
          <internalNodes>
            0 -1 14 9.5190614461898804e-02</internalNodes>
          <leafValues>
            -7.0432549715042114e-01 4.3504333496093750e-01</leafValues></_>
        <_>
          <internalNodes>
            0 -1 22 -2.0511480397544801e-04</internalNodes>
          <leafValues>
            3.8955616950988770e-01 -5.8267843723297119e-01</leafValues></_></weakClassifiers></_>
    <!-- stage 2 -->
    <_>
      <maxWeakCount>6</maxWeakCount>
      <stageThreshold>-1.5761417150497437e+00</stageThreshold>
      <weakClassifiers>
        <_>
          <internalNodes>
            0 -1 5 -1.0790271917358041e-03</internalNodes>
          <leafValues>
            7.0462632179260254e-01 -3.8150289654731750e-01</leafValues></_>
        <_>
          <internalNodes>
            0 -1 10 8.5268691182136536e-03</internalNodes>
          <leafValues>
            3.7403860688209534e-01 -8.0462467670440674e-01</leafValues></_>
        <_>
          <internalNodes>
            0 -1 11 1.0975744808092713e-03</internalNodes>
          <leafValues>
            3.2687357068061829e-01 -8.3241486549377441e-01</leafValues></_>
        <_>
          <internalNodes>
            0 -1 6 3.7692114710807800e-02</internalNodes>
          <leafValues>
            -5.8436220884323120e-01 4.1662427783012390e-01</leafValues></_>
        <_>
          <internalNodes>
            0 -1 9 -1.0243194177746773e-02</internalNodes>
          <leafValues>
            4.1272923350334167e-01 -6.7217022180557251e-01</leafValues></_>
        <_>
          <internalNodes>
            0 -1 15 -6.2795839039608836e-04</internalNodes>
          <leafValues>
            4.8321476578712463e-01 -5.6585925817489624e-01</leafValues></_></weakClassifiers></_>
    <!-- stage 3 -->
    <_>
      <maxWeakCount>7</maxWeakCount>
      <stageThreshold>-1.1673251390457153e+00</stageThreshold>
      <weakClassifiers>
        <_>
          <internalNodes>
            0 -1 16 2.8697010129690170e-02</internalNodes>
          <leafValues>
            -5.5469757318496704e-01 5.2369379997253418e-01</leafValues></_>
        <_>
          <internalNodes>
            0 -1 21 -3.2234058016911149e-04</internalNodes>
          <leafValues>
            4.9284306168556213e-01 -5.8701282739639282e-01</leafValues></_>
        <_>
          <internalNodes>
            0 -1 2 -7.6998694567009807e-04</internalNodes>
          <leafValues>
            5.3179240226745605e-01 -5.6052547693252563e-01</leafValues></_>
        <_>
          <internalNodes>
            0 -1 1 -2.6985621661879122e-04</internalNodes>
          <leafValues>
            7.1056795120239258e-01 -3.9614376425743103e-01</leafValues></_>
        <_>
          <internalNodes>
            0 -1 12 -6.7267450504004955e-05</internalNodes>
          <leafValues>
            3.4299477934837341e-01 -6.7893779277801514e-01</leafValues></_>
        <_>
          <internalNodes>
            0 -1 19 -7.5748778181150556e-04</internalNodes>
          <leafValues>
            4.2001235485076904e-01 -7.6221162080764771e-01</leafValues></_>
        <_>
          <internalNodes>
            0 -1 13 6.1815453227609396e-04</internalNodes>
          <leafValues>
            -7.5434207916259766e-01 2.5795340538024902e-01</leafValues></_></weakClassifiers></_></stages>
  <features>
    <_>
      <rects>
        <_>
          0 0 2 16 -1.</_>
        <_>
          1 0 1 16 2.</_></rects>
      <tilted>0</tilted></_>
    <_>
      <rects>
        <_>
          0 12 20 4 -1.</_>
        <_>
          0 12 10 2 2.</_>
        <_>
          10 14 10 2 2.</_></rects>
      <tilted>0</tilted></_>
    <_>
      <rects>
        <_>
          1 12 24 4 -1.</_>
        <_>
          9 12 8 4 3.</_></rects>
      <tilted>0</tilted></_>
    <_>
      <rects>
        <_>
          1 14 30 2 -1.</_>
        <_>
          11 14 10 2 3.</_></rects>
      <tilted>0</tilted></_>
    <_>
      <rects>
        <_>
          2 12 21 4 -1.</_>
        <_>
          9 12 7 4 3.</_></rects>
      <tilted>0</tilted></_>
    <_>
      <rects>
        <_>
          2 14 30 2 -1.</_>
        <_>
          12 14 10 2 3.</_></rects>
      <tilted>0</tilted></_>
    <_>
      <rects>
        <_>
          8 0 2 15 -1.</_>
        <_>
          8 5 2 5 3.</_></rects>
      <tilted>0</tilted></_>
    <_>
      <rects>
        <_>
          10 0 10 16 -1.</_>
        <_>
          15 0 5 16 2.</_></rects>
      <tilted>0</tilted></_>
    <_>
      <rects>
        <_>
          10 0 18 6 -1.</_>
        <_>
          16 0 6 6 3.</_></rects>
      <tilted>0</tilted></_>
    <_>
      <rects>
        <_>
          10 1 15 4 -1.</_>
        <_>
          15 1 5 4 3.</_></rects>
      <tilted>0</tilted></_>
    <_>
      <rects>
        <_>
          10 7 12 9 -1.</_>
        <_>
          14 7 4 9 3.</_></rects>
      <tilted>0</tilted></_>
    <_>
      <rects>
        <_>
          12 9 12 1 -1.</_>
        <_>
          16 9 4 1 3.</_></rects>
      <tilted>0</tilted></_>
    <_>
      <rects>
        <_>
          13 7 4 4 -1.</_>
        <_>
          13 9 4 2 2.</_></rects>
      <tilted>0</tilted></_>
    <_>
      <rects>
        <_>
          14 7 6 1 -1.</_>
        <_>
          16 7 2 1 3.</_></rects>
      <tilted>0</tilted></_>
    <_>
      <rects>
        <_>
          15 0 4 15 -1.</_>
        <_>
          15 5 4 5 3.</_></rects>
      <tilted>0</tilted></_>
    <_>
      <rects>
        <_>
          15 8 2 2 -1.</_>
        <_>
          15 8 1 1 2.</_>
        <_>
          16 9 1 1 2.</_></rects>
      <tilted>0</tilted></_>
    <_>
      <rects>
        <_>
          16 0 2 8 -1.</_>
        <_>
          16 4 2 4 2.</_></rects>
      <tilted>0</tilted></_>
    <_>
      <rects>
        <_>
          16 1 2 8 -1.</_>
        <_>
          16 5 2 4 2.</_></rects>
      <tilted>0</tilted></_>
    <_>
      <rects>
        <_>
          16 7 2 2 -1.</_>
        <_>
          16 8 2 1 2.</_></rects>
      <tilted>0</tilted></_>
    <_>
      <rects>
        <_>
          28 4 2 8 -1.</_>
        <_>
          29 4 1 8 2.</_></rects>
      <tilted>0</tilted></_>
    <_>
      <rects>
        <_>
          29 4 2 12 -1.</_>
        <_>
          30 4 1 12 2.</_></rects>
      <tilted>0</tilted></_>
    <_>
      <rects>
        <_>
          30 0 2 15 -1.</_>
        <_>
          31 0 1 15 2.</_></rects>
      <tilted>0</tilted></_>
    <_>
      <rects>
        <_>
          30 2 2 13 -1.</_>
        <_>
          31 2 1 13 2.</_></rects>
      <tilted>0</tilted></_></features></cascade>
</opencv_storage>
