<?xml version="1.0"?>
<opencv_storage>
<stage0>
  <maxWeakCount>5</maxWeakCount>
  <stageThreshold>-8.9581751823425293e-01</stageThreshold>
  <weakClassifiers>
    <_>
      <internalNodes>
        0 -1 96713 2.3860394954681396e-02</internalNodes>
      <leafValues>
        -8.4779298305511475e-01 5.9066808223724365e-01</leafValues></_>
    <_>
      <internalNodes>
        0 -1 67860 -2.5149861350655556e-02</internalNodes>
      <leafValues>
        6.6054403781890869e-01 -6.8899643421173096e-01</leafValues></_>
    <_>
      <internalNodes>
        0 -1 98885 -6.3291046535596251e-04</internalNodes>
      <leafValues>
        4.3209937214851379e-01 -8.2319182157516479e-01</leafValues></_>
    <_>
      <internalNodes>
        0 -1 15410 -6.7292002495378256e-04</internalNodes>
      <leafValues>
        8.9383202791213989e-01 -4.4543695449829102e-01</leafValues></_>
    <_>
      <internalNodes>
        0 -1 51 6.6215116530656815e-03</internalNodes>
      <leafValues>
        -6.2431442737579346e-01 6.5430951118469238e-01</leafValues></_></weakClassifiers></stage0>
</opencv_storage>
