<?xml version="1.0"?>
<opencv_storage>
<stage1>
  <maxWeakCount>5</maxWeakCount>
  <stageThreshold>-1.1857687234878540e+00</stageThreshold>
  <weakClassifiers>
    <_>
      <internalNodes>
        0 -1 127712 -5.3915847092866898e-04</internalNodes>
      <leafValues>
        5.0914961099624634e-01 -7.0491802692413330e-01</leafValues></_>
    <_>
      <internalNodes>
        0 -1 67831 -1.9208034500479698e-02</internalNodes>
      <leafValues>
        4.5017907023429871e-01 -7.7076297998428345e-01</leafValues></_>
    <_>
      <internalNodes>
        0 -1 22552 -1.2636363971978426e-03</internalNodes>
      <leafValues>
        5.6238669157028198e-01 -6.0938596725463867e-01</leafValues></_>
    <_>
      <internalNodes>
        0 -1 92302 9.5190614461898804e-02</internalNodes>
      <leafValues>
        -7.0432549715042114e-01 4.3504333496093750e-01</leafValues></_>
    <_>
      <internalNodes>
        0 -1 128166 -2.0511480397544801e-04</internalNodes>
      <leafValues>
        3.8955616950988770e-01 -5.8267843723297119e-01</leafValues></_></weakClassifiers></stage1>
</opencv_storage>
