<?xml version="1.0"?>
<opencv_storage>
<stage3>
  <maxWeakCount>7</maxWeakCount>
  <stageThreshold>-1.1673251390457153e+00</stageThreshold>
  <weakClassifiers>
    <_>
      <internalNodes>
        0 -1 96237 2.8697010129690170e-02</internalNodes>
      <leafValues>
        -5.5469757318496704e-01 5.2369379997253418e-01</leafValues></_>
    <_>
      <internalNodes>
        0 -1 128075 -3.2234058016911149e-04</internalNodes>
      <leafValues>
        4.9284306168556213e-01 -5.8701282739639282e-01</leafValues></_>
    <_>
      <internalNodes>
        0 -1 15079 -7.6998694567009807e-04</internalNodes>
      <leafValues>
        5.3179240226745605e-01 -5.6052547693252563e-01</leafValues></_>
    <_>
      <internalNodes>
        0 -1 7497 -2.6985621661879122e-04</internalNodes>
      <leafValues>
        7.1056795120239258e-01 -3.9614376425743103e-01</leafValues></_>
    <_>
      <internalNodes>
        0 -1 86262 -6.7267450504004955e-05</internalNodes>
      <leafValues>
        3.4299477934837341e-01 -6.7893779277801514e-01</leafValues></_>
    <_>
      <internalNodes>
        0 -1 126884 -7.5748778181150556e-04</internalNodes>
      <leafValues>
        4.2001235485076904e-01 -7.6221162080764771e-01</leafValues></_>
    <_>
      <internalNodes>
        0 -1 90720 6.1815453227609396e-04</internalNodes>
      <leafValues>
        -7.5434207916259766e-01 2.5795340538024902e-01</leafValues></_></weakClassifiers></stage3>
</opencv_storage>
