<?xml version="1.0"?>
<opencv_storage>
<cascade>
  <stageType>BOOST</stageType>
  <featureType>HAAR</featureType>
  <height>16</height>
  <width>32</width>
  <stageParams>
    <boostType>GAB</boostType>
    <minHitRate>9.9500000476837158e-01</minHitRate>
    <maxFalseAlarm>5.0000000000000000e-01</maxFalseAlarm>
    <weightTrimRate>9.4999999999999996e-01</weightTrimRate>
    <maxDepth>1</maxDepth>
    <maxWeakCount>100</maxWeakCount></stageParams>
  <featureParams>
    <maxCatCount>0</maxCatCount>
    <featSize>1</featSize>
    <mode>BASIC</mode></featureParams>
  <stageNum>3</stageNum>
  <stages>
    <!-- stage 0 -->
    <_>
      <maxWeakCount>4</maxWeakCount>
      <stageThreshold>-1.5686134099960327e+00</stageThreshold>
      <weakClassifiers>
        <_>
          <internalNodes>
            0 -1 1 1.7138919234275818e-01</internalNodes>
          <leafValues>
            -8.2483661174774170e-01 7.5568860769271851e-01</leafValues></_>
        <_>
          <internalNodes>
            0 -1 14 -1.6784504055976868e-01</internalNodes>
          <leafValues>
            5.9480023384094238e-01 -8.6871391534805298e-01</leafValues></_>
        <_>
          <internalNodes>
            0 -1 9 -1.3328681234270334e-04</internalNodes>
          <leafValues>
            4.6858531236648560e-01 -7.4754506349563599e-01</leafValues></_>
        <_>
          <internalNodes>
            0 -1 6 -1.5800030529499054e-01</internalNodes>
          <leafValues>
            4.8268559575080872e-01 -7.0804309844970703e-01</leafValues></_></weakClassifiers></_>
    <!-- stage 1 -->
    <_>
      <maxWeakCount>7</maxWeakCount>
      <stageThreshold>-1.0661144256591797e+00</stageThreshold>
      <weakClassifiers>
        <_>
          <internalNodes>
            0 -1 15 -1.8631568551063538e-01</internalNodes>
          <leafValues>
            6.7417216300964355e-01 -6.0236686468124390e-01</leafValues></_>
        <_>
          <internalNodes>
            0 -1 7 -3.0125451739877462e-03</internalNodes>
          <leafValues>
            3.9959976077079773e-01 -7.0579206943511963e-01</leafValues></_>
        <_>
          <internalNodes>
            0 -1 13 1.2077409774065018e-02</internalNodes>
          <leafValues>
            2.6567372679710388e-01 -8.1755441427230835e-01</leafValues></_>
        <_>
          <internalNodes>
            0 -1 0 2.0529526472091675e-01</internalNodes>
          <leafValues>
            -4.2372420430183411e-01 5.9101122617721558e-01</leafValues></_>
        <_>
          <internalNodes>
            0 -1 11 1.2500507291406393e-03</internalNodes>
          <leafValues>
            -4.7910621762275696e-01 4.8203557729721069e-01</leafValues></_>
        <_>
          <internalNodes>
            0 -1 5 7.3833554051816463e-04</internalNodes>
          <leafValues>
            -4.6107661724090576e-01 4.6367058157920837e-01</leafValues></_>
        <_>
          <internalNodes>
            0 -1 4 8.8823869824409485e-02</internalNodes>
          <leafValues>
            -8.8956099748611450e-01 3.7913605570793152e-01</leafValues></_></weakClassifiers></_>
    <!-- stage 2 -->
    <_>
      <maxWeakCount>6</maxWeakCount>
      <stageThreshold>-7.4365103244781494e-01</stageThreshold>
      <weakClassifiers>
        <_>
          <internalNodes>
            0 -1 16 -4.9312748014926910e-02</internalNodes>
          <leafValues>
            4.3999999761581421e-01 -6.4307689666748047e-01</leafValues></_>
        <_>
          <internalNodes>
            0 -1 10 -6.2637089285999537e-04</internalNodes>
          <leafValues>
            5.7342642545700073e-01 -6.0862857103347778e-01</leafValues></_>
        <_>
          <internalNodes>
            0 -1 2 1.5037539601325989e-01</internalNodes>
          <leafValues>
            -4.2844530940055847e-01 7.6035487651824951e-01</leafValues></_>
        <_>
          <internalNodes>
            0 -1 3 7.9719233326613903e-04</internalNodes>
          <leafValues>
            -7.4783009290695190e-01 4.1420769691467285e-01</leafValues></_>
        <_>
          <internalNodes>
            0 -1 8 -5.1968568004667759e-04</internalNodes>
          <leafValues>
            3.8850644230842590e-01 -6.8741899728775024e-01</leafValues></_>
        <_>
          <internalNodes>
            0 -1 12 1.4712246134877205e-02</internalNodes>
          <leafValues>
            2.1274650096893311e-01 -9.9354517459869385e-01</leafValues></_></weakClassifiers></_></stages>
  <features>
    <_>
      <rects>
        <_>
          0 0 12 16 -1.</_>
        <_>
          6 0 6 16 2.</_></rects>
      <tilted>0</tilted></_>
    <_>
      <rects>
        <_>
          0 1 14 15 -1.</_>
        <_>
          7 1 7 15 2.</_></rects>
      <tilted>0</tilted></_>
    <_>
      <rects>
        <_>
          0 2 10 12 -1.</_>
        <_>
          5 2 5 12 2.</_></rects>
      <tilted>0</tilted></_>
    <_>
      <rects>
        <_>
          0 4 24 4 -1.</_>
        <_>
          0 6 24 2 2.</_></rects>
      <tilted>0</tilted></_>
    <_>
      <rects>
        <_>
          0 6 22 9 -1.</_>
        <_>
          11 6 11 9 2.</_></rects>
      <tilted>0</tilted></_>
    <_>
      <rects>
        <_>
          2 6 2 4 -1.</_>
        <_>
          3 6 1 4 2.</_></rects>
      <tilted>0</tilted></_>
    <_>
      <rects>
        <_>
          6 6 26 10 -1.</_>
        <_>
          19 6 13 10 2.</_></rects>
      <tilted>0</tilted></_>
    <_>
      <rects>
        <_>
          12 9 9 1 -1.</_>
        <_>
          15 9 3 1 3.</_></rects>
      <tilted>0</tilted></_>
    <_>
      <rects>
        <_>
          13 3 4 7 -1.</_>
        <_>
          15 3 2 7 2.</_></rects>
      <tilted>0</tilted></_>
    <_>
      <rects>
        <_>
          14 7 2 1 -1.</_>
        <_>
          15 7 1 1 2.</_></rects>
      <tilted>0</tilted></_>
    <_>
      <rects>
        <_>
          14 7 2 2 -1.</_>
        <_>
          15 7 1 2 2.</_></rects>
      <tilted>0</tilted></_>
    <_>
      <rects>
        <_>
          15 1 2 14 -1.</_>
        <_>
          15 1 1 7 2.</_>
        <_>
          16 8 1 7 2.</_></rects>
      <tilted>0</tilted></_>
    <_>
      <rects>
        <_>
          16 6 6 2 -1.</_>
        <_>
          19 6 3 2 2.</_></rects>
      <tilted>0</tilted></_>
    <_>
      <rects>
        <_>
          17 6 6 5 -1.</_>
        <_>
          20 6 3 5 2.</_></rects>
      <tilted>0</tilted></_>
    <_>
      <rects>
        <_>
          18 5 14 11 -1.</_>
        <_>
          25 5 7 11 2.</_></rects>
      <tilted>0</tilted></_>
    <_>
      <rects>
        <_>
          18 6 14 10 -1.</_>
        <_>
          25 6 7 10 2.</_></rects>
      <tilted>0</tilted></_>
    <_>
      <rects>
        <_>
          20 8 12 3 -1.</_>
        <_>
          26 8 6 3 2.</_></rects>
      <tilted>0</tilted></_></features></cascade>
</opencv_storage>
