<?xml version="1.0"?>
<opencv_storage>
<stage1>
  <maxWeakCount>7</maxWeakCount>
  <stageThreshold>-1.0661144256591797e+00</stageThreshold>
  <weakClassifiers>
    <_>
      <internalNodes>
        0 -1 106012 -1.8631568551063538e-01</internalNodes>
      <leafValues>
        6.7417216300964355e-01 -6.0236686468124390e-01</leafValues></_>
    <_>
      <internalNodes>
        0 -1 82138 -3.0125451739877462e-03</internalNodes>
      <leafValues>
        3.9959976077079773e-01 -7.0579206943511963e-01</leafValues></_>
    <_>
      <internalNodes>
        0 -1 102402 1.2077409774065018e-02</internalNodes>
      <leafValues>
        2.6567372679710388e-01 -8.1755441427230835e-01</leafValues></_>
    <_>
      <internalNodes>
        0 -1 316 2.0529526472091675e-01</internalNodes>
      <leafValues>
        -4.2372420430183411e-01 5.9101122617721558e-01</leafValues></_>
    <_>
      <internalNodes>
        0 -1 92645 1.2500507291406393e-03</internalNodes>
      <leafValues>
        -4.7910621762275696e-01 4.8203557729721069e-01</leafValues></_>
    <_>
      <internalNodes>
        0 -1 20017 7.3833554051816463e-04</internalNodes>
      <leafValues>
        -4.6107661724090576e-01 4.6367058157920837e-01</leafValues></_>
    <_>
      <internalNodes>
        0 -1 5129 8.8823869824409485e-02</internalNodes>
      <leafValues>
        -8.8956099748611450e-01 3.7913605570793152e-01</leafValues></_></weakClassifiers></stage1>
</opencv_storage>
