<?xml version="1.0"?>
<opencv_storage>
<stage3>
  <maxWeakCount>5</maxWeakCount>
  <stageThreshold>-1.3583704233169556e+00</stageThreshold>
  <weakClassifiers>
    <_>
      <internalNodes>
        0 -1 94609 4.6308082528412342e-04</internalNodes>
      <leafValues>
        -8.6073499917984009e-01 4.1089564561843872e-01</leafValues></_>
    <_>
      <internalNodes>
        0 -1 99118 2.4687603581696749e-04</internalNodes>
      <leafValues>
        -8.3041292428970337e-01 3.5934776067733765e-01</leafValues></_>
    <_>
      <internalNodes>
        0 -1 420 2.2476495802402496e-01</internalNodes>
      <leafValues>
        -7.4807012081146240e-01 5.0255149602890015e-01</leafValues></_>
    <_>
      <internalNodes>
        0 -1 126735 -1.8606646335683763e-04</internalNodes>
      <leafValues>
        4.9987503886222839e-01 -6.4737308025360107e-01</leafValues></_>
    <_>
      <internalNodes>
        0 -1 98382 -1.6773371025919914e-02</internalNodes>
      <leafValues>
        4.5659002661705017e-01 -9.0036165714263916e-01</leafValues></_></weakClassifiers></stage3>
</opencv_storage>
