<?xml version="1.0"?>
<opencv_storage>
<cascade>
  <stageType>BOOST</stageType>
  <featureType>HAAR</featureType>
  <height>16</height>
  <width>32</width>
  <stageParams>
    <boostType>GAB</boostType>
    <minHitRate>9.9500000476837158e-01</minHitRate>
    <maxFalseAlarm>5.0000000000000000e-01</maxFalseAlarm>
    <weightTrimRate>9.4999999999999996e-01</weightTrimRate>
    <maxDepth>1</maxDepth>
    <maxWeakCount>100</maxWeakCount></stageParams>
  <featureParams>
    <maxCatCount>0</maxCatCount>
    <featSize>1</featSize>
    <mode>BASIC</mode></featureParams>
  <stageNum>1</stageNum>
  <stages>
    <!-- stage 0 -->
    <_>
      <maxWeakCount>2</maxWeakCount>
      <stageThreshold>-8.3548530936241150e-02</stageThreshold>
      <weakClassifiers>
        <_>
          <internalNodes>
            0 -1 0 1.1546205729246140e-01</internalNodes>
          <leafValues>
            -9.7872340679168701e-01 8.6792451143264771e-01</leafValues></_>
        <_>
          <internalNodes>
            0 -1 1 -3.4083098173141479e-02</internalNodes>
          <leafValues>
            8.9517486095428467e-01 -9.1052550077438354e-01</leafValues></_></weakClassifiers></_></stages>
  <features>
    <_>
      <rects>
        <_>
          13 0 7 14 -1.</_>
        <_>
          13 7 7 7 2.</_></rects>
      <tilted>0</tilted></_>
    <_>
      <rects>
        <_>
          18 2 14 14 -1.</_>
        <_>
          18 2 7 7 2.</_>
        <_>
          25 9 7 7 2.</_></rects>
      <tilted>0</tilted></_></features></cascade>
</opencv_storage>
