<?xml version="1.0"?>
<opencv_storage>
<stage4>
  <maxWeakCount>12</maxWeakCount>
  <stageThreshold>-1.1988552808761597e+00</stageThreshold>
  <weakClassifiers>
    <_>
      <internalNodes>
        0 -1 97194 2.1525623276829720e-02</internalNodes>
      <leafValues>
        -3.9518073201179504e-01 4.2597401142120361e-01</leafValues></_>
    <_>
      <internalNodes>
        0 -1 11403 4.1408285498619080e-02</internalNodes>
      <leafValues>
        -1.7879825830459595e-01 1.</leafValues></_>
    <_>
      <internalNodes>
        0 -1 79075 8.8705657981336117e-04</internalNodes>
      <leafValues>
        -2.2794923186302185e-01 6.7486011981964111e-01</leafValues></_>
    <_>
      <internalNodes>
        0 -1 16497 4.3467428535223007e-02</internalNodes>
      <leafValues>
        -1.5012505650520325e-01 1.</leafValues></_>
    <_>
      <internalNodes>
        0 -1 105816 -4.0677894139662385e-04</internalNodes>
      <leafValues>
        5.9571945667266846e-01 -2.4682100117206573e-01</leafValues></_>
    <_>
      <internalNodes>
        0 -1 86999 -7.1664629504084587e-03</internalNodes>
      <leafValues>
        9.2313581705093384e-01 -1.4356428384780884e-01</leafValues></_>
    <_>
      <internalNodes>
        0 -1 35983 -1.2807378545403481e-02</internalNodes>
      <leafValues>
        7.0770424604415894e-01 -1.5621799230575562e-01</leafValues></_>
    <_>
      <internalNodes>
        0 -1 39220 -5.9060589410364628e-04</internalNodes>
      <leafValues>
        6.0711139440536499e-01 -2.5925102829933167e-01</leafValues></_>
    <_>
      <internalNodes>
        0 -1 66225 9.1044360306113958e-04</internalNodes>
      <leafValues>
        -2.4209395051002502e-01 6.1608183383941650e-01</leafValues></_>
    <_>
      <internalNodes>
        0 -1 30887 -2.6849957066588104e-05</internalNodes>
      <leafValues>
        9.1012835502624512e-01 -1.4682009816169739e-01</leafValues></_>
    <_>
      <internalNodes>
        0 -1 105277 -3.5698332358151674e-03</internalNodes>
      <leafValues>
        -5.4178404808044434e-01 3.3800855278968811e-01</leafValues></_>
    <_>
      <internalNodes>
        0 -1 84306 -1.0943444794975221e-04</internalNodes>
      <leafValues>
        7.1963995695114136e-01 -2.4821797013282776e-01</leafValues></_></weakClassifiers></stage4>
</opencv_storage>
