<?xml version="1.0"?>
<opencv_storage>
<stage2>
  <maxWeakCount>14</maxWeakCount>
  <stageThreshold>-1.1233526468276978e+00</stageThreshold>
  <weakClassifiers>
    <_>
      <internalNodes>
        0 -1 396 -3.1475484371185303e-02</internalNodes>
      <leafValues>
        5.6000000238418579e-01 -3.3599999547004700e-01</leafValues></_>
    <_>
      <internalNodes>
        0 -1 93079 6.9064227864146233e-04</internalNodes>
      <leafValues>
        -8.7250494956970215e-01 1.4764077961444855e-01</leafValues></_>
    <_>
      <internalNodes>
        0 -1 23305 -2.6403918862342834e-02</internalNodes>
      <leafValues>
        2.6005724072456360e-01 -5.0566232204437256e-01</leafValues></_>
    <_>
      <internalNodes>
        0 -1 7673 -1.7238709551747888e-04</internalNodes>
      <leafValues>
        4.8508155345916748e-01 -2.9638761281967163e-01</leafValues></_>
    <_>
      <internalNodes>
        0 -1 92245 1.3569239526987076e-03</internalNodes>
      <leafValues>
        2.8902754187583923e-01 -4.0181016921997070e-01</leafValues></_>
    <_>
      <internalNodes>
        0 -1 30421 -2.6634105597622693e-04</internalNodes>
      <leafValues>
        5.9192574024200439e-01 -2.0031997561454773e-01</leafValues></_>
    <_>
      <internalNodes>
        0 -1 117230 -6.8716399371623993e-02</internalNodes>
      <leafValues>
        3.4250783920288086e-01 -3.5878804326057434e-01</leafValues></_>
    <_>
      <internalNodes>
        0 -1 16557 -3.5275805741548538e-02</internalNodes>
      <leafValues>
        7.0567631721496582e-01 -1.8311917781829834e-01</leafValues></_>
    <_>
      <internalNodes>
        0 -1 106128 -4.2619640007615089e-03</internalNodes>
      <leafValues>
        -8.8597750663757324e-01 1.1777925491333008e-01</leafValues></_>
    <_>
      <internalNodes>
        0 -1 65663 5.3687654435634613e-03</internalNodes>
      <leafValues>
        1.2038989365100861e-01 -6.3410431146621704e-01</leafValues></_>
    <_>
      <internalNodes>
        0 -1 101702 -4.3635498732328415e-03</internalNodes>
      <leafValues>
        -7.6847648620605469e-01 1.2841147184371948e-01</leafValues></_>
    <_>
      <internalNodes>
        0 -1 65891 1.9938860088586807e-02</internalNodes>
      <leafValues>
        6.6967286169528961e-02 -9.4392257928848267e-01</leafValues></_>
    <_>
      <internalNodes>
        0 -1 18244 4.8329457640647888e-02</internalNodes>
      <leafValues>
        -2.1199239790439606e-01 4.9240958690643311e-01</leafValues></_>
    <_>
      <internalNodes>
        0 -1 10971 5.7044319808483124e-02</internalNodes>
      <leafValues>
        2.3005090653896332e-01 -5.1265901327133179e-01</leafValues></_></weakClassifiers></stage2>
</opencv_storage>
