<?xml version="1.0"?>
<opencv_storage>
<cascade>
  <stageType>BOOST</stageType>
  <featureType>HAAR</featureType>
  <height>16</height>
  <width>32</width>
  <stageParams>
    <boostType>GAB</boostType>
    <minHitRate>9.9500000476837158e-01</minHitRate>
    <maxFalseAlarm>5.0000000000000000e-01</maxFalseAlarm>
    <weightTrimRate>9.4999999999999996e-01</weightTrimRate>
    <maxDepth>1</maxDepth>
    <maxWeakCount>100</maxWeakCount></stageParams>
  <featureParams>
    <maxCatCount>0</maxCatCount>
    <featSize>1</featSize>
    <mode>BASIC</mode></featureParams>
  <stageNum>2</stageNum>
  <stages>
    <!-- stage 0 -->
    <_>
      <maxWeakCount>2</maxWeakCount>
      <stageThreshold>-1.6159527003765106e-01</stageThreshold>
      <weakClassifiers>
        <_>
          <internalNodes>
            0 -1 2 1.3731426000595093e-01</internalNodes>
          <leafValues>
            -9.4035786390304565e-01 9.5171028375625610e-01</leafValues></_>
        <_>
          <internalNodes>
            0 -1 3 1.8133323639631271e-02</internalNodes>
          <leafValues>
            -9.4111919403076172e-01 7.7876257896423340e-01</leafValues></_></weakClassifiers></_>
    <!-- stage 1 -->
    <_>
      <maxWeakCount>2</maxWeakCount>
      <stageThreshold>-2.2902865707874298e-01</stageThreshold>
      <weakClassifiers>
        <_>
          <internalNodes>
            0 -1 0 2.1459525823593140e-01</internalNodes>
          <leafValues>
            -9.4408601522445679e-01 8.2056075334548950e-01</leafValues></_>
        <_>
          <internalNodes>
            0 -1 1 -6.4242063090205193e-03</internalNodes>
          <leafValues>
            7.1505737304687500e-01 -9.4747638702392578e-01</leafValues></_></weakClassifiers></_></stages>
  <features>
    <_>
      <rects>
        <_>
          10 0 13 10 -1.</_>
        <_>
          10 5 13 5 2.</_></rects>
      <tilted>0</tilted></_>
    <_>
      <rects>
        <_>
          10 7 18 2 -1.</_>
        <_>
          19 7 9 2 2.</_></rects>
      <tilted>0</tilted></_>
    <_>
      <rects>
        <_>
          11 0 8 10 -1.</_>
        <_>
          11 5 8 5 2.</_></rects>
      <tilted>0</tilted></_>
    <_>
      <rects>
        <_>
          16 3 2 6 -1.</_>
        <_>
          16 6 2 3 2.</_></rects>
      <tilted>0</tilted></_></features></cascade>
</opencv_storage>
