<?xml version="1.0"?>
<opencv_storage>
<stage3>
  <maxWeakCount>9</maxWeakCount>
  <stageThreshold>-1.3114346265792847e+00</stageThreshold>
  <weakClassifiers>
    <_>
      <internalNodes>
        0 -1 85133 2.7414027601480484e-02</internalNodes>
      <leafValues>
        -4.1151386499404907e-01 5.8308154344558716e-01</leafValues></_>
    <_>
      <internalNodes>
        0 -1 22944 -5.0790875684469938e-04</internalNodes>
      <leafValues>
        9.3818688392639160e-01 -2.3614819347858429e-01</leafValues></_>
    <_>
      <internalNodes>
        0 -1 54788 -1.4947441220283508e-01</internalNodes>
      <leafValues>
        4.0379521250724792e-01 -5.4613721370697021e-01</leafValues></_>
    <_>
      <internalNodes>
        0 -1 51002 4.8545625759288669e-04</internalNodes>
      <leafValues>
        -6.6903829574584961e-01 2.9360303282737732e-01</leafValues></_>
    <_>
      <internalNodes>
        0 -1 30229 -3.3429874747525901e-05</internalNodes>
      <leafValues>
        6.0517919063568115e-01 -3.7003770470619202e-01</leafValues></_>
    <_>
      <internalNodes>
        0 -1 98255 6.2986370176076889e-04</internalNodes>
      <leafValues>
        -5.8091902732849121e-01 3.9009347558021545e-01</leafValues></_>
    <_>
      <internalNodes>
        0 -1 96367 -1.3688787817955017e-02</internalNodes>
      <leafValues>
        4.5511361956596375e-01 -4.0923509001731873e-01</leafValues></_>
    <_>
      <internalNodes>
        0 -1 83490 1.6477569937705994e-01</internalNodes>
      <leafValues>
        -4.7035539150238037e-01 4.3993270397186279e-01</leafValues></_>
    <_>
      <internalNodes>
        0 -1 90719 6.6802883520722389e-04</internalNodes>
      <leafValues>
        -4.4091171026229858e-01 3.8948374986648560e-01</leafValues></_></weakClassifiers></stage3>
</opencv_storage>
