<?xml version="1.0"?>
<opencv_storage>
<stage2>
  <maxWeakCount>8</maxWeakCount>
  <stageThreshold>-1.2871938943862915e+00</stageThreshold>
  <weakClassifiers>
    <_>
      <internalNodes>
        0 -1 86208 -2.0124968141317368e-03</internalNodes>
      <leafValues>
        3.3628317713737488e-01 -8.0851066112518311e-01</leafValues></_>
    <_>
      <internalNodes>
        0 -1 29648 -2.2059679031372070e-03</internalNodes>
      <leafValues>
        5.0335496664047241e-01 -5.1136183738708496e-01</leafValues></_>
    <_>
      <internalNodes>
        0 -1 2058 4.5206211507320404e-02</internalNodes>
      <leafValues>
        -5.9348565340042114e-01 3.5218751430511475e-01</leafValues></_>
    <_>
      <internalNodes>
        0 -1 97190 -1.5487954951822758e-03</internalNodes>
      <leafValues>
        5.0108689069747925e-01 -3.7132549285888672e-01</leafValues></_>
    <_>
      <internalNodes>
        0 -1 102834 5.7954002841142938e-05</internalNodes>
      <leafValues>
        -6.1578881740570068e-01 3.4650555253028870e-01</leafValues></_>
    <_>
      <internalNodes>
        0 -1 91038 8.0380140570923686e-04</internalNodes>
      <leafValues>
        1.6894832253456116e-01 -8.1656634807586670e-01</leafValues></_>
    <_>
      <internalNodes>
        0 -1 98860 -1.8989328527823091e-03</internalNodes>
      <leafValues>
        -9.1048234701156616e-01 2.3195885121822357e-01</leafValues></_>
    <_>
      <internalNodes>
        0 -1 92910 1.2927317619323730e-01</internalNodes>
      <leafValues>
        -6.9559609889984131e-01 2.5089412927627563e-01</leafValues></_></weakClassifiers></stage2>
</opencv_storage>
