<?xml version="1.0"?>
<opencv_storage>
<stage1>
  <maxWeakCount>6</maxWeakCount>
  <stageThreshold>-1.2786446809768677e+00</stageThreshold>
  <weakClassifiers>
    <_>
      <internalNodes>
        0 -1 57798 -2.5436967611312866e-02</internalNodes>
      <leafValues>
        4.0859141945838928e-01 -6.8280470371246338e-01</leafValues></_>
    <_>
      <internalNodes>
        0 -1 102848 -8.9991707354784012e-03</internalNodes>
      <leafValues>
        3.2698884606361389e-01 -7.8753691911697388e-01</leafValues></_>
    <_>
      <internalNodes>
        0 -1 96186 6.1990390531718731e-03</internalNodes>
      <leafValues>
        -8.1124055385589600e-01 3.5772645473480225e-01</leafValues></_>
    <_>
      <internalNodes>
        0 -1 91012 -3.0445369702647440e-05</internalNodes>
      <leafValues>
        1.8634791672229767e-01 -9.0136438608169556e-01</leafValues></_>
    <_>
      <internalNodes>
        0 -1 95149 -2.4356208741664886e-03</internalNodes>
      <leafValues>
        -9.3642061948776245e-01 1.7434625327587128e-01</leafValues></_>
    <_>
      <internalNodes>
        0 -1 99349 3.6561401793733239e-04</internalNodes>
      <leafValues>
        -5.2672368288040161e-01 4.7984236478805542e-01</leafValues></_></weakClassifiers></stage1>
</opencv_storage>
