<?xml version="1.0"?>
<opencv_storage>
<cascade>
  <stageType>BOOST</stageType>
  <featureType>HAAR</featureType>
  <height>16</height>
  <width>32</width>
  <stageParams>
    <boostType>GAB</boostType>
    <minHitRate>9.9500000476837158e-01</minHitRate>
    <maxFalseAlarm>5.0000000000000000e-01</maxFalseAlarm>
    <weightTrimRate>9.4999999999999996e-01</weightTrimRate>
    <maxDepth>1</maxDepth>
    <maxWeakCount>100</maxWeakCount></stageParams>
  <featureParams>
    <maxCatCount>0</maxCatCount>
    <featSize>1</featSize>
    <mode>BASIC</mode></featureParams>
  <stageNum>5</stageNum>
  <stages>
    <!-- stage 0 -->
    <_>
      <maxWeakCount>4</maxWeakCount>
      <stageThreshold>-7.4670106172561646e-01</stageThreshold>
      <weakClassifiers>
        <_>
          <internalNodes>
            0 -1 3 8.9266233146190643e-02</internalNodes>
          <leafValues>
            -9.3811535835266113e-01 7.5028121471405029e-01</leafValues></_>
        <_>
          <internalNodes>
            0 -1 23 -1.2183530628681183e-01</internalNodes>
          <leafValues>
            5.7513737678527832e-01 -7.1887564659118652e-01</leafValues></_>
        <_>
          <internalNodes>
            0 -1 18 3.6579172592610121e-04</internalNodes>
          <leafValues>
            -7.6393949985504150e-01 5.1232504844665527e-01</leafValues></_>
        <_>
          <internalNodes>
            0 -1 1 1.5504296123981476e-01</internalNodes>
          <leafValues>
            -7.9718810319900513e-01 3.9796483516693115e-01</leafValues></_></weakClassifiers></_>
    <!-- stage 1 -->
    <_>
      <maxWeakCount>7</maxWeakCount>
      <stageThreshold>-1.2493646144866943e+00</stageThreshold>
      <weakClassifiers>
        <_>
          <internalNodes>
            0 -1 18 4.6593230217695236e-04</internalNodes>
          <leafValues>
            -7.4171030521392822e-01 4.1382667422294617e-01</leafValues></_>
        <_>
          <internalNodes>
            0 -1 24 -8.0483451485633850e-02</internalNodes>
          <leafValues>
            3.7833508849143982e-01 -6.8702298402786255e-01</leafValues></_>
        <_>
          <internalNodes>
            0 -1 17 -3.3241804339922965e-04</internalNodes>
          <leafValues>
            3.6547154188156128e-01 -7.5067758560180664e-01</leafValues></_>
        <_>
          <internalNodes>
            0 -1 7 2.7377842343412340e-05</internalNodes>
          <leafValues>
            -4.3754994869232178e-01 5.8327722549438477e-01</leafValues></_>
        <_>
          <internalNodes>
            0 -1 8 1.1167472228407860e-02</internalNodes>
          <leafValues>
            -5.2199673652648926e-01 4.4249305129051208e-01</leafValues></_>
        <_>
          <internalNodes>
            0 -1 5 -9.2656118795275688e-04</internalNodes>
          <leafValues>
            4.3030241131782532e-01 -5.3661006689071655e-01</leafValues></_>
        <_>
          <internalNodes>
            0 -1 15 3.7258900701999664e-03</internalNodes>
          <leafValues>
            -7.1744966506958008e-01 3.4314140677452087e-01</leafValues></_></weakClassifiers></_>
    <!-- stage 2 -->
    <_>
      <maxWeakCount>6</maxWeakCount>
      <stageThreshold>-1.4151560068130493e+00</stageThreshold>
      <weakClassifiers>
        <_>
          <internalNodes>
            0 -1 0 -1.1379566043615341e-02</internalNodes>
          <leafValues>
            7.5160598754882812e-01 -3.0979698896408081e-01</leafValues></_>
        <_>
          <internalNodes>
            0 -1 9 1.5696037735324353e-05</internalNodes>
          <leafValues>
            -7.8050512075424194e-01 3.6475318670272827e-01</leafValues></_>
        <_>
          <internalNodes>
            0 -1 20 -2.3567147552967072e-02</internalNodes>
          <leafValues>
            -8.9047288894653320e-01 2.1845100820064545e-01</leafValues></_>
        <_>
          <internalNodes>
            0 -1 14 9.6234405646100640e-04</internalNodes>
          <leafValues>
            -5.2656871080398560e-01 5.5987733602523804e-01</leafValues></_>
        <_>
          <internalNodes>
            0 -1 6 -1.3418553862720728e-03</internalNodes>
          <leafValues>
            6.0702598094940186e-01 -4.4024640321731567e-01</leafValues></_>
        <_>
          <internalNodes>
            0 -1 21 4.1095293127000332e-03</internalNodes>
          <leafValues>
            3.8717582821846008e-01 -7.7195423841476440e-01</leafValues></_></weakClassifiers></_>
    <!-- stage 3 -->
    <_>
      <maxWeakCount>5</maxWeakCount>
      <stageThreshold>-9.6151703596115112e-01</stageThreshold>
      <weakClassifiers>
        <_>
          <internalNodes>
            0 -1 4 4.9408860504627228e-02</internalNodes>
          <leafValues>
            -4.4806516170501709e-01 7.1197408437728882e-01</leafValues></_>
        <_>
          <internalNodes>
            0 -1 26 -5.6235212832689285e-04</internalNodes>
          <leafValues>
            4.6461951732635498e-01 -7.5552445650100708e-01</leafValues></_>
        <_>
          <internalNodes>
            0 -1 10 2.8264936991035938e-03</internalNodes>
          <leafValues>
            -6.4011996984481812e-01 4.7779256105422974e-01</leafValues></_>
        <_>
          <internalNodes>
            0 -1 2 8.8622570037841797e-02</internalNodes>
          <leafValues>
            -6.9451898336410522e-01 3.8687485456466675e-01</leafValues></_>
        <_>
          <internalNodes>
            0 -1 13 -3.8705149199813604e-04</internalNodes>
          <leafValues>
            -6.6132485866546631e-01 4.1667225956916809e-01</leafValues></_></weakClassifiers></_>
    <!-- stage 4 -->
    <_>
      <maxWeakCount>6</maxWeakCount>
      <stageThreshold>-1.2532900571823120e+00</stageThreshold>
      <weakClassifiers>
        <_>
          <internalNodes>
            0 -1 11 3.4630487207323313e-03</internalNodes>
          <leafValues>
            -6.6229987144470215e-01 4.9835705757141113e-01</leafValues></_>
        <_>
          <internalNodes>
            0 -1 16 -6.6019257064908743e-04</internalNodes>
          <leafValues>
            7.1299988031387329e-01 -5.4896157979965210e-01</leafValues></_>
        <_>
          <internalNodes>
            0 -1 12 7.9988772049546242e-03</internalNodes>
          <leafValues>
            -5.4418402910232544e-01 6.2542897462844849e-01</leafValues></_>
        <_>
          <internalNodes>
            0 -1 22 1.4269912615418434e-02</internalNodes>
          <leafValues>
            5.4027700424194336e-01 -7.5632411241531372e-01</leafValues></_>
        <_>
          <internalNodes>
            0 -1 19 -1.4729371294379234e-02</internalNodes>
          <leafValues>
            -7.5073105096817017e-01 4.2731529474258423e-01</leafValues></_>
        <_>
          <internalNodes>
            0 -1 25 -7.4671261012554169e-02</internalNodes>
          <leafValues>
            9.1780543327331543e-01 -4.3079718947410583e-01</leafValues></_></weakClassifiers></_></stages>
  <features>
    <_>
      <rects>
        <_>
          0 0 18 2 -1.</_>
        <_>
          6 0 6 2 3.</_></rects>
      <tilted>0</tilted></_>
    <_>
      <rects>
        <_>
          0 1 14 13 -1.</_>
        <_>
          7 1 7 13 2.</_></rects>
      <tilted>0</tilted></_>
    <_>
      <rects>
        <_>
          0 2 28 10 -1.</_>
        <_>
          14 2 14 10 2.</_></rects>
      <tilted>0</tilted></_>
    <_>
      <rects>
        <_>
          0 7 16 5 -1.</_>
        <_>
          8 7 8 5 2.</_></rects>
      <tilted>0</tilted></_>
    <_>
      <rects>
        <_>
          1 0 24 3 -1.</_>
        <_>
          13 0 12 3 2.</_></rects>
      <tilted>0</tilted></_>
    <_>
      <rects>
        <_>
          1 4 3 9 -1.</_>
        <_>
          2 4 1 9 3.</_></rects>
      <tilted>0</tilted></_>
    <_>
      <rects>
        <_>
          2 14 30 2 -1.</_>
        <_>
          17 14 15 2 2.</_></rects>
      <tilted>0</tilted></_>
    <_>
      <rects>
        <_>
          3 14 2 2 -1.</_>
        <_>
          4 14 1 2 2.</_></rects>
      <tilted>0</tilted></_>
    <_>
      <rects>
        <_>
          7 0 14 4 -1.</_>
        <_>
          14 0 7 4 2.</_></rects>
      <tilted>0</tilted></_>
    <_>
      <rects>
        <_>
          7 7 2 3 -1.</_>
        <_>
          8 7 1 3 2.</_></rects>
      <tilted>0</tilted></_>
    <_>
      <rects>
        <_>
          7 8 4 2 -1.</_>
        <_>
          9 8 2 2 2.</_></rects>
      <tilted>0</tilted></_>
    <_>
      <rects>
        <_>
          7 8 4 7 -1.</_>
        <_>
          9 8 2 7 2.</_></rects>
      <tilted>0</tilted></_>
    <_>
      <rects>
        <_>
          8 0 12 4 -1.</_>
        <_>
          14 0 6 4 2.</_></rects>
      <tilted>0</tilted></_>
    <_>
      <rects>
        <_>
          11 10 6 3 -1.</_>
        <_>
          13 10 2 3 3.</_></rects>
      <tilted>0</tilted></_>
    <_>
      <rects>
        <_>
          12 9 3 2 -1.</_>
        <_>
          13 9 1 2 3.</_></rects>
      <tilted>0</tilted></_>
    <_>
      <rects>
        <_>
          13 3 6 8 -1.</_>
        <_>
          13 7 6 4 2.</_></rects>
      <tilted>0</tilted></_>
    <_>
      <rects>
        <_>
          13 5 3 5 -1.</_>
        <_>
          14 5 1 5 3.</_></rects>
      <tilted>0</tilted></_>
    <_>
      <rects>
        <_>
          13 10 4 2 -1.</_>
        <_>
          15 10 2 2 2.</_></rects>
      <tilted>0</tilted></_>
    <_>
      <rects>
        <_>
          14 7 3 2 -1.</_>
        <_>
          15 7 1 2 3.</_></rects>
      <tilted>0</tilted></_>
    <_>
      <rects>
        <_>
          15 2 9 2 -1.</_>
        <_>
          18 2 3 2 3.</_></rects>
      <tilted>0</tilted></_>
    <_>
      <rects>
        <_>
          15 7 15 4 -1.</_>
        <_>
          20 7 5 4 3.</_></rects>
      <tilted>0</tilted></_>
    <_>
      <rects>
        <_>
          16 7 4 5 -1.</_>
        <_>
          18 7 2 5 2.</_></rects>
      <tilted>0</tilted></_>
    <_>
      <rects>
        <_>
          18 4 5 4 -1.</_>
        <_>
          18 6 5 2 2.</_></rects>
      <tilted>0</tilted></_>
    <_>
      <rects>
        <_>
          20 0 12 9 -1.</_>
        <_>
          26 0 6 9 2.</_></rects>
      <tilted>0</tilted></_>
    <_>
      <rects>
        <_>
          22 0 10 9 -1.</_>
        <_>
          27 0 5 9 2.</_></rects>
      <tilted>0</tilted></_>
    <_>
      <rects>
        <_>
          24 0 8 9 -1.</_>
        <_>
          28 0 4 9 2.</_></rects>
      <tilted>0</tilted></_>
    <_>
      <rects>
        <_>
          24 7 4 2 -1.</_>
        <_>
          26 7 2 2 2.</_></rects>
      <tilted>0</tilted></_></features></cascade>
</opencv_storage>
