<?xml version="1.0"?>
<opencv_storage>
<stage3>
  <maxWeakCount>5</maxWeakCount>
  <stageThreshold>-9.6151703596115112e-01</stageThreshold>
  <weakClassifiers>
    <_>
      <internalNodes>
        0 -1 8463 4.9408860504627228e-02</internalNodes>
      <leafValues>
        -4.4806516170501709e-01 7.1197408437728882e-01</leafValues></_>
    <_>
      <internalNodes>
        0 -1 121716 -5.6235212832689285e-04</internalNodes>
      <leafValues>
        4.6461951732635498e-01 -7.5552445650100708e-01</leafValues></_>
    <_>
      <internalNodes>
        0 -1 54534 2.8264936991035938e-03</internalNodes>
      <leafValues>
        -6.4011996984481812e-01 4.7779256105422974e-01</leafValues></_>
    <_>
      <internalNodes>
        0 -1 2429 8.8622570037841797e-02</internalNodes>
      <leafValues>
        -6.9451898336410522e-01 3.8687485456466675e-01</leafValues></_>
    <_>
      <internalNodes>
        0 -1 77435 -3.8705149199813604e-04</internalNodes>
      <leafValues>
        -6.6132485866546631e-01 4.1667225956916809e-01</leafValues></_></weakClassifiers></stage3>
</opencv_storage>
