<?xml version="1.0"?>
<opencv_storage>
<stage1>
  <maxWeakCount>7</maxWeakCount>
  <stageThreshold>-1.2493646144866943e+00</stageThreshold>
  <weakClassifiers>
    <_>
      <internalNodes>
        0 -1 90696 4.6593230217695236e-04</internalNodes>
      <leafValues>
        -7.4171030521392822e-01 4.1382667422294617e-01</leafValues></_>
    <_>
      <internalNodes>
        0 -1 116017 -8.0483451485633850e-02</internalNodes>
      <leafValues>
        3.7833508849143982e-01 -6.8702298402786255e-01</leafValues></_>
    <_>
      <internalNodes>
        0 -1 86995 -3.3241804339922965e-04</internalNodes>
      <leafValues>
        3.6547154188156128e-01 -7.5067758560180664e-01</leafValues></_>
    <_>
      <internalNodes>
        0 -1 29884 2.7377842343412340e-05</internalNodes>
      <leafValues>
        -4.3754994869232178e-01 5.8327722549438477e-01</leafValues></_>
    <_>
      <internalNodes>
        0 -1 50285 1.1167472228407860e-02</internalNodes>
      <leafValues>
        -5.2199673652648926e-01 4.4249305129051208e-01</leafValues></_>
    <_>
      <internalNodes>
        0 -1 11217 -9.2656118795275688e-04</internalNodes>
      <leafValues>
        4.3030241131782532e-01 -5.3661006689071655e-01</leafValues></_>
    <_>
      <internalNodes>
        0 -1 84823 3.7258900701999664e-03</internalNodes>
      <leafValues>
        -7.1744966506958008e-01 3.4314140677452087e-01</leafValues></_></weakClassifiers></stage1>
</opencv_storage>
