<?xml version="1.0"?>
<opencv_storage>
<stage3>
  <maxWeakCount>5</maxWeakCount>
  <stageThreshold>-6.1970245838165283e-01</stageThreshold>
  <weakClassifiers>
    <_>
      <internalNodes>
        0 -1 109594 -2.2318942937999964e-03</internalNodes>
      <leafValues>
        5.5879056453704834e-01 -7.0579916238784790e-01</leafValues></_>
    <_>
      <internalNodes>
        0 -1 36861 -3.1961570493876934e-04</internalNodes>
      <leafValues>
        6.6011351346969604e-01 -5.3531187772750854e-01</leafValues></_>
    <_>
      <internalNodes>
        0 -1 50291 6.2178969383239746e-02</internalNodes>
      <leafValues>
        -8.0442458391189575e-01 5.0516939163208008e-01</leafValues></_>
    <_>
      <internalNodes>
        0 -1 83746 -3.4609186695888638e-04</internalNodes>
      <leafValues>
        1. -3.7490171194076538e-01</leafValues></_>
    <_>
      <internalNodes>
        0 -1 71102 -2.0080478861927986e-02</internalNodes>
      <leafValues>
        5.6401914358139038e-01 -6.5928030014038086e-01</leafValues></_></weakClassifiers></stage3>
</opencv_storage>
