<?xml version="1.0"?>
<opencv_storage>
<stage1>
  <maxWeakCount>5</maxWeakCount>
  <stageThreshold>-1.0694977045059204e+00</stageThreshold>
  <weakClassifiers>
    <_>
      <internalNodes>
        0 -1 29819 -9.6369074890390038e-04</internalNodes>
      <leafValues>
        7.3834198713302612e-01 -6.8840581178665161e-01</leafValues></_>
    <_>
      <internalNodes>
        0 -1 52157 1.4547748491168022e-02</internalNodes>
      <leafValues>
        -8.4673148393630981e-01 4.6701580286026001e-01</leafValues></_>
    <_>
      <internalNodes>
        0 -1 127814 -6.1335111968219280e-04</internalNodes>
      <leafValues>
        5.2323937416076660e-01 -5.9405672550201416e-01</leafValues></_>
    <_>
      <internalNodes>
        0 -1 38161 1.2723563611507416e-01</internalNodes>
      <leafValues>
        -8.9122217893600464e-01 4.0022531151771545e-01</leafValues></_>
    <_>
      <internalNodes>
        0 -1 29927 -4.9002590822055936e-04</internalNodes>
      <leafValues>
        7.9836452007293701e-01 -4.8012492060661316e-01</leafValues></_></weakClassifiers></stage1>
</opencv_storage>
