<?xml version="1.0"?>
<opencv_storage>
<cascade>
  <stageType>BOOST</stageType>
  <featureType>HAAR</featureType>
  <height>16</height>
  <width>32</width>
  <stageParams>
    <boostType>GAB</boostType>
    <minHitRate>9.9500000476837158e-01</minHitRate>
    <maxFalseAlarm>5.0000000000000000e-01</maxFalseAlarm>
    <weightTrimRate>9.4999999999999996e-01</weightTrimRate>
    <maxDepth>1</maxDepth>
    <maxWeakCount>100</maxWeakCount></stageParams>
  <featureParams>
    <maxCatCount>0</maxCatCount>
    <featSize>1</featSize>
    <mode>BASIC</mode></featureParams>
  <stageNum>5</stageNum>
  <stages>
    <!-- stage 0 -->
    <_>
      <maxWeakCount>3</maxWeakCount>
      <stageThreshold>-1.0079421997070312e+00</stageThreshold>
      <weakClassifiers>
        <_>
          <internalNodes>
            0 -1 13 -1.4596022665500641e-01</internalNodes>
          <leafValues>
            7.1951222419738770e-01 -7.5641024112701416e-01</leafValues></_>
        <_>
          <internalNodes>
            0 -1 11 -3.2149091362953186e-02</internalNodes>
          <leafValues>
            5.7402622699737549e-01 -7.0843142271041870e-01</leafValues></_>
        <_>
          <internalNodes>
            0 -1 21 2.1025758236646652e-02</internalNodes>
          <leafValues>
            -7.4295288324356079e-01 4.5689943432807922e-01</leafValues></_></weakClassifiers></_>
    <!-- stage 1 -->
    <_>
      <maxWeakCount>6</maxWeakCount>
      <stageThreshold>-1.1958167552947998e+00</stageThreshold>
      <weakClassifiers>
        <_>
          <internalNodes>
            0 -1 30 -5.5623307824134827e-02</internalNodes>
          <leafValues>
            5.5331087112426758e-01 -6.9534558057785034e-01</leafValues></_>
        <_>
          <internalNodes>
            0 -1 5 -1.4562441036105156e-02</internalNodes>
          <leafValues>
            4.1979035735130310e-01 -7.3027181625366211e-01</leafValues></_>
        <_>
          <internalNodes>
            0 -1 15 6.7171320319175720e-02</internalNodes>
          <leafValues>
            -6.0291922092437744e-01 4.6559616923332214e-01</leafValues></_>
        <_>
          <internalNodes>
            0 -1 32 -5.1224988419562578e-04</internalNodes>
          <leafValues>
            3.7022426724433899e-01 -7.1522396802902222e-01</leafValues></_>
        <_>
          <internalNodes>
            0 -1 3 1.9284723326563835e-02</internalNodes>
          <leafValues>
            -8.1181669235229492e-01 2.5664940476417542e-01</leafValues></_>
        <_>
          <internalNodes>
            0 -1 24 2.0544384606182575e-03</internalNodes>
          <leafValues>
            2.0584613084793091e-01 -7.9143589735031128e-01</leafValues></_></weakClassifiers></_>
    <!-- stage 2 -->
    <_>
      <maxWeakCount>7</maxWeakCount>
      <stageThreshold>-9.0604114532470703e-01</stageThreshold>
      <weakClassifiers>
        <_>
          <internalNodes>
            0 -1 7 -1.9233450293540955e-01</internalNodes>
          <leafValues>
            4.2857143282890320e-01 -7.5778543949127197e-01</leafValues></_>
        <_>
          <internalNodes>
            0 -1 9 -6.0560349375009537e-03</internalNodes>
          <leafValues>
            4.0637391805648804e-01 -6.2470579147338867e-01</leafValues></_>
        <_>
          <internalNodes>
            0 -1 25 -5.8894744142889977e-03</internalNodes>
          <leafValues>
            4.0328383445739746e-01 -5.3371649980545044e-01</leafValues></_>
        <_>
          <internalNodes>
            0 -1 6 -1.8081393092870712e-02</internalNodes>
          <leafValues>
            4.1344353556632996e-01 -5.9214937686920166e-01</leafValues></_>
        <_>
          <internalNodes>
            0 -1 18 -1.4036546926945448e-03</internalNodes>
          <leafValues>
            -8.0094355344772339e-01 2.4592795968055725e-01</leafValues></_>
        <_>
          <internalNodes>
            0 -1 20 6.0311378911137581e-03</internalNodes>
          <leafValues>
            -8.6644667387008667e-01 1.9088608026504517e-01</leafValues></_>
        <_>
          <internalNodes>
            0 -1 14 -3.9049072656780481e-03</internalNodes>
          <leafValues>
            2.8024142980575562e-01 -7.1242153644561768e-01</leafValues></_></weakClassifiers></_>
    <!-- stage 3 -->
    <_>
      <maxWeakCount>9</maxWeakCount>
      <stageThreshold>-1.6130183935165405e+00</stageThreshold>
      <weakClassifiers>
        <_>
          <internalNodes>
            0 -1 23 -1.1304278671741486e-01</internalNodes>
          <leafValues>
            3.3024975657463074e-01 -6.8786126375198364e-01</leafValues></_>
        <_>
          <internalNodes>
            0 -1 4 -1.6297029796987772e-03</internalNodes>
          <leafValues>
            3.5846847295761108e-01 -6.3577055931091309e-01</leafValues></_>
        <_>
          <internalNodes>
            0 -1 1 3.4847967326641083e-02</internalNodes>
          <leafValues>
            -8.4843224287033081e-01 3.3292779326438904e-01</leafValues></_>
        <_>
          <internalNodes>
            0 -1 16 5.0621051341295242e-03</internalNodes>
          <leafValues>
            2.5699886679649353e-01 -7.9928839206695557e-01</leafValues></_>
        <_>
          <internalNodes>
            0 -1 8 -2.2301061544567347e-03</internalNodes>
          <leafValues>
            5.5759477615356445e-01 -4.4687244296073914e-01</leafValues></_>
        <_>
          <internalNodes>
            0 -1 26 1.6703232540749013e-04</internalNodes>
          <leafValues>
            -5.8732503652572632e-01 3.4321728348731995e-01</leafValues></_>
        <_>
          <internalNodes>
            0 -1 31 6.4837047830224037e-04</internalNodes>
          <leafValues>
            -3.7232413887977600e-01 5.9094256162643433e-01</leafValues></_>
        <_>
          <internalNodes>
            0 -1 28 -2.3507989943027496e-02</internalNodes>
          <leafValues>
            2.6721549034118652e-01 -7.5479769706726074e-01</leafValues></_>
        <_>
          <internalNodes>
            0 -1 17 -1.1028590612113476e-02</internalNodes>
          <leafValues>
            3.3921736478805542e-01 -6.3237315416336060e-01</leafValues></_></weakClassifiers></_>
    <!-- stage 4 -->
    <_>
      <maxWeakCount>8</maxWeakCount>
      <stageThreshold>-8.4804046154022217e-01</stageThreshold>
      <weakClassifiers>
        <_>
          <internalNodes>
            0 -1 22 -1.2187637388706207e-01</internalNodes>
          <leafValues>
            6.5808820724487305e-01 -3.3901515603065491e-01</leafValues></_>
        <_>
          <internalNodes>
            0 -1 2 -3.7008583603892475e-05</internalNodes>
          <leafValues>
            7.7210623025894165e-01 -2.8022375702857971e-01</leafValues></_>
        <_>
          <internalNodes>
            0 -1 0 4.3130312114953995e-03</internalNodes>
          <leafValues>
            -4.0119111537933350e-01 5.4159492254257202e-01</leafValues></_>
        <_>
          <internalNodes>
            0 -1 29 2.7245743694948032e-05</internalNodes>
          <leafValues>
            -5.9551304578781128e-01 3.7240913510322571e-01</leafValues></_>
        <_>
          <internalNodes>
            0 -1 27 1.3663638383150101e-03</internalNodes>
          <leafValues>
            -3.5567799210548401e-01 6.9929182529449463e-01</leafValues></_>
        <_>
          <internalNodes>
            0 -1 10 5.0472881412133574e-05</internalNodes>
          <leafValues>
            -3.9907932281494141e-01 5.4642379283905029e-01</leafValues></_>
        <_>
          <internalNodes>
            0 -1 19 -5.5444665485993028e-04</internalNodes>
          <leafValues>
            -7.5030559301376343e-01 3.2854005694389343e-01</leafValues></_>
        <_>
          <internalNodes>
            0 -1 12 2.3549289908260107e-03</internalNodes>
          <leafValues>
            3.5954022407531738e-01 -7.0022189617156982e-01</leafValues></_></weakClassifiers></_></stages>
  <features>
    <_>
      <rects>
        <_>
          0 5 4 6 -1.</_>
        <_>
          0 7 4 2 3.</_></rects>
      <tilted>0</tilted></_>
    <_>
      <rects>
        <_>
          1 7 27 6 -1.</_>
        <_>
          10 7 9 6 3.</_></rects>
      <tilted>0</tilted></_>
    <_>
      <rects>
        <_>
          2 0 30 1 -1.</_>
        <_>
          12 0 10 1 3.</_></rects>
      <tilted>0</tilted></_>
    <_>
      <rects>
        <_>
          4 8 24 5 -1.</_>
        <_>
          12 8 8 5 3.</_></rects>
      <tilted>0</tilted></_>
    <_>
      <rects>
        <_>
          8 0 6 9 -1.</_>
        <_>
          11 0 3 9 2.</_></rects>
      <tilted>0</tilted></_>
    <_>
      <rects>
        <_>
          9 1 12 5 -1.</_>
        <_>
          13 1 4 5 3.</_></rects>
      <tilted>0</tilted></_>
    <_>
      <rects>
        <_>
          10 0 12 6 -1.</_>
        <_>
          14 0 4 6 3.</_></rects>
      <tilted>0</tilted></_>
    <_>
      <rects>
        <_>
          10 6 13 10 -1.</_>
        <_>
          10 11 13 5 2.</_></rects>
      <tilted>0</tilted></_>
    <_>
      <rects>
        <_>
          11 0 9 3 -1.</_>
        <_>
          14 0 3 3 3.</_></rects>
      <tilted>0</tilted></_>
    <_>
      <rects>
        <_>
          11 11 21 5 -1.</_>
        <_>
          18 11 7 5 3.</_></rects>
      <tilted>0</tilted></_>
    <_>
      <rects>
        <_>
          11 12 6 2 -1.</_>
        <_>
          14 12 3 2 2.</_></rects>
      <tilted>0</tilted></_>
    <_>
      <rects>
        <_>
          13 0 10 14 -1.</_>
        <_>
          13 0 5 7 2.</_>
        <_>
          18 7 5 7 2.</_></rects>
      <tilted>0</tilted></_>
    <_>
      <rects>
        <_>
          13 6 2 10 -1.</_>
        <_>
          13 6 1 5 2.</_>
        <_>
          14 11 1 5 2.</_></rects>
      <tilted>0</tilted></_>
    <_>
      <rects>
        <_>
          13 6 9 10 -1.</_>
        <_>
          13 11 9 5 2.</_></rects>
      <tilted>0</tilted></_>
    <_>
      <rects>
        <_>
          14 0 6 16 -1.</_>
        <_>
          14 0 3 8 2.</_>
        <_>
          17 8 3 8 2.</_></rects>
      <tilted>0</tilted></_>
    <_>
      <rects>
        <_>
          14 0 4 10 -1.</_>
        <_>
          14 5 4 5 2.</_></rects>
      <tilted>0</tilted></_>
    <_>
      <rects>
        <_>
          14 6 9 2 -1.</_>
        <_>
          17 6 3 2 3.</_></rects>
      <tilted>0</tilted></_>
    <_>
      <rects>
        <_>
          14 6 6 9 -1.</_>
        <_>
          17 6 3 9 2.</_></rects>
      <tilted>0</tilted></_>
    <_>
      <rects>
        <_>
          14 8 4 2 -1.</_>
        <_>
          14 8 2 1 2.</_>
        <_>
          16 9 2 1 2.</_></rects>
      <tilted>0</tilted></_>
    <_>
      <rects>
        <_>
          14 9 4 1 -1.</_>
        <_>
          16 9 2 1 2.</_></rects>
      <tilted>0</tilted></_>
    <_>
      <rects>
        <_>
          15 1 1 12 -1.</_>
        <_>
          15 5 1 4 3.</_></rects>
      <tilted>0</tilted></_>
    <_>
      <rects>
        <_>
          15 1 2 8 -1.</_>
        <_>
          15 5 2 4 2.</_></rects>
      <tilted>0</tilted></_>
    <_>
      <rects>
        <_>
          15 5 7 10 -1.</_>
        <_>
          15 10 7 5 2.</_></rects>
      <tilted>0</tilted></_>
    <_>
      <rects>
        <_>
          15 6 7 10 -1.</_>
        <_>
          15 11 7 5 2.</_></rects>
      <tilted>0</tilted></_>
    <_>
      <rects>
        <_>
          15 7 9 8 -1.</_>
        <_>
          18 7 3 8 3.</_></rects>
      <tilted>0</tilted></_>
    <_>
      <rects>
        <_>
          16 6 6 2 -1.</_>
        <_>
          18 6 2 2 3.</_></rects>
      <tilted>0</tilted></_>
    <_>
      <rects>
        <_>
          16 7 3 1 -1.</_>
        <_>
          17 7 1 1 3.</_></rects>
      <tilted>0</tilted></_>
    <_>
      <rects>
        <_>
          17 6 1 3 -1.</_>
        <_>
          17 7 1 1 3.</_></rects>
      <tilted>0</tilted></_>
    <_>
      <rects>
        <_>
          17 8 3 8 -1.</_>
        <_>
          17 12 3 4 2.</_></rects>
      <tilted>0</tilted></_>
    <_>
      <rects>
        <_>
          18 6 4 1 -1.</_>
        <_>
          20 6 2 1 2.</_></rects>
      <tilted>0</tilted></_>
    <_>
      <rects>
        <_>
          20 4 3 12 -1.</_>
        <_>
          20 10 3 6 2.</_></rects>
      <tilted>0</tilted></_>
    <_>
      <rects>
        <_>
          25 3 2 3 -1.</_>
        <_>
          26 3 1 3 2.</_></rects>
      <tilted>0</tilted></_>
    <_>
      <rects>
        <_>
          28 4 4 8 -1.</_>
        <_>
          30 4 2 8 2.</_></rects>
      <tilted>0</tilted></_></features></cascade>
</opencv_storage>
