<?xml version="1.0"?>
<opencv_storage>
<stage1>
  <maxWeakCount>6</maxWeakCount>
  <stageThreshold>-1.1958167552947998e+00</stageThreshold>
  <weakClassifiers>
    <_>
      <internalNodes>
        0 -1 111653 -5.5623307824134827e-02</internalNodes>
      <leafValues>
        5.5331087112426758e-01 -6.9534558057785034e-01</leafValues></_>
    <_>
      <internalNodes>
        0 -1 62868 -1.4562441036105156e-02</internalNodes>
      <leafValues>
        4.1979035735130310e-01 -7.3027181625366211e-01</leafValues></_>
    <_>
      <internalNodes>
        0 -1 87812 6.7171320319175720e-02</internalNodes>
      <leafValues>
        -6.0291922092437744e-01 4.6559616923332214e-01</leafValues></_>
    <_>
      <internalNodes>
        0 -1 126917 -5.1224988419562578e-04</internalNodes>
      <leafValues>
        3.7022426724433899e-01 -7.1522396802902222e-01</leafValues></_>
    <_>
      <internalNodes>
        0 -1 35377 1.9284723326563835e-02</internalNodes>
      <leafValues>
        -8.1181669235229492e-01 2.5664940476417542e-01</leafValues></_>
    <_>
      <internalNodes>
        0 -1 94963 2.0544384606182575e-03</internalNodes>
      <leafValues>
        2.0584613084793091e-01 -7.9143589735031128e-01</leafValues></_></weakClassifiers></stage1>
</opencv_storage>
