<?xml version="1.0"?>
<opencv_storage>
<stage4>
  <maxWeakCount>8</maxWeakCount>
  <stageThreshold>-8.4804046154022217e-01</stageThreshold>
  <weakClassifiers>
    <_>
      <internalNodes>
        0 -1 94469 -1.2187637388706207e-01</internalNodes>
      <leafValues>
        6.5808820724487305e-01 -3.3901515603065491e-01</leafValues></_>
    <_>
      <internalNodes>
        0 -1 15951 -3.7008583603892475e-05</internalNodes>
      <leafValues>
        7.7210623025894165e-01 -2.8022375702857971e-01</leafValues></_>
    <_>
      <internalNodes>
        0 -1 4269 4.3130312114953995e-03</internalNodes>
      <leafValues>
        -4.0119111537933350e-01 5.4159492254257202e-01</leafValues></_>
    <_>
      <internalNodes>
        0 -1 105845 2.7245743694948032e-05</internalNodes>
      <leafValues>
        -5.9551304578781128e-01 3.7240913510322571e-01</leafValues></_>
    <_>
      <internalNodes>
        0 -1 102320 1.3663638383150101e-03</internalNodes>
      <leafValues>
        -3.5567799210548401e-01 6.9929182529449463e-01</leafValues></_>
    <_>
      <internalNodes>
        0 -1 77839 5.0472881412133574e-05</internalNodes>
      <leafValues>
        -3.9907932281494141e-01 5.4642379283905029e-01</leafValues></_>
    <_>
      <internalNodes>
        0 -1 91272 -5.5444665485993028e-04</internalNodes>
      <leafValues>
        -7.5030559301376343e-01 3.2854005694389343e-01</leafValues></_>
    <_>
      <internalNodes>
        0 -1 85844 2.3549289908260107e-03</internalNodes>
      <leafValues>
        3.5954022407531738e-01 -7.0022189617156982e-01</leafValues></_></weakClassifiers></stage4>
</opencv_storage>
