<?xml version="1.0"?>
<opencv_storage>
<cascade>
  <stageType>BOOST</stageType>
  <featureType>HAAR</featureType>
  <height>16</height>
  <width>32</width>
  <stageParams>
    <boostType>GAB</boostType>
    <minHitRate>9.9500000476837158e-01</minHitRate>
    <maxFalseAlarm>5.0000000000000000e-01</maxFalseAlarm>
    <weightTrimRate>9.4999999999999996e-01</weightTrimRate>
    <maxDepth>1</maxDepth>
    <maxWeakCount>100</maxWeakCount></stageParams>
  <featureParams>
    <maxCatCount>0</maxCatCount>
    <featSize>1</featSize>
    <mode>BASIC</mode></featureParams>
  <stageNum>5</stageNum>
  <stages>
    <!-- stage 0 -->
    <_>
      <maxWeakCount>2</maxWeakCount>
      <stageThreshold>-4.3189203739166260e-01</stageThreshold>
      <weakClassifiers>
        <_>
          <internalNodes>
            0 -1 5 1.1901727318763733e-01</internalNodes>
          <leafValues>
            -9.2913383245468140e-01 8.4486871957778931e-01</leafValues></_>
        <_>
          <internalNodes>
            0 -1 3 9.2131257057189941e-02</internalNodes>
          <leafValues>
            -9.4141817092895508e-01 4.9724182486534119e-01</leafValues></_></weakClassifiers></_>
    <!-- stage 1 -->
    <_>
      <maxWeakCount>3</maxWeakCount>
      <stageThreshold>-8.4606140851974487e-01</stageThreshold>
      <weakClassifiers>
        <_>
          <internalNodes>
            0 -1 4 2.0427992939949036e-01</internalNodes>
          <leafValues>
            -7.6706826686859131e-01 6.7174679040908813e-01</leafValues></_>
        <_>
          <internalNodes>
            0 -1 19 -7.1326957549899817e-04</internalNodes>
          <leafValues>
            4.8233813047409058e-01 -7.1348899602890015e-01</leafValues></_>
        <_>
          <internalNodes>
            0 -1 10 -2.7213767170906067e-01</internalNodes>
          <leafValues>
            6.3449585437774658e-01 -5.4785221815109253e-01</leafValues></_></weakClassifiers></_>
    <!-- stage 2 -->
    <_>
      <maxWeakCount>4</maxWeakCount>
      <stageThreshold>-1.2506588697433472e+00</stageThreshold>
      <weakClassifiers>
        <_>
          <internalNodes>
            0 -1 1 2.6277971267700195e-01</internalNodes>
          <leafValues>
            -6.4945650100708008e-01 5.5324071645736694e-01</leafValues></_>
        <_>
          <internalNodes>
            0 -1 18 2.1478928101714700e-04</internalNodes>
          <leafValues>
            -6.1060982942581177e-01 5.7807707786560059e-01</leafValues></_>
        <_>
          <internalNodes>
            0 -1 0 2.4954485893249512e-01</internalNodes>
          <leafValues>
            -6.3773334026336670e-01 4.4087266921997070e-01</leafValues></_>
        <_>
          <internalNodes>
            0 -1 15 8.3499151514843106e-04</internalNodes>
          <leafValues>
            -5.8188396692276001e-01 6.4714086055755615e-01</leafValues></_></weakClassifiers></_>
    <!-- stage 3 -->
    <_>
      <maxWeakCount>7</maxWeakCount>
      <stageThreshold>-1.5841730833053589e+00</stageThreshold>
      <weakClassifiers>
        <_>
          <internalNodes>
            0 -1 11 -2.1101962029933929e-01</internalNodes>
          <leafValues>
            6.6158115863800049e-01 -5.4266214370727539e-01</leafValues></_>
        <_>
          <internalNodes>
            0 -1 17 1.1788096744567156e-03</internalNodes>
          <leafValues>
            -7.3644047975540161e-01 4.7977688908576965e-01</leafValues></_>
        <_>
          <internalNodes>
            0 -1 13 -7.6880463166162372e-04</internalNodes>
          <leafValues>
            5.3446936607360840e-01 -5.4418140649795532e-01</leafValues></_>
        <_>
          <internalNodes>
            0 -1 2 1.4972700178623199e-01</internalNodes>
          <leafValues>
            -6.5971738100051880e-01 5.0789380073547363e-01</leafValues></_>
        <_>
          <internalNodes>
            0 -1 8 -4.9550305120646954e-03</internalNodes>
          <leafValues>
            4.1994500160217285e-01 -6.6845709085464478e-01</leafValues></_>
        <_>
          <internalNodes>
            0 -1 6 3.3650809200480580e-04</internalNodes>
          <leafValues>
            -4.4040620326995850e-01 7.3838096857070923e-01</leafValues></_>
        <_>
          <internalNodes>
            0 -1 7 -3.1859520822763443e-04</internalNodes>
          <leafValues>
            9.0426927804946899e-01 -2.9692786931991577e-01</leafValues></_></weakClassifiers></_>
    <!-- stage 4 -->
    <_>
      <maxWeakCount>5</maxWeakCount>
      <stageThreshold>-5.7492256164550781e-01</stageThreshold>
      <weakClassifiers>
        <_>
          <internalNodes>
            0 -1 14 -1.8415440572425723e-03</internalNodes>
          <leafValues>
            8.1001728773117065e-01 -4.5935356616973877e-01</leafValues></_>
        <_>
          <internalNodes>
            0 -1 12 -6.6299162805080414e-02</internalNodes>
          <leafValues>
            7.4817144870758057e-01 -4.8184466361999512e-01</leafValues></_>
        <_>
          <internalNodes>
            0 -1 9 3.5560740798246115e-05</internalNodes>
          <leafValues>
            6.6315770149230957e-01 -5.7208591699600220e-01</leafValues></_>
        <_>
          <internalNodes>
            0 -1 20 -6.4739462686702609e-05</internalNodes>
          <leafValues>
            3.7048050761222839e-01 -9.0146148204803467e-01</leafValues></_>
        <_>
          <internalNodes>
            0 -1 16 1.5471849474124610e-04</internalNodes>
          <leafValues>
            -5.9158563613891602e-01 6.0457944869995117e-01</leafValues></_></weakClassifiers></_></stages>
  <features>
    <_>
      <rects>
        <_>
          0 1 16 15 -1.</_>
        <_>
          8 1 8 15 2.</_></rects>
      <tilted>0</tilted></_>
    <_>
      <rects>
        <_>
          0 4 20 10 -1.</_>
        <_>
          10 4 10 10 2.</_></rects>
      <tilted>0</tilted></_>
    <_>
      <rects>
        <_>
          0 7 22 8 -1.</_>
        <_>
          11 7 11 8 2.</_></rects>
      <tilted>0</tilted></_>
    <_>
      <rects>
        <_>
          1 3 14 7 -1.</_>
        <_>
          8 3 7 7 2.</_></rects>
      <tilted>0</tilted></_>
    <_>
      <rects>
        <_>
          1 4 16 12 -1.</_>
        <_>
          9 4 8 12 2.</_></rects>
      <tilted>0</tilted></_>
    <_>
      <rects>
        <_>
          1 5 16 7 -1.</_>
        <_>
          9 5 8 7 2.</_></rects>
      <tilted>0</tilted></_>
    <_>
      <rects>
        <_>
          5 0 2 4 -1.</_>
        <_>
          6 0 1 4 2.</_></rects>
      <tilted>0</tilted></_>
    <_>
      <rects>
        <_>
          8 15 16 1 -1.</_>
        <_>
          16 15 8 1 2.</_></rects>
      <tilted>0</tilted></_>
    <_>
      <rects>
        <_>
          10 6 16 6 -1.</_>
        <_>
          10 9 16 3 2.</_></rects>
      <tilted>0</tilted></_>
    <_>
      <rects>
        <_>
          13 0 3 3 -1.</_>
        <_>
          14 0 1 3 3.</_></rects>
      <tilted>0</tilted></_>
    <_>
      <rects>
        <_>
          14 1 18 11 -1.</_>
        <_>
          23 1 9 11 2.</_></rects>
      <tilted>0</tilted></_>
    <_>
      <rects>
        <_>
          14 4 18 7 -1.</_>
        <_>
          23 4 9 7 2.</_></rects>
      <tilted>0</tilted></_>
    <_>
      <rects>
        <_>
          14 5 18 2 -1.</_>
        <_>
          23 5 9 2 2.</_></rects>
      <tilted>0</tilted></_>
    <_>
      <rects>
        <_>
          14 7 2 1 -1.</_>
        <_>
          15 7 1 1 2.</_></rects>
      <tilted>0</tilted></_>
    <_>
      <rects>
        <_>
          14 7 3 2 -1.</_>
        <_>
          15 7 1 2 3.</_></rects>
      <tilted>0</tilted></_>
    <_>
      <rects>
        <_>
          14 7 4 2 -1.</_>
        <_>
          14 7 2 1 2.</_>
        <_>
          16 8 2 1 2.</_></rects>
      <tilted>0</tilted></_>
    <_>
      <rects>
        <_>
          14 8 4 2 -1.</_>
        <_>
          14 9 4 1 2.</_></rects>
      <tilted>0</tilted></_>
    <_>
      <rects>
        <_>
          15 9 6 1 -1.</_>
        <_>
          17 9 2 1 3.</_></rects>
      <tilted>0</tilted></_>
    <_>
      <rects>
        <_>
          16 8 2 2 -1.</_>
        <_>
          16 9 2 1 2.</_></rects>
      <tilted>0</tilted></_>
    <_>
      <rects>
        <_>
          16 8 4 2 -1.</_>
        <_>
          16 8 2 1 2.</_>
        <_>
          18 9 2 1 2.</_></rects>
      <tilted>0</tilted></_>
    <_>
      <rects>
        <_>
          21 6 8 2 -1.</_>
        <_>
          25 6 4 2 2.</_></rects>
      <tilted>0</tilted></_></features></cascade>
</opencv_storage>
