<?xml version="1.0"?>
<opencv_storage>
<stage4>
  <maxWeakCount>5</maxWeakCount>
  <stageThreshold>-5.7492256164550781e-01</stageThreshold>
  <weakClassifiers>
    <_>
      <internalNodes>
        0 -1 90696 -1.8415440572425723e-03</internalNodes>
      <leafValues>
        8.1001728773117065e-01 -4.5935356616973877e-01</leafValues></_>
    <_>
      <internalNodes>
        0 -1 90258 -6.6299162805080414e-02</internalNodes>
      <leafValues>
        7.4817144870758057e-01 -4.8184466361999512e-01</leafValues></_>
    <_>
      <internalNodes>
        0 -1 83052 3.5560740798246115e-05</internalNodes>
      <leafValues>
        6.6315770149230957e-01 -5.7208591699600220e-01</leafValues></_>
    <_>
      <internalNodes>
        0 -1 114890 -6.4739462686702609e-05</internalNodes>
      <leafValues>
        3.7048050761222839e-01 -9.0146148204803467e-01</leafValues></_>
    <_>
      <internalNodes>
        0 -1 91065 1.5471849474124610e-04</internalNodes>
      <leafValues>
        -5.9158563613891602e-01 6.0457944869995117e-01</leafValues></_></weakClassifiers></stage4>
</opencv_storage>
