<?xml version="1.0"?>
<opencv_storage>
<cascade>
  <stageType>BOOST</stageType>
  <featureType>HAAR</featureType>
  <height>16</height>
  <width>32</width>
  <stageParams>
    <boostType>GAB</boostType>
    <minHitRate>9.9500000476837158e-01</minHitRate>
    <maxFalseAlarm>5.0000000000000000e-01</maxFalseAlarm>
    <weightTrimRate>9.4999999999999996e-01</weightTrimRate>
    <maxDepth>1</maxDepth>
    <maxWeakCount>100</maxWeakCount></stageParams>
  <featureParams>
    <maxCatCount>0</maxCatCount>
    <featSize>1</featSize>
    <mode>BASIC</mode></featureParams>
  <stageNum>5</stageNum>
  <stages>
    <!-- stage 0 -->
    <_>
      <maxWeakCount>5</maxWeakCount>
      <stageThreshold>-1.3961219787597656e+00</stageThreshold>
      <weakClassifiers>
        <_>
          <internalNodes>
            0 -1 1 1.2359985709190369e-01</internalNodes>
          <leafValues>
            -6.5588617324829102e-01 6.1305922269821167e-01</leafValues></_>
        <_>
          <internalNodes>
            0 -1 13 1.8749810755252838e-02</internalNodes>
          <leafValues>
            -6.0909312963485718e-01 4.6108460426330566e-01</leafValues></_>
        <_>
          <internalNodes>
            0 -1 16 -5.0364546477794647e-02</internalNodes>
          <leafValues>
            4.6058574318885803e-01 -4.3877395987510681e-01</leafValues></_>
        <_>
          <internalNodes>
            0 -1 39 1.0101746302098036e-03</internalNodes>
          <leafValues>
            2.7309510111808777e-01 -5.2988570928573608e-01</leafValues></_>
        <_>
          <internalNodes>
            0 -1 47 6.1893067322671413e-04</internalNodes>
          <leafValues>
            -4.3142837285995483e-01 3.6614003777503967e-01</leafValues></_></weakClassifiers></_>
    <!-- stage 1 -->
    <_>
      <maxWeakCount>8</maxWeakCount>
      <stageThreshold>-1.1079518795013428e+00</stageThreshold>
      <weakClassifiers>
        <_>
          <internalNodes>
            0 -1 3 2.0968362689018250e-01</internalNodes>
          <leafValues>
            -4.0923738479614258e-01 5.6950670480728149e-01</leafValues></_>
        <_>
          <internalNodes>
            0 -1 29 -4.6842884272336960e-02</internalNodes>
          <leafValues>
            3.1822592020034790e-01 -6.3180631399154663e-01</leafValues></_>
        <_>
          <internalNodes>
            0 -1 5 1.8522184342145920e-02</internalNodes>
          <leafValues>
            -4.7504454851150513e-01 3.8376855850219727e-01</leafValues></_>
        <_>
          <internalNodes>
            0 -1 46 1.8824898870661855e-03</internalNodes>
          <leafValues>
            -3.1531962752342224e-01 3.6115747690200806e-01</leafValues></_>
        <_>
          <internalNodes>
            0 -1 8 2.8466364368796349e-02</internalNodes>
          <leafValues>
            -7.4659746885299683e-01 1.6369761526584625e-01</leafValues></_>
        <_>
          <internalNodes>
            0 -1 32 3.3377276267856359e-03</internalNodes>
          <leafValues>
            -2.4729979038238525e-01 4.2741453647613525e-01</leafValues></_>
        <_>
          <internalNodes>
            0 -1 2 -7.3266252875328064e-02</internalNodes>
          <leafValues>
            7.1991878747940063e-01 -1.5752282738685608e-01</leafValues></_>
        <_>
          <internalNodes>
            0 -1 45 -1.6261901706457138e-02</internalNodes>
          <leafValues>
            1.3862131536006927e-01 -6.9346266984939575e-01</leafValues></_></weakClassifiers></_>
    <!-- stage 2 -->
    <_>
      <maxWeakCount>12</maxWeakCount>
      <stageThreshold>-1.2311364412307739e+00</stageThreshold>
      <weakClassifiers>
        <_>
          <internalNodes>
            0 -1 7 -2.0848632630077191e-05</internalNodes>
          <leafValues>
            2.2962963581085205e-01 -7.2467529773712158e-01</leafValues></_>
        <_>
          <internalNodes>
            0 -1 40 7.1721905842423439e-03</internalNodes>
          <leafValues>
            -5.0916367769241333e-01 2.7648594975471497e-01</leafValues></_>
        <_>
          <internalNodes>
            0 -1 15 -3.5760894417762756e-02</internalNodes>
          <leafValues>
            1.8858043849468231e-01 -7.4857199192047119e-01</leafValues></_>
        <_>
          <internalNodes>
            0 -1 25 -2.8327370062470436e-02</internalNodes>
          <leafValues>
            3.8747686147689819e-01 -2.7503621578216553e-01</leafValues></_>
        <_>
          <internalNodes>
            0 -1 9 4.2824655771255493e-02</internalNodes>
          <leafValues>
            -3.6120226979255676e-01 3.3448180556297302e-01</leafValues></_>
        <_>
          <internalNodes>
            0 -1 50 5.9684375301003456e-03</internalNodes>
          <leafValues>
            1.3202501833438873e-01 -6.5949141979217529e-01</leafValues></_>
        <_>
          <internalNodes>
            0 -1 19 -7.9114153981208801e-02</internalNodes>
          <leafValues>
            4.6035882830619812e-01 -2.4371741712093353e-01</leafValues></_>
        <_>
          <internalNodes>
            0 -1 26 2.9743425548076630e-03</internalNodes>
          <leafValues>
            -1.6422018408775330e-01 6.5574401617050171e-01</leafValues></_>
        <_>
          <internalNodes>
            0 -1 38 -1.6483613580930978e-04</internalNodes>
          <leafValues>
            1.8435886502265930e-01 -5.0946038961410522e-01</leafValues></_>
        <_>
          <internalNodes>
            0 -1 42 -2.1348819136619568e-03</internalNodes>
          <leafValues>
            3.8411256670951843e-01 -2.4570900201797485e-01</leafValues></_>
        <_>
          <internalNodes>
            0 -1 4 -1.3084314763545990e-02</internalNodes>
          <leafValues>
            -7.0123076438903809e-01 1.0719516873359680e-01</leafValues></_>
        <_>
          <internalNodes>
            0 -1 21 5.6916661560535431e-03</internalNodes>
          <leafValues>
            -1.4140082895755768e-01 6.2060171365737915e-01</leafValues></_></weakClassifiers></_>
    <!-- stage 3 -->
    <_>
      <maxWeakCount>15</maxWeakCount>
      <stageThreshold>-9.7930651903152466e-01</stageThreshold>
      <weakClassifiers>
        <_>
          <internalNodes>
            0 -1 10 9.8398700356483459e-02</internalNodes>
          <leafValues>
            -3.2600733637809753e-01 3.4186938405036926e-01</leafValues></_>
        <_>
          <internalNodes>
            0 -1 48 1.3256879174150527e-04</internalNodes>
          <leafValues>
            -3.8391533493995667e-01 3.2906538248062134e-01</leafValues></_>
        <_>
          <internalNodes>
            0 -1 0 3.1534257531166077e-01</internalNodes>
          <leafValues>
            1.1541641503572464e-01 -8.6200326681137085e-01</leafValues></_>
        <_>
          <internalNodes>
            0 -1 33 1.8283888697624207e-01</internalNodes>
          <leafValues>
            2.0488515496253967e-01 -7.0833957195281982e-01</leafValues></_>
        <_>
          <internalNodes>
            0 -1 49 5.1594801334431395e-05</internalNodes>
          <leafValues>
            -2.2425962984561920e-01 5.1165091991424561e-01</leafValues></_>
        <_>
          <internalNodes>
            0 -1 27 -7.3899708688259125e-02</internalNodes>
          <leafValues>
            8.0574363470077515e-01 -1.2985764443874359e-01</leafValues></_>
        <_>
          <internalNodes>
            0 -1 53 -1.0982728563249111e-03</internalNodes>
          <leafValues>
            -6.3876026868820190e-01 1.2880133092403412e-01</leafValues></_>
        <_>
          <internalNodes>
            0 -1 52 7.3539661243557930e-03</internalNodes>
          <leafValues>
            1.2991964817047119e-01 -7.9235589504241943e-01</leafValues></_>
        <_>
          <internalNodes>
            0 -1 17 -3.4976196475327015e-03</internalNodes>
          <leafValues>
            6.1801689863204956e-01 -1.7908063530921936e-01</leafValues></_>
        <_>
          <internalNodes>
            0 -1 12 2.2896602749824524e-02</internalNodes>
          <leafValues>
            -4.3989157676696777e-01 2.3744644224643707e-01</leafValues></_>
        <_>
          <internalNodes>
            0 -1 54 -7.8366473317146301e-03</internalNodes>
          <leafValues>
            -5.6897938251495361e-01 1.4838083088397980e-01</leafValues></_>
        <_>
          <internalNodes>
            0 -1 51 4.0952628478407860e-03</internalNodes>
          <leafValues>
            1.7903894186019897e-01 -4.6372845768928528e-01</leafValues></_>
        <_>
          <internalNodes>
            0 -1 44 -2.0229825749993324e-03</internalNodes>
          <leafValues>
            2.9610243439674377e-01 -3.3083018660545349e-01</leafValues></_>
        <_>
          <internalNodes>
            0 -1 6 -1.0675497353076935e-02</internalNodes>
          <leafValues>
            -7.7341496944427490e-01 1.0206902772188187e-01</leafValues></_>
        <_>
          <internalNodes>
            0 -1 11 9.1392919421195984e-03</internalNodes>
          <leafValues>
            1.1645208299160004e-01 -7.4803423881530762e-01</leafValues></_></weakClassifiers></_>
    <!-- stage 4 -->
    <_>
      <maxWeakCount>16</maxWeakCount>
      <stageThreshold>-1.2897861003875732e+00</stageThreshold>
      <weakClassifiers>
        <_>
          <internalNodes>
            0 -1 37 1.2719845399260521e-03</internalNodes>
          <leafValues>
            -5.9813082218170166e-01 2.1843002736568451e-01</leafValues></_>
        <_>
          <internalNodes>
            0 -1 22 4.4513237662613392e-04</internalNodes>
          <leafValues>
            -2.2408883273601532e-01 5.6494140625000000e-01</leafValues></_>
        <_>
          <internalNodes>
            0 -1 36 -2.2237133234739304e-02</internalNodes>
          <leafValues>
            8.3011102676391602e-01 -1.3821637630462646e-01</leafValues></_>
        <_>
          <internalNodes>
            0 -1 23 1.1333797592669725e-03</internalNodes>
          <leafValues>
            -1.8264262378215790e-01 6.2079870700836182e-01</leafValues></_>
        <_>
          <internalNodes>
            0 -1 30 -4.0008742362260818e-03</internalNodes>
          <leafValues>
            5.7905077934265137e-01 -2.3257151246070862e-01</leafValues></_>
        <_>
          <internalNodes>
            0 -1 41 -8.3179362118244171e-03</internalNodes>
          <leafValues>
            -7.9102641344070435e-01 2.1285027265548706e-01</leafValues></_>
        <_>
          <internalNodes>
            0 -1 24 2.0270338281989098e-03</internalNodes>
          <leafValues>
            -1.9179533421993256e-01 7.5197219848632812e-01</leafValues></_>
        <_>
          <internalNodes>
            0 -1 18 -5.1780320703983307e-02</internalNodes>
          <leafValues>
            3.1603646278381348e-01 -5.0723123550415039e-01</leafValues></_>
        <_>
          <internalNodes>
            0 -1 20 6.4130395185202360e-04</internalNodes>
          <leafValues>
            -2.4745449423789978e-01 5.6552928686141968e-01</leafValues></_>
        <_>
          <internalNodes>
            0 -1 28 5.0693131051957607e-03</internalNodes>
          <leafValues>
            -1.1422510445117950e-01 8.3148932456970215e-01</leafValues></_>
        <_>
          <internalNodes>
            0 -1 34 1.8321676179766655e-03</internalNodes>
          <leafValues>
            -1.4032958447933197e-01 9.3384402990341187e-01</leafValues></_>
        <_>
          <internalNodes>
            0 -1 14 1.1366991326212883e-02</internalNodes>
          <leafValues>
            -4.2480167746543884e-01 3.0623936653137207e-01</leafValues></_>
        <_>
          <internalNodes>
            0 -1 55 -2.9923436231911182e-03</internalNodes>
          <leafValues>
            -3.5137292742729187e-01 3.7615168094635010e-01</leafValues></_>
        <_>
          <internalNodes>
            0 -1 31 -5.5543989874422550e-03</internalNodes>
          <leafValues>
            8.2989120483398438e-01 -1.5992900729179382e-01</leafValues></_>
        <_>
          <internalNodes>
            0 -1 43 1.7353722359985113e-03</internalNodes>
          <leafValues>
            -2.0771138370037079e-01 5.2606099843978882e-01</leafValues></_>
        <_>
          <internalNodes>
            0 -1 35 4.5409082667902112e-04</internalNodes>
          <leafValues>
            -2.0071031153202057e-01 5.9173816442489624e-01</leafValues></_></weakClassifiers></_></stages>
  <features>
    <_>
      <rects>
        <_>
          0 0 28 10 -1.</_>
        <_>
          0 5 28 5 2.</_></rects>
      <tilted>0</tilted></_>
    <_>
      <rects>
        <_>
          0 1 10 14 -1.</_>
        <_>
          5 1 5 14 2.</_></rects>
      <tilted>0</tilted></_>
    <_>
      <rects>
        <_>
          0 3 28 12 -1.</_>
        <_>
          14 3 14 12 2.</_></rects>
      <tilted>0</tilted></_>
    <_>
      <rects>
        <_>
          0 4 18 10 -1.</_>
        <_>
          6 4 6 10 3.</_></rects>
      <tilted>0</tilted></_>
    <_>
      <rects>
        <_>
          0 4 8 9 -1.</_>
        <_>
          0 7 8 3 3.</_></rects>
      <tilted>0</tilted></_>
    <_>
      <rects>
        <_>
          0 7 20 8 -1.</_>
        <_>
          0 7 10 4 2.</_>
        <_>
          10 11 10 4 2.</_></rects>
      <tilted>0</tilted></_>
    <_>
      <rects>
        <_>
          0 7 11 3 -1.</_>
        <_>
          0 8 11 1 3.</_></rects>
      <tilted>0</tilted></_>
    <_>
      <rects>
        <_>
          0 8 6 6 -1.</_>
        <_>
          0 11 6 3 2.</_></rects>
      <tilted>0</tilted></_>
    <_>
      <rects>
        <_>
          0 10 12 5 -1.</_>
        <_>
          6 10 6 5 2.</_></rects>
      <tilted>0</tilted></_>
    <_>
      <rects>
        <_>
          0 11 16 5 -1.</_>
        <_>
          8 11 8 5 2.</_></rects>
      <tilted>0</tilted></_>
    <_>
      <rects>
        <_>
          1 5 8 10 -1.</_>
        <_>
          5 5 4 10 2.</_></rects>
      <tilted>0</tilted></_>
    <_>
      <rects>
        <_>
          1 7 10 2 -1.</_>
        <_>
          1 7 5 1 2.</_>
        <_>
          6 8 5 1 2.</_></rects>
      <tilted>0</tilted></_>
    <_>
      <rects>
        <_>
          2 10 8 6 -1.</_>
        <_>
          6 10 4 6 2.</_></rects>
      <tilted>0</tilted></_>
    <_>
      <rects>
        <_>
          2 11 10 5 -1.</_>
        <_>
          7 11 5 5 2.</_></rects>
      <tilted>0</tilted></_>
    <_>
      <rects>
        <_>
          3 11 6 5 -1.</_>
        <_>
          6 11 3 5 2.</_></rects>
      <tilted>0</tilted></_>
    <_>
      <rects>
        <_>
          4 3 28 8 -1.</_>
        <_>
          18 3 14 8 2.</_></rects>
      <tilted>0</tilted></_>
    <_>
      <rects>
        <_>
          4 4 26 4 -1.</_>
        <_>
          17 4 13 4 2.</_></rects>
      <tilted>0</tilted></_>
    <_>
      <rects>
        <_>
          5 0 2 13 -1.</_>
        <_>
          6 0 1 13 2.</_></rects>
      <tilted>0</tilted></_>
    <_>
      <rects>
        <_>
          5 4 24 8 -1.</_>
        <_>
          17 4 12 8 2.</_></rects>
      <tilted>0</tilted></_>
    <_>
      <rects>
        <_>
          6 4 14 12 -1.</_>
        <_>
          13 4 7 12 2.</_></rects>
      <tilted>0</tilted></_>
    <_>
      <rects>
        <_>
          7 7 1 2 -1.</_>
        <_>
          7 8 1 1 2.</_></rects>
      <tilted>0</tilted></_>
    <_>
      <rects>
        <_>
          7 10 3 6 -1.</_>
        <_>
          8 10 1 6 3.</_></rects>
      <tilted>0</tilted></_>
    <_>
      <rects>
        <_>
          8 3 2 2 -1.</_>
        <_>
          8 3 1 1 2.</_>
        <_>
          9 4 1 1 2.</_></rects>
      <tilted>0</tilted></_>
    <_>
      <rects>
        <_>
          8 7 2 4 -1.</_>
        <_>
          8 7 1 2 2.</_>
        <_>
          9 9 1 2 2.</_></rects>
      <tilted>0</tilted></_>
    <_>
      <rects>
        <_>
          8 7 6 1 -1.</_>
        <_>
          11 7 3 1 2.</_></rects>
      <tilted>0</tilted></_>
    <_>
      <rects>
        <_>
          8 7 6 8 -1.</_>
        <_>
          11 7 3 8 2.</_></rects>
      <tilted>0</tilted></_>
    <_>
      <rects>
        <_>
          8 9 6 1 -1.</_>
        <_>
          11 9 3 1 2.</_></rects>
      <tilted>0</tilted></_>
    <_>
      <rects>
        <_>
          9 2 8 14 -1.</_>
        <_>
          13 2 4 14 2.</_></rects>
      <tilted>0</tilted></_>
    <_>
      <rects>
        <_>
          9 2 18 2 -1.</_>
        <_>
          9 2 9 1 2.</_>
        <_>
          18 3 9 1 2.</_></rects>
      <tilted>0</tilted></_>
    <_>
      <rects>
        <_>
          9 2 22 6 -1.</_>
        <_>
          20 2 11 6 2.</_></rects>
      <tilted>0</tilted></_>
    <_>
      <rects>
        <_>
          10 2 3 12 -1.</_>
        <_>
          11 2 1 12 3.</_></rects>
      <tilted>0</tilted></_>
    <_>
      <rects>
        <_>
          10 9 4 1 -1.</_>
        <_>
          12 9 2 1 2.</_></rects>
      <tilted>0</tilted></_>
    <_>
      <rects>
        <_>
          11 0 6 4 -1.</_>
        <_>
          14 0 3 4 2.</_></rects>
      <tilted>0</tilted></_>
    <_>
      <rects>
        <_>
          11 3 21 6 -1.</_>
        <_>
          18 3 7 6 3.</_></rects>
      <tilted>0</tilted></_>
    <_>
      <rects>
        <_>
          11 6 4 1 -1.</_>
        <_>
          13 6 2 1 2.</_></rects>
      <tilted>0</tilted></_>
    <_>
      <rects>
        <_>
          11 7 2 2 -1.</_>
        <_>
          11 7 1 1 2.</_>
        <_>
          12 8 1 1 2.</_></rects>
      <tilted>0</tilted></_>
    <_>
      <rects>
        <_>
          12 1 10 12 -1.</_>
        <_>
          12 7 10 6 2.</_></rects>
      <tilted>0</tilted></_>
    <_>
      <rects>
        <_>
          13 3 8 8 -1.</_>
        <_>
          13 3 4 4 2.</_>
        <_>
          17 7 4 4 2.</_></rects>
      <tilted>0</tilted></_>
    <_>
      <rects>
        <_>
          14 2 1 14 -1.</_>
        <_>
          14 9 1 7 2.</_></rects>
      <tilted>0</tilted></_>
    <_>
      <rects>
        <_>
          14 2 2 10 -1.</_>
        <_>
          14 7 2 5 2.</_></rects>
      <tilted>0</tilted></_>
    <_>
      <rects>
        <_>
          15 3 6 8 -1.</_>
        <_>
          15 3 3 4 2.</_>
        <_>
          18 7 3 4 2.</_></rects>
      <tilted>0</tilted></_>
    <_>
      <rects>
        <_>
          17 4 6 3 -1.</_>
        <_>
          19 4 2 3 3.</_></rects>
      <tilted>0</tilted></_>
    <_>
      <rects>
        <_>
          17 7 3 4 -1.</_>
        <_>
          18 7 1 4 3.</_></rects>
      <tilted>0</tilted></_>
    <_>
      <rects>
        <_>
          18 3 2 12 -1.</_>
        <_>
          18 3 1 6 2.</_>
        <_>
          19 9 1 6 2.</_></rects>
      <tilted>0</tilted></_>
    <_>
      <rects>
        <_>
          18 5 6 10 -1.</_>
        <_>
          18 5 3 5 2.</_>
        <_>
          21 10 3 5 2.</_></rects>
      <tilted>0</tilted></_>
    <_>
      <rects>
        <_>
          18 9 12 7 -1.</_>
        <_>
          24 9 6 7 2.</_></rects>
      <tilted>0</tilted></_>
    <_>
      <rects>
        <_>
          19 7 3 8 -1.</_>
        <_>
          20 7 1 8 3.</_></rects>
      <tilted>0</tilted></_>
    <_>
      <rects>
        <_>
          19 8 3 3 -1.</_>
        <_>
          20 8 1 3 3.</_></rects>
      <tilted>0</tilted></_>
    <_>
      <rects>
        <_>
          19 9 3 1 -1.</_>
        <_>
          20 9 1 1 3.</_></rects>
      <tilted>0</tilted></_>
    <_>
      <rects>
        <_>
          20 0 9 2 -1.</_>
        <_>
          23 0 3 2 3.</_></rects>
      <tilted>0</tilted></_>
    <_>
      <rects>
        <_>
          20 1 2 12 -1.</_>
        <_>
          21 1 1 12 2.</_></rects>
      <tilted>0</tilted></_>
    <_>
      <rects>
        <_>
          20 1 4 9 -1.</_>
        <_>
          22 1 2 9 2.</_></rects>
      <tilted>0</tilted></_>
    <_>
      <rects>
        <_>
          20 4 2 12 -1.</_>
        <_>
          21 4 1 12 2.</_></rects>
      <tilted>0</tilted></_>
    <_>
      <rects>
        <_>
          21 4 3 2 -1.</_>
        <_>
          22 4 1 2 3.</_></rects>
      <tilted>0</tilted></_>
    <_>
      <rects>
        <_>
          22 4 6 3 -1.</_>
        <_>
          24 4 2 3 3.</_></rects>
      <tilted>0</tilted></_>
    <_>
      <rects>
        <_>
          22 11 6 3 -1.</_>
        <_>
          24 11 2 3 3.</_></rects>
      <tilted>0</tilted></_></features></cascade>
</opencv_storage>
