<?xml version="1.0"?>
<opencv_storage>
<cascade>
  <stageType>BOOST</stageType>
  <featureType>HAAR</featureType>
  <height>16</height>
  <width>32</width>
  <stageParams>
    <boostType>GAB</boostType>
    <minHitRate>9.9800002574920654e-01</minHitRate>
    <maxFalseAlarm>5.0000000000000000e-01</maxFalseAlarm>
    <weightTrimRate>9.3999999761581421e-01</weightTrimRate>
    <maxDepth>1</maxDepth>
    <maxWeakCount>100</maxWeakCount></stageParams>
  <featureParams>
    <maxCatCount>0</maxCatCount>
    <featSize>1</featSize>
    <mode>BASIC</mode></featureParams>
  <stageNum>2</stageNum>
  <stages>
    <!-- stage 0 -->
    <_>
      <maxWeakCount>3</maxWeakCount>
      <stageThreshold>-1.3663005828857422e+00</stageThreshold>
      <weakClassifiers>
        <_>
          <internalNodes>
            0 -1 2 2.3582473397254944e-01</internalNodes>
          <leafValues>
            -9.8986828327178955e-01 8.8498401641845703e-01</leafValues></_>
        <_>
          <internalNodes>
            0 -1 1 1.8071100115776062e-01</internalNodes>
          <leafValues>
            -9.3123829364776611e-01 7.9319536685943604e-01</leafValues></_>
        <_>
          <internalNodes>
            0 -1 5 -1.7992272973060608e-01</internalNodes>
          <leafValues>
            5.5480605363845825e-01 -9.9305009841918945e-01</leafValues></_></weakClassifiers></_>
    <!-- stage 1 -->
    <_>
      <maxWeakCount>3</maxWeakCount>
      <stageThreshold>-1.2038058042526245e+00</stageThreshold>
      <weakClassifiers>
        <_>
          <internalNodes>
            0 -1 0 2.5754272937774658e-01</internalNodes>
          <leafValues>
            -9.1820836067199707e-01 8.9010989665985107e-01</leafValues></_>
        <_>
          <internalNodes>
            0 -1 3 -2.3031332530081272e-03</internalNodes>
          <leafValues>
            7.0306485891342163e-01 -9.6901750564575195e-01</leafValues></_>
        <_>
          <internalNodes>
            0 -1 4 -1.3170009478926659e-03</internalNodes>
          <leafValues>
            6.8342000246047974e-01 -9.3515849113464355e-01</leafValues></_></weakClassifiers></_></stages>
  <features>
    <_>
      <rects>
        <_>
          0 0 14 15 -1.</_>
        <_>
          7 0 7 15 2.</_></rects>
      <tilted>0</tilted></_>
    <_>
      <rects>
        <_>
          0 3 14 7 -1.</_>
        <_>
          7 3 7 7 2.</_></rects>
      <tilted>0</tilted></_>
    <_>
      <rects>
        <_>
          0 3 14 12 -1.</_>
        <_>
          7 3 7 12 2.</_></rects>
      <tilted>0</tilted></_>
    <_>
      <rects>
        <_>
          11 9 6 1 -1.</_>
        <_>
          14 9 3 1 2.</_></rects>
      <tilted>0</tilted></_>
    <_>
      <rects>
        <_>
          13 9 6 1 -1.</_>
        <_>
          15 9 2 1 3.</_></rects>
      <tilted>0</tilted></_>
    <_>
      <rects>
        <_>
          20 5 12 10 -1.</_>
        <_>
          26 5 6 10 2.</_></rects>
      <tilted>0</tilted></_></features></cascade>
</opencv_storage>
