<?xml version="1.0"?>
<opencv_storage>
<cascade>
  <stageType>BOOST</stageType>
  <featureType>HAAR</featureType>
  <height>16</height>
  <width>32</width>
  <stageParams>
    <boostType>GAB</boostType>
    <minHitRate>9.9500000476837158e-01</minHitRate>
    <maxFalseAlarm>5.0000000000000000e-01</maxFalseAlarm>
    <weightTrimRate>9.4999998807907104e-01</weightTrimRate>
    <maxDepth>1</maxDepth>
    <maxWeakCount>100</maxWeakCount></stageParams>
  <featureParams>
    <maxCatCount>0</maxCatCount>
    <featSize>1</featSize>
    <mode>BASIC</mode></featureParams>
  <stageNum>1</stageNum>
  <stages>
    <!-- stage 0 -->
    <_>
      <maxWeakCount>3</maxWeakCount>
      <stageThreshold>-1.0406006574630737e+00</stageThreshold>
      <weakClassifiers>
        <_>
          <internalNodes>
            0 -1 0 1.6563507914543152e-01</internalNodes>
          <leafValues>
            -9.2737978696823120e-01 8.0110496282577515e-01</leafValues></_>
        <_>
          <internalNodes>
            0 -1 1 1.9333556294441223e-02</internalNodes>
          <leafValues>
            -9.5897233486175537e-01 6.8791836500167847e-01</leafValues></_>
        <_>
          <internalNodes>
            0 -1 2 2.3747510276734829e-03</internalNodes>
          <leafValues>
            -8.0113923549652100e-01 9.2910295724868774e-01</leafValues></_></weakClassifiers></_></stages>
  <features>
    <_>
      <rects>
        <_>
          0 0 12 10 -1.</_>
        <_>
          6 0 6 10 2.</_></rects>
      <tilted>0</tilted></_>
    <_>
      <rects>
        <_>
          0 7 18 2 -1.</_>
        <_>
          0 7 9 1 2.</_>
        <_>
          9 8 9 1 2.</_></rects>
      <tilted>0</tilted></_>
    <_>
      <rects>
        <_>
          0 13 18 2 -1.</_>
        <_>
          9 13 9 2 2.</_></rects>
      <tilted>0</tilted></_></features></cascade>
</opencv_storage>
