<?xml version="1.0"?>
<opencv_storage>
<cascade>
  <stageType>BOOST</stageType>
  <featureType>HAAR</featureType>
  <height>16</height>
  <width>32</width>
  <stageParams>
    <boostType>GAB</boostType>
    <minHitRate>9.9800002574920654e-01</minHitRate>
    <maxFalseAlarm>5.0000000000000000e-01</maxFalseAlarm>
    <weightTrimRate>9.3999999761581421e-01</weightTrimRate>
    <maxDepth>1</maxDepth>
    <maxWeakCount>100</maxWeakCount></stageParams>
  <featureParams>
    <maxCatCount>0</maxCatCount>
    <featSize>1</featSize>
    <mode>BASIC</mode></featureParams>
  <stageNum>3</stageNum>
  <stages>
    <!-- stage 0 -->
    <_>
      <maxWeakCount>2</maxWeakCount>
      <stageThreshold>-3.7046465277671814e-01</stageThreshold>
      <weakClassifiers>
        <_>
          <internalNodes>
            0 -1 2 2.8733704239130020e-02</internalNodes>
          <leafValues>
            -9.8319327831268311e-01 6.7816090583801270e-01</leafValues></_>
        <_>
          <internalNodes>
            0 -1 3 -9.1338261961936951e-02</internalNodes>
          <leafValues>
            6.1272865533828735e-01 -9.5563513040542603e-01</leafValues></_></weakClassifiers></_>
    <!-- stage 1 -->
    <_>
      <maxWeakCount>4</maxWeakCount>
      <stageThreshold>-1.8572645187377930e+00</stageThreshold>
      <weakClassifiers>
        <_>
          <internalNodes>
            0 -1 6 -1.9282122957520187e-04</internalNodes>
          <leafValues>
            1. -8.4842884540557861e-01</leafValues></_>
        <_>
          <internalNodes>
            0 -1 8 -1.4049725141376257e-03</internalNodes>
          <leafValues>
            6.7700940370559692e-01 -7.7238261699676514e-01</leafValues></_>
        <_>
          <internalNodes>
            0 -1 0 1.4903725683689117e-01</internalNodes>
          <leafValues>
            -8.6986762285232544e-01 5.4340499639511108e-01</leafValues></_>
        <_>
          <internalNodes>
            0 -1 5 2.6004638057202101e-03</internalNodes>
          <leafValues>
            -9.5410722494125366e-01 6.3341462612152100e-01</leafValues></_></weakClassifiers></_>
    <!-- stage 2 -->
    <_>
      <maxWeakCount>3</maxWeakCount>
      <stageThreshold>-8.2615214586257935e-01</stageThreshold>
      <weakClassifiers>
        <_>
          <internalNodes>
            0 -1 1 9.6199348568916321e-02</internalNodes>
          <leafValues>
            -9.4082838296890259e-01 8.8811188936233521e-01</leafValues></_>
        <_>
          <internalNodes>
            0 -1 4 -2.8864922933280468e-04</internalNodes>
          <leafValues>
            8.5764485597610474e-01 -8.8532370328903198e-01</leafValues></_>
        <_>
          <internalNodes>
            0 -1 7 -2.1069936454296112e-02</internalNodes>
          <leafValues>
            1. -7.3066258430480957e-01</leafValues></_></weakClassifiers></_></stages>
  <features>
    <_>
      <rects>
        <_>
          0 0 12 10 -1.</_>
        <_>
          6 0 6 10 2.</_></rects>
      <tilted>0</tilted></_>
    <_>
      <rects>
        <_>
          0 6 12 5 -1.</_>
        <_>
          6 6 6 5 2.</_></rects>
      <tilted>0</tilted></_>
    <_>
      <rects>
        <_>
          0 8 14 1 -1.</_>
        <_>
          7 8 7 1 2.</_></rects>
      <tilted>0</tilted></_>
    <_>
      <rects>
        <_>
          8 3 18 5 -1.</_>
        <_>
          14 3 6 5 3.</_></rects>
      <tilted>0</tilted></_>
    <_>
      <rects>
        <_>
          12 6 4 1 -1.</_>
        <_>
          14 6 2 1 2.</_></rects>
      <tilted>0</tilted></_>
    <_>
      <rects>
        <_>
          16 7 1 2 -1.</_>
        <_>
          16 8 1 1 2.</_></rects>
      <tilted>0</tilted></_>
    <_>
      <rects>
        <_>
          17 13 4 2 -1.</_>
        <_>
          17 14 4 1 2.</_></rects>
      <tilted>0</tilted></_>
    <_>
      <rects>
        <_>
          24 9 8 3 -1.</_>
        <_>
          28 9 4 3 2.</_></rects>
      <tilted>0</tilted></_>
    <_>
      <rects>
        <_>
          27 2 4 11 -1.</_>
        <_>
          29 2 2 11 2.</_></rects>
      <tilted>0</tilted></_></features></cascade>
</opencv_storage>
