<?xml version="1.0"?>
<opencv_storage>
<cascade>
  <stageType>BOOST</stageType>
  <featureType>HAAR</featureType>
  <height>16</height>
  <width>32</width>
  <stageParams>
    <boostType>GAB</boostType>
    <minHitRate>9.9800002574920654e-01</minHitRate>
    <maxFalseAlarm>5.0000000000000000e-01</maxFalseAlarm>
    <weightTrimRate>9.3999999761581421e-01</weightTrimRate>
    <maxDepth>1</maxDepth>
    <maxWeakCount>100</maxWeakCount></stageParams>
  <featureParams>
    <maxCatCount>0</maxCatCount>
    <featSize>1</featSize>
    <mode>BASIC</mode></featureParams>
  <stageNum>1</stageNum>
  <stages>
    <!-- stage 0 -->
    <_>
      <maxWeakCount>3</maxWeakCount>
      <stageThreshold>-9.0962451696395874e-01</stageThreshold>
      <weakClassifiers>
        <_>
          <internalNodes>
            0 -1 1 1.6806429624557495e-01</internalNodes>
          <leafValues>
            -9.7987926006317139e-01 8.9542484283447266e-01</leafValues></_>
        <_>
          <internalNodes>
            0 -1 0 8.3708140300586820e-04</internalNodes>
          <leafValues>
            -8.7449556589126587e-01 9.0899884700775146e-01</leafValues></_>
        <_>
          <internalNodes>
            0 -1 2 -1.2168213725090027e-03</internalNodes>
          <leafValues>
            9.4475030899047852e-01 -8.6638110876083374e-01</leafValues></_></weakClassifiers></_></stages>
  <features>
    <_>
      <rects>
        <_>
          0 0 2 14 -1.</_>
        <_>
          1 0 1 14 2.</_></rects>
      <tilted>0</tilted></_>
    <_>
      <rects>
        <_>
          12 0 9 10 -1.</_>
        <_>
          12 5 9 5 2.</_></rects>
      <tilted>0</tilted></_>
    <_>
      <rects>
        <_>
          15 13 10 2 -1.</_>
        <_>
          20 13 5 2 2.</_></rects>
      <tilted>0</tilted></_></features></cascade>
</opencv_storage>
