<?xml version="1.0"?>
<opencv_storage>
<cascade>
  <stageType>BOOST</stageType>
  <featureType>HAAR</featureType>
  <height>16</height>
  <width>32</width>
  <stageParams>
    <boostType>GAB</boostType>
    <minHitRate>9.9500000476837158e-01</minHitRate>
    <maxFalseAlarm>5.0000000000000000e-01</maxFalseAlarm>
    <weightTrimRate>9.4999999999999996e-01</weightTrimRate>
    <maxDepth>1</maxDepth>
    <maxWeakCount>100</maxWeakCount></stageParams>
  <featureParams>
    <maxCatCount>0</maxCatCount>
    <featSize>1</featSize>
    <mode>BASIC</mode></featureParams>
  <stageNum>5</stageNum>
  <stages>
    <!-- stage 0 -->
    <_>
      <maxWeakCount>5</maxWeakCount>
      <stageThreshold>-1.0461579561233521e+00</stageThreshold>
      <weakClassifiers>
        <_>
          <internalNodes>
            0 -1 31 -2.7657493948936462e-02</internalNodes>
          <leafValues>
            5.8251368999481201e-01 -7.7810221910476685e-01</leafValues></_>
        <_>
          <internalNodes>
            0 -1 14 1.7013806104660034e-01</internalNodes>
          <leafValues>
            -8.1721609830856323e-01 4.2243862152099609e-01</leafValues></_>
        <_>
          <internalNodes>
            0 -1 16 3.0086375772953033e-02</internalNodes>
          <leafValues>
            -6.3025724887847900e-01 4.5122379064559937e-01</leafValues></_>
        <_>
          <internalNodes>
            0 -1 2 -3.8382003549486399e-04</internalNodes>
          <leafValues>
            8.0769377946853638e-01 -3.5891214013099670e-01</leafValues></_>
        <_>
          <internalNodes>
            0 -1 33 6.9834790192544460e-03</internalNodes>
          <leafValues>
            -7.2646981477737427e-01 4.5684865117073059e-01</leafValues></_></weakClassifiers></_>
    <!-- stage 1 -->
    <_>
      <maxWeakCount>6</maxWeakCount>
      <stageThreshold>-8.0291169881820679e-01</stageThreshold>
      <weakClassifiers>
        <_>
          <internalNodes>
            0 -1 17 1.1836692690849304e-01</internalNodes>
          <leafValues>
            -7.1965813636779785e-01 4.1477832198143005e-01</leafValues></_>
        <_>
          <internalNodes>
            0 -1 13 3.4500300535000861e-04</internalNodes>
          <leafValues>
            -7.4557691812515259e-01 3.5160893201828003e-01</leafValues></_>
        <_>
          <internalNodes>
            0 -1 0 -3.7163562956266105e-04</internalNodes>
          <leafValues>
            6.6231131553649902e-01 -4.0611612796783447e-01</leafValues></_>
        <_>
          <internalNodes>
            0 -1 30 1.0239272378385067e-03</internalNodes>
          <leafValues>
            -5.5585110187530518e-01 5.0267988443374634e-01</leafValues></_>
        <_>
          <internalNodes>
            0 -1 15 2.1237310767173767e-01</internalNodes>
          <leafValues>
            -7.6285684108734131e-01 3.0255943536758423e-01</leafValues></_>
        <_>
          <internalNodes>
            0 -1 18 -5.8610213454812765e-04</internalNodes>
          <leafValues>
            2.6320019364356995e-01 -7.2124558687210083e-01</leafValues></_></weakClassifiers></_>
    <!-- stage 2 -->
    <_>
      <maxWeakCount>8</maxWeakCount>
      <stageThreshold>-1.5901873111724854e+00</stageThreshold>
      <weakClassifiers>
        <_>
          <internalNodes>
            0 -1 10 2.5852221995592117e-02</internalNodes>
          <leafValues>
            -6.3714283704757690e-01 4.9555554986000061e-01</leafValues></_>
        <_>
          <internalNodes>
            0 -1 6 -1.6180516686290503e-03</internalNodes>
          <leafValues>
            5.9730106592178345e-01 -4.2568776011466980e-01</leafValues></_>
        <_>
          <internalNodes>
            0 -1 21 3.4438513685017824e-03</internalNodes>
          <leafValues>
            -4.7143045067787170e-01 4.3055242300033569e-01</leafValues></_>
        <_>
          <internalNodes>
            0 -1 34 -3.4248025622218847e-04</internalNodes>
          <leafValues>
            3.4535413980484009e-01 -6.3807141780853271e-01</leafValues></_>
        <_>
          <internalNodes>
            0 -1 26 1.4326276723295450e-03</internalNodes>
          <leafValues>
            -7.4803382158279419e-01 2.5973975658416748e-01</leafValues></_>
        <_>
          <internalNodes>
            0 -1 5 6.4034895040094852e-03</internalNodes>
          <leafValues>
            -7.5061720609664917e-01 2.2315679490566254e-01</leafValues></_>
        <_>
          <internalNodes>
            0 -1 4 -4.2069103801622987e-04</internalNodes>
          <leafValues>
            9.6271926164627075e-01 -2.3142595589160919e-01</leafValues></_>
        <_>
          <internalNodes>
            0 -1 25 1.9476909074001014e-04</internalNodes>
          <leafValues>
            -7.7646404504776001e-01 3.2102304697036743e-01</leafValues></_></weakClassifiers></_>
    <!-- stage 3 -->
    <_>
      <maxWeakCount>9</maxWeakCount>
      <stageThreshold>-1.3114346265792847e+00</stageThreshold>
      <weakClassifiers>
        <_>
          <internalNodes>
            0 -1 20 2.7414027601480484e-02</internalNodes>
          <leafValues>
            -4.1151386499404907e-01 5.8308154344558716e-01</leafValues></_>
        <_>
          <internalNodes>
            0 -1 3 -5.0790875684469938e-04</internalNodes>
          <leafValues>
            9.3818688392639160e-01 -2.3614819347858429e-01</leafValues></_>
        <_>
          <internalNodes>
            0 -1 12 -1.4947441220283508e-01</internalNodes>
          <leafValues>
            4.0379521250724792e-01 -5.4613721370697021e-01</leafValues></_>
        <_>
          <internalNodes>
            0 -1 11 4.8545625759288669e-04</internalNodes>
          <leafValues>
            -6.6903829574584961e-01 2.9360303282737732e-01</leafValues></_>
        <_>
          <internalNodes>
            0 -1 8 -3.3429874747525901e-05</internalNodes>
          <leafValues>
            6.0517919063568115e-01 -3.7003770470619202e-01</leafValues></_>
        <_>
          <internalNodes>
            0 -1 29 6.2986370176076889e-04</internalNodes>
          <leafValues>
            -5.8091902732849121e-01 3.9009347558021545e-01</leafValues></_>
        <_>
          <internalNodes>
            0 -1 27 -1.3688787817955017e-02</internalNodes>
          <leafValues>
            4.5511361956596375e-01 -4.0923509001731873e-01</leafValues></_>
        <_>
          <internalNodes>
            0 -1 19 1.6477569937705994e-01</internalNodes>
          <leafValues>
            -4.7035539150238037e-01 4.3993270397186279e-01</leafValues></_>
        <_>
          <internalNodes>
            0 -1 23 6.6802883520722389e-04</internalNodes>
          <leafValues>
            -4.4091171026229858e-01 3.8948374986648560e-01</leafValues></_></weakClassifiers></_>
    <!-- stage 4 -->
    <_>
      <maxWeakCount>7</maxWeakCount>
      <stageThreshold>-6.4638012647628784e-01</stageThreshold>
      <weakClassifiers>
        <_>
          <internalNodes>
            0 -1 28 -1.8236991018056870e-02</internalNodes>
          <leafValues>
            8.6324787139892578e-01 -3.5689046978950500e-01</leafValues></_>
        <_>
          <internalNodes>
            0 -1 7 -4.2009190656244755e-04</internalNodes>
          <leafValues>
            1. -1.9795916974544525e-01</leafValues></_>
        <_>
          <internalNodes>
            0 -1 32 -9.6454547019675374e-05</internalNodes>
          <leafValues>
            4.4525751471519470e-01 -5.1870608329772949e-01</leafValues></_>
        <_>
          <internalNodes>
            0 -1 24 1.2445494532585144e-02</internalNodes>
          <leafValues>
            -5.5133384466171265e-01 4.4356542825698853e-01</leafValues></_>
        <_>
          <internalNodes>
            0 -1 9 3.5331002436578274e-04</internalNodes>
          <leafValues>
            -7.0538085699081421e-01 3.8416725397109985e-01</leafValues></_>
        <_>
          <internalNodes>
            0 -1 22 1.0930506978183985e-03</internalNodes>
          <leafValues>
            -5.1925271749496460e-01 5.0272178649902344e-01</leafValues></_>
        <_>
          <internalNodes>
            0 -1 1 7.3883481323719025e-02</internalNodes>
          <leafValues>
            2.5249919295310974e-01 -8.4526801109313965e-01</leafValues></_></weakClassifiers></_></stages>
  <features>
    <_>
      <rects>
        <_>
          1 14 30 2 -1.</_>
        <_>
          11 14 10 2 3.</_></rects>
      <tilted>0</tilted></_>
    <_>
      <rects>
        <_>
          2 0 20 7 -1.</_>
        <_>
          12 0 10 7 2.</_></rects>
      <tilted>0</tilted></_>
    <_>
      <rects>
        <_>
          2 14 27 2 -1.</_>
        <_>
          11 14 9 2 3.</_></rects>
      <tilted>0</tilted></_>
    <_>
      <rects>
        <_>
          2 15 27 1 -1.</_>
        <_>
          11 15 9 1 3.</_></rects>
      <tilted>0</tilted></_>
    <_>
      <rects>
        <_>
          2 15 30 1 -1.</_>
        <_>
          12 15 10 1 3.</_></rects>
      <tilted>0</tilted></_>
    <_>
      <rects>
        <_>
          3 0 27 9 -1.</_>
        <_>
          12 0 9 9 3.</_></rects>
      <tilted>0</tilted></_>
    <_>
      <rects>
        <_>
          3 13 24 3 -1.</_>
        <_>
          11 13 8 3 3.</_></rects>
      <tilted>0</tilted></_>
    <_>
      <rects>
        <_>
          3 15 27 1 -1.</_>
        <_>
          12 15 9 1 3.</_></rects>
      <tilted>0</tilted></_>
    <_>
      <rects>
        <_>
          4 0 10 6 -1.</_>
        <_>
          9 0 5 6 2.</_></rects>
      <tilted>0</tilted></_>
    <_>
      <rects>
        <_>
          6 1 14 4 -1.</_>
        <_>
          13 1 7 4 2.</_></rects>
      <tilted>0</tilted></_>
    <_>
      <rects>
        <_>
          6 2 20 11 -1.</_>
        <_>
          16 2 10 11 2.</_></rects>
      <tilted>0</tilted></_>
    <_>
      <rects>
        <_>
          7 1 14 4 -1.</_>
        <_>
          14 1 7 4 2.</_></rects>
      <tilted>0</tilted></_>
    <_>
      <rects>
        <_>
          7 8 13 8 -1.</_>
        <_>
          7 12 13 4 2.</_></rects>
      <tilted>0</tilted></_>
    <_>
      <rects>
        <_>
          9 0 12 5 -1.</_>
        <_>
          15 0 6 5 2.</_></rects>
      <tilted>0</tilted></_>
    <_>
      <rects>
        <_>
          11 0 13 10 -1.</_>
        <_>
          11 5 13 5 2.</_></rects>
      <tilted>0</tilted></_>
    <_>
      <rects>
        <_>
          11 0 21 10 -1.</_>
        <_>
          11 5 21 5 2.</_></rects>
      <tilted>0</tilted></_>
    <_>
      <rects>
        <_>
          11 1 15 7 -1.</_>
        <_>
          16 1 5 7 3.</_></rects>
      <tilted>0</tilted></_>
    <_>
      <rects>
        <_>
          12 4 8 12 -1.</_>
        <_>
          12 8 8 4 3.</_></rects>
      <tilted>0</tilted></_>
    <_>
      <rects>
        <_>
          12 11 12 5 -1.</_>
        <_>
          16 11 4 5 3.</_></rects>
      <tilted>0</tilted></_>
    <_>
      <rects>
        <_>
          13 0 11 10 -1.</_>
        <_>
          13 5 11 5 2.</_></rects>
      <tilted>0</tilted></_>
    <_>
      <rects>
        <_>
          13 4 9 4 -1.</_>
        <_>
          16 4 3 4 3.</_></rects>
      <tilted>0</tilted></_>
    <_>
      <rects>
        <_>
          13 6 2 4 -1.</_>
        <_>
          13 8 2 2 2.</_></rects>
      <tilted>0</tilted></_>
    <_>
      <rects>
        <_>
          13 7 2 2 -1.</_>
        <_>
          13 8 2 1 2.</_></rects>
      <tilted>0</tilted></_>
    <_>
      <rects>
        <_>
          14 7 2 2 -1.</_>
        <_>
          14 8 2 1 2.</_></rects>
      <tilted>0</tilted></_>
    <_>
      <rects>
        <_>
          15 6 6 6 -1.</_>
        <_>
          17 6 2 6 3.</_></rects>
      <tilted>0</tilted></_>
    <_>
      <rects>
        <_>
          15 6 5 2 -1.</_>
        <_>
          15 7 5 1 2.</_></rects>
      <tilted>0</tilted></_>
    <_>
      <rects>
        <_>
          15 7 4 3 -1.</_>
        <_>
          17 7 2 3 2.</_></rects>
      <tilted>0</tilted></_>
    <_>
      <rects>
        <_>
          16 0 12 10 -1.</_>
        <_>
          20 0 4 10 3.</_></rects>
      <tilted>0</tilted></_>
    <_>
      <rects>
        <_>
          16 3 12 4 -1.</_>
        <_>
          20 3 4 4 3.</_></rects>
      <tilted>0</tilted></_>
    <_>
      <rects>
        <_>
          16 5 2 4 -1.</_>
        <_>
          16 5 1 2 2.</_>
        <_>
          17 7 1 2 2.</_></rects>
      <tilted>0</tilted></_>
    <_>
      <rects>
        <_>
          16 7 2 1 -1.</_>
        <_>
          17 7 1 1 2.</_></rects>
      <tilted>0</tilted></_>
    <_>
      <rects>
        <_>
          17 8 2 8 -1.</_>
        <_>
          17 12 2 4 2.</_></rects>
      <tilted>0</tilted></_>
    <_>
      <rects>
        <_>
          18 9 1 2 -1.</_>
        <_>
          18 10 1 1 2.</_></rects>
      <tilted>0</tilted></_>
    <_>
      <rects>
        <_>
          27 0 5 12 -1.</_>
        <_>
          27 6 5 6 2.</_></rects>
      <tilted>0</tilted></_>
    <_>
      <rects>
        <_>
          28 6 3 10 -1.</_>
        <_>
          28 11 3 5 2.</_></rects>
      <tilted>0</tilted></_></features></cascade>
</opencv_storage>
