<?xml version="1.0"?>
<opencv_storage>
<cascade>
  <stageType>BOOST</stageType>
  <featureType>HAAR</featureType>
  <height>16</height>
  <width>32</width>
  <stageParams>
    <boostType>GAB</boostType>
    <minHitRate>9.9800002574920654e-01</minHitRate>
    <maxFalseAlarm>5.0000000000000000e-01</maxFalseAlarm>
    <weightTrimRate>9.3999999761581421e-01</weightTrimRate>
    <maxDepth>1</maxDepth>
    <maxWeakCount>100</maxWeakCount></stageParams>
  <featureParams>
    <maxCatCount>0</maxCatCount>
    <featSize>1</featSize>
    <mode>BASIC</mode></featureParams>
  <stageNum>2</stageNum>
  <stages>
    <!-- stage 0 -->
    <_>
      <maxWeakCount>2</maxWeakCount>
      <stageThreshold>-3.9362785220146179e-01</stageThreshold>
      <weakClassifiers>
        <_>
          <internalNodes>
            0 -1 2 -1.7038199305534363e-01</internalNodes>
          <leafValues>
            8.5669779777526855e-01 -9.9591422080993652e-01</leafValues></_>
        <_>
          <internalNodes>
            0 -1 3 -1.7229834198951721e-01</internalNodes>
          <leafValues>
            6.0228633880615234e-01 -9.7593587636947632e-01</leafValues></_></weakClassifiers></_>
    <!-- stage 1 -->
    <_>
      <maxWeakCount>4</maxWeakCount>
      <stageThreshold>-1.5827194452285767e+00</stageThreshold>
      <weakClassifiers>
        <_>
          <internalNodes>
            0 -1 0 -1.1041883844882250e-03</internalNodes>
          <leafValues>
            1. -8.9573460817337036e-01</leafValues></_>
        <_>
          <internalNodes>
            0 -1 1 -6.2993057072162628e-03</internalNodes>
          <leafValues>
            7.6445120573043823e-01 -7.5601691007614136e-01</leafValues></_>
        <_>
          <internalNodes>
            0 -1 4 1.2483116239309311e-02</internalNodes>
          <leafValues>
            7.2601103782653809e-01 -8.0185878276824951e-01</leafValues></_>
        <_>
          <internalNodes>
            0 -1 5 -3.1815217807888985e-03</internalNodes>
          <leafValues>
            9.4766604900360107e-01 -6.4957731962203979e-01</leafValues></_></weakClassifiers></_></stages>
  <features>
    <_>
      <rects>
        <_>
          6 13 24 2 -1.</_>
        <_>
          14 13 8 2 3.</_></rects>
      <tilted>0</tilted></_>
    <_>
      <rects>
        <_>
          7 8 22 2 -1.</_>
        <_>
          7 8 11 1 2.</_>
        <_>
          18 9 11 1 2.</_></rects>
      <tilted>0</tilted></_>
    <_>
      <rects>
        <_>
          8 0 18 15 -1.</_>
        <_>
          17 0 9 15 2.</_></rects>
      <tilted>0</tilted></_>
    <_>
      <rects>
        <_>
          13 0 15 14 -1.</_>
        <_>
          18 0 5 14 3.</_></rects>
      <tilted>0</tilted></_>
    <_>
      <rects>
        <_>
          15 5 4 4 -1.</_>
        <_>
          15 7 4 2 2.</_></rects>
      <tilted>0</tilted></_>
    <_>
      <rects>
        <_>
          17 9 7 4 -1.</_>
        <_>
          17 11 7 2 2.</_></rects>
      <tilted>0</tilted></_></features></cascade>
</opencv_storage>
