<?xml version="1.0"?>
<opencv_storage>
<cascade>
  <stageType>BOOST</stageType>
  <featureType>HAAR</featureType>
  <height>16</height>
  <width>32</width>
  <stageParams>
    <boostType>GAB</boostType>
    <minHitRate>9.9500000476837158e-01</minHitRate>
    <maxFalseAlarm>5.0000000000000000e-01</maxFalseAlarm>
    <weightTrimRate>9.4999999999999996e-01</weightTrimRate>
    <maxDepth>1</maxDepth>
    <maxWeakCount>100</maxWeakCount></stageParams>
  <featureParams>
    <maxCatCount>0</maxCatCount>
    <featSize>1</featSize>
    <mode>BASIC</mode></featureParams>
  <stageNum>4</stageNum>
  <stages>
    <!-- stage 0 -->
    <_>
      <maxWeakCount>2</maxWeakCount>
      <stageThreshold>-2.9674360156059265e-01</stageThreshold>
      <weakClassifiers>
        <_>
          <internalNodes>
            0 -1 2 1.2497681379318237e-01</internalNodes>
          <leafValues>
            -8.7105625867843628e-01 7.2904706001281738e-01</leafValues></_>
        <_>
          <internalNodes>
            0 -1 3 2.0142704248428345e-01</internalNodes>
          <leafValues>
            -8.4438657760620117e-01 5.7431262731552124e-01</leafValues></_></weakClassifiers></_>
    <!-- stage 1 -->
    <_>
      <maxWeakCount>5</maxWeakCount>
      <stageThreshold>-9.5693743228912354e-01</stageThreshold>
      <weakClassifiers>
        <_>
          <internalNodes>
            0 -1 0 1.6158372163772583e-01</internalNodes>
          <leafValues>
            -6.5736043453216553e-01 6.3793104887008667e-01</leafValues></_>
        <_>
          <internalNodes>
            0 -1 11 7.5709907105192542e-04</internalNodes>
          <leafValues>
            -6.9068002700805664e-01 6.0549819469451904e-01</leafValues></_>
        <_>
          <internalNodes>
            0 -1 10 -2.0774228870868683e-01</internalNodes>
          <leafValues>
            5.9809440374374390e-01 -6.3141137361526489e-01</leafValues></_>
        <_>
          <internalNodes>
            0 -1 9 1.5856185927987099e-03</internalNodes>
          <leafValues>
            -7.7242374420166016e-01 4.8525676131248474e-01</leafValues></_>
        <_>
          <internalNodes>
            0 -1 15 -2.2056898102164268e-02</internalNodes>
          <leafValues>
            5.3725761175155640e-01 -5.3965991735458374e-01</leafValues></_></weakClassifiers></_>
    <!-- stage 2 -->
    <_>
      <maxWeakCount>5</maxWeakCount>
      <stageThreshold>-9.8149251937866211e-01</stageThreshold>
      <weakClassifiers>
        <_>
          <internalNodes>
            0 -1 13 1.8318400252610445e-03</internalNodes>
          <leafValues>
            -7.2714078426361084e-01 5.4994511604309082e-01</leafValues></_>
        <_>
          <internalNodes>
            0 -1 6 -1.2195836752653122e-03</internalNodes>
          <leafValues>
            8.1749445199966431e-01 -4.7758096456527710e-01</leafValues></_>
        <_>
          <internalNodes>
            0 -1 5 -7.6760977506637573e-02</internalNodes>
          <leafValues>
            5.5748426914215088e-01 -6.3272893428802490e-01</leafValues></_>
        <_>
          <internalNodes>
            0 -1 14 -1.8082071840763092e-01</internalNodes>
          <leafValues>
            5.3543359041213989e-01 -5.2780121564865112e-01</leafValues></_>
        <_>
          <internalNodes>
            0 -1 7 5.2383530884981155e-02</internalNodes>
          <leafValues>
            -8.3307391405105591e-01 3.2052457332611084e-01</leafValues></_></weakClassifiers></_>
    <!-- stage 3 -->
    <_>
      <maxWeakCount>4</maxWeakCount>
      <stageThreshold>-1.5014787912368774e+00</stageThreshold>
      <weakClassifiers>
        <_>
          <internalNodes>
            0 -1 4 8.9442007243633270e-02</internalNodes>
          <leafValues>
            -6.4705884456634521e-01 5.9281438589096069e-01</leafValues></_>
        <_>
          <internalNodes>
            0 -1 8 -2.1010665223002434e-03</internalNodes>
          <leafValues>
            4.5460203289985657e-01 -6.7418068647384644e-01</leafValues></_>
        <_>
          <internalNodes>
            0 -1 1 1.9077828153967857e-02</internalNodes>
          <leafValues>
            -6.8964415788650513e-01 4.7052028775215149e-01</leafValues></_>
        <_>
          <internalNodes>
            0 -1 12 9.1882463311776519e-04</internalNodes>
          <leafValues>
            -6.5829187631607056e-01 5.0940495729446411e-01</leafValues></_></weakClassifiers></_></stages>
  <features>
    <_>
      <rects>
        <_>
          0 1 10 15 -1.</_>
        <_>
          5 1 5 15 2.</_></rects>
      <tilted>0</tilted></_>
    <_>
      <rects>
        <_>
          0 2 14 3 -1.</_>
        <_>
          7 2 7 3 2.</_></rects>
      <tilted>0</tilted></_>
    <_>
      <rects>
        <_>
          0 4 10 12 -1.</_>
        <_>
          5 4 5 12 2.</_></rects>
      <tilted>0</tilted></_>
    <_>
      <rects>
        <_>
          0 4 30 7 -1.</_>
        <_>
          10 4 10 7 3.</_></rects>
      <tilted>0</tilted></_>
    <_>
      <rects>
        <_>
          0 6 8 10 -1.</_>
        <_>
          4 6 4 10 2.</_></rects>
      <tilted>0</tilted></_>
    <_>
      <rects>
        <_>
          6 8 26 3 -1.</_>
        <_>
          19 8 13 3 2.</_></rects>
      <tilted>0</tilted></_>
    <_>
      <rects>
        <_>
          7 14 18 2 -1.</_>
        <_>
          13 14 6 2 3.</_></rects>
      <tilted>0</tilted></_>
    <_>
      <rects>
        <_>
          12 4 8 12 -1.</_>
        <_>
          12 8 8 4 3.</_></rects>
      <tilted>0</tilted></_>
    <_>
      <rects>
        <_>
          13 6 4 4 -1.</_>
        <_>
          13 6 2 2 2.</_>
        <_>
          15 8 2 2 2.</_></rects>
      <tilted>0</tilted></_>
    <_>
      <rects>
        <_>
          14 3 6 5 -1.</_>
        <_>
          16 3 2 5 3.</_></rects>
      <tilted>0</tilted></_>
    <_>
      <rects>
        <_>
          16 5 16 11 -1.</_>
        <_>
          24 5 8 11 2.</_></rects>
      <tilted>0</tilted></_>
    <_>
      <rects>
        <_>
          17 7 2 2 -1.</_>
        <_>
          17 7 1 1 2.</_>
        <_>
          18 8 1 1 2.</_></rects>
      <tilted>0</tilted></_>
    <_>
      <rects>
        <_>
          17 8 3 1 -1.</_>
        <_>
          18 8 1 1 3.</_></rects>
      <tilted>0</tilted></_>
    <_>
      <rects>
        <_>
          17 8 3 2 -1.</_>
        <_>
          18 8 1 2 3.</_></rects>
      <tilted>0</tilted></_>
    <_>
      <rects>
        <_>
          20 0 12 16 -1.</_>
        <_>
          26 0 6 16 2.</_></rects>
      <tilted>0</tilted></_>
    <_>
      <rects>
        <_>
          23 6 9 5 -1.</_>
        <_>
          26 6 3 5 3.</_></rects>
      <tilted>0</tilted></_></features></cascade>
</opencv_storage>
