<?xml version="1.0"?>
<opencv_storage>
<cascade>
  <stageType>BOOST</stageType>
  <featureType>HAAR</featureType>
  <height>16</height>
  <width>32</width>
  <stageParams>
    <boostType>GAB</boostType>
    <minHitRate>9.9500000476837158e-01</minHitRate>
    <maxFalseAlarm>5.0000000000000000e-01</maxFalseAlarm>
    <weightTrimRate>9.4999998807907104e-01</weightTrimRate>
    <maxDepth>1</maxDepth>
    <maxWeakCount>100</maxWeakCount></stageParams>
  <featureParams>
    <maxCatCount>0</maxCatCount>
    <featSize>1</featSize>
    <mode>BASIC</mode></featureParams>
  <stageNum>1</stageNum>
  <stages>
    <!-- stage 0 -->
    <_>
      <maxWeakCount>3</maxWeakCount>
      <stageThreshold>-1.0639241933822632e+00</stageThreshold>
      <weakClassifiers>
        <_>
          <internalNodes>
            0 -1 1 3.1632888317108154e-01</internalNodes>
          <leafValues>
            -9.6613544225692749e-01 8.6734694242477417e-01</leafValues></_>
        <_>
          <internalNodes>
            0 -1 2 -2.2828360088169575e-03</internalNodes>
          <leafValues>
            9.0383636951446533e-01 -8.6449110507965088e-01</leafValues></_>
        <_>
          <internalNodes>
            0 -1 0 1.9212843477725983e-01</internalNodes>
          <leafValues>
            -9.3178415298461914e-01 7.6670241355895996e-01</leafValues></_></weakClassifiers></_></stages>
  <features>
    <_>
      <rects>
        <_>
          4 2 13 10 -1.</_>
        <_>
          4 7 13 5 2.</_></rects>
      <tilted>0</tilted></_>
    <_>
      <rects>
        <_>
          5 0 24 16 -1.</_>
        <_>
          5 8 24 8 2.</_></rects>
      <tilted>0</tilted></_>
    <_>
      <rects>
        <_>
          16 13 15 2 -1.</_>
        <_>
          21 13 5 2 3.</_></rects>
      <tilted>0</tilted></_></features></cascade>
</opencv_storage>
