<?xml version="1.0"?>
<opencv_storage>
<cascade>
  <stageType>BOOST</stageType>
  <featureType>HAAR</featureType>
  <height>16</height>
  <width>32</width>
  <stageParams>
    <boostType>GAB</boostType>
    <minHitRate>9.9800002574920654e-01</minHitRate>
    <maxFalseAlarm>5.0000000000000000e-01</maxFalseAlarm>
    <weightTrimRate>9.3999999761581421e-01</weightTrimRate>
    <maxDepth>1</maxDepth>
    <maxWeakCount>100</maxWeakCount></stageParams>
  <featureParams>
    <maxCatCount>0</maxCatCount>
    <featSize>1</featSize>
    <mode>BASIC</mode></featureParams>
  <stageNum>2</stageNum>
  <stages>
    <!-- stage 0 -->
    <_>
      <maxWeakCount>3</maxWeakCount>
      <stageThreshold>-9.6191436052322388e-01</stageThreshold>
      <weakClassifiers>
        <_>
          <internalNodes>
            0 -1 1 3.0445903539657593e-01</internalNodes>
          <leafValues>
            -9.5617532730102539e-01 8.7837839126586914e-01</leafValues></_>
        <_>
          <internalNodes>
            0 -1 0 2.2637787461280823e-01</internalNodes>
          <leafValues>
            -8.7996822595596313e-01 7.5957757234573364e-01</leafValues></_>
        <_>
          <internalNodes>
            0 -1 5 -1.4403532259166241e-03</internalNodes>
          <leafValues>
            9.7249567508697510e-01 -7.6531660556793213e-01</leafValues></_></weakClassifiers></_>
    <!-- stage 1 -->
    <_>
      <maxWeakCount>4</maxWeakCount>
      <stageThreshold>-1.6953651905059814e+00</stageThreshold>
      <weakClassifiers>
        <_>
          <internalNodes>
            0 -1 2 -1.1703629279509187e-03</internalNodes>
          <leafValues>
            1. -8.6046510934829712e-01</leafValues></_>
        <_>
          <internalNodes>
            0 -1 4 7.3715977370738983e-02</internalNodes>
          <leafValues>
            -8.9690887928009033e-01 5.7826972007751465e-01</leafValues></_>
        <_>
          <internalNodes>
            0 -1 6 -9.6924061654135585e-04</internalNodes>
          <leafValues>
            1. -6.1009305715560913e-01</leafValues></_>
        <_>
          <internalNodes>
            0 -1 3 3.2870173454284668e-02</internalNodes>
          <leafValues>
            -7.4337172508239746e-01 6.7210185527801514e-01</leafValues></_></weakClassifiers></_></stages>
  <features>
    <_>
      <rects>
        <_>
          5 0 14 14 -1.</_>
        <_>
          5 7 14 7 2.</_></rects>
      <tilted>0</tilted></_>
    <_>
      <rects>
        <_>
          5 0 25 16 -1.</_>
        <_>
          5 8 25 8 2.</_></rects>
      <tilted>0</tilted></_>
    <_>
      <rects>
        <_>
          6 14 26 2 -1.</_>
        <_>
          6 15 26 1 2.</_></rects>
      <tilted>0</tilted></_>
    <_>
      <rects>
        <_>
          10 8 18 6 -1.</_>
        <_>
          16 8 6 6 3.</_></rects>
      <tilted>0</tilted></_>
    <_>
      <rects>
        <_>
          14 0 3 12 -1.</_>
        <_>
          14 6 3 6 2.</_></rects>
      <tilted>0</tilted></_>
    <_>
      <rects>
        <_>
          15 13 15 2 -1.</_>
        <_>
          20 13 5 2 3.</_></rects>
      <tilted>0</tilted></_>
    <_>
      <rects>
        <_>
          30 0 2 16 -1.</_>
        <_>
          31 0 1 16 2.</_></rects>
      <tilted>0</tilted></_></features></cascade>
</opencv_storage>
