<?xml version="1.0"?>
<opencv_storage>
<cascade>
  <stageType>BOOST</stageType>
  <featureType>HAAR</featureType>
  <height>16</height>
  <width>32</width>
  <stageParams>
    <boostType>GAB</boostType>
    <minHitRate>9.9800002574920654e-01</minHitRate>
    <maxFalseAlarm>5.0000000000000000e-01</maxFalseAlarm>
    <weightTrimRate>9.3999999761581421e-01</weightTrimRate>
    <maxDepth>1</maxDepth>
    <maxWeakCount>100</maxWeakCount></stageParams>
  <featureParams>
    <maxCatCount>0</maxCatCount>
    <featSize>1</featSize>
    <mode>BASIC</mode></featureParams>
  <stageNum>2</stageNum>
  <stages>
    <!-- stage 0 -->
    <_>
      <maxWeakCount>3</maxWeakCount>
      <stageThreshold>-1.1812503337860107e+00</stageThreshold>
      <weakClassifiers>
        <_>
          <internalNodes>
            0 -1 5 1.0453376919031143e-01</internalNodes>
          <leafValues>
            -9.7000002861022949e-01 8.9999997615814209e-01</leafValues></_>
        <_>
          <internalNodes>
            0 -1 4 2.6700872182846069e-01</internalNodes>
          <leafValues>
            -9.3403089046478271e-01 9.2776167392730713e-01</leafValues></_>
        <_>
          <internalNodes>
            0 -1 3 1.1166822910308838e-01</internalNodes>
          <leafValues>
            -9.8688763380050659e-01 7.2278058528900146e-01</leafValues></_></weakClassifiers></_>
    <!-- stage 1 -->
    <_>
      <maxWeakCount>4</maxWeakCount>
      <stageThreshold>-1.8567794561386108e+00</stageThreshold>
      <weakClassifiers>
        <_>
          <internalNodes>
            0 -1 6 6.2348186969757080e-02</internalNodes>
          <leafValues>
            -9.9572193622589111e-01 6.3287669420242310e-01</leafValues></_>
        <_>
          <internalNodes>
            0 -1 0 3.9190658926963806e-01</internalNodes>
          <leafValues>
            -8.5540765523910522e-01 1.</leafValues></_>
        <_>
          <internalNodes>
            0 -1 1 -7.6478558185044676e-05</internalNodes>
          <leafValues>
            1. -8.0153959989547729e-01</leafValues></_>
        <_>
          <internalNodes>
            0 -1 2 -5.6984520051628351e-04</internalNodes>
          <leafValues>
            7.9588979482650757e-01 -8.5489839315414429e-01</leafValues></_></weakClassifiers></_></stages>
  <features>
    <_>
      <rects>
        <_>
          0 0 25 10 -1.</_>
        <_>
          0 5 25 5 2.</_></rects>
      <tilted>0</tilted></_>
    <_>
      <rects>
        <_>
          2 14 27 2 -1.</_>
        <_>
          11 14 9 2 3.</_></rects>
      <tilted>0</tilted></_>
    <_>
      <rects>
        <_>
          5 11 1 4 -1.</_>
        <_>
          5 13 1 2 2.</_></rects>
      <tilted>0</tilted></_>
    <_>
      <rects>
        <_>
          14 0 6 10 -1.</_>
        <_>
          14 5 6 5 2.</_></rects>
      <tilted>0</tilted></_>
    <_>
      <rects>
        <_>
          14 0 18 10 -1.</_>
        <_>
          14 5 18 5 2.</_></rects>
      <tilted>0</tilted></_>
    <_>
      <rects>
        <_>
          14 1 5 10 -1.</_>
        <_>
          14 6 5 5 2.</_></rects>
      <tilted>0</tilted></_>
    <_>
      <rects>
        <_>
          15 2 4 10 -1.</_>
        <_>
          15 7 4 5 2.</_></rects>
      <tilted>0</tilted></_></features></cascade>
</opencv_storage>
