<?xml version="1.0"?>
<opencv_storage>
<cascade>
  <stageType>BOOST</stageType>
  <featureType>HAAR</featureType>
  <height>16</height>
  <width>32</width>
  <stageParams>
    <boostType>GAB</boostType>
    <minHitRate>9.9500000476837158e-01</minHitRate>
    <maxFalseAlarm>5.0000000000000000e-01</maxFalseAlarm>
    <weightTrimRate>9.4999999999999996e-01</weightTrimRate>
    <maxDepth>1</maxDepth>
    <maxWeakCount>100</maxWeakCount></stageParams>
  <featureParams>
    <maxCatCount>0</maxCatCount>
    <featSize>1</featSize>
    <mode>BASIC</mode></featureParams>
  <stageNum>1</stageNum>
  <stages>
    <!-- stage 0 -->
    <_>
      <maxWeakCount>2</maxWeakCount>
      <stageThreshold>2.0624188706278801e-02</stageThreshold>
      <weakClassifiers>
        <_>
          <internalNodes>
            0 -1 1 1.0175385326147079e-01</internalNodes>
          <leafValues>
            -9.6039605140686035e-01 9.7979795932769775e-01</leafValues></_>
        <_>
          <internalNodes>
            0 -1 0 2.9993671178817749e-01</internalNodes>
          <leafValues>
            -9.0223646163940430e-01 9.8102021217346191e-01</leafValues></_></weakClassifiers></_></stages>
  <features>
    <_>
      <rects>
        <_>
          7 0 18 10 -1.</_>
        <_>
          7 5 18 5 2.</_></rects>
      <tilted>0</tilted></_>
    <_>
      <rects>
        <_>
          14 1 5 10 -1.</_>
        <_>
          14 6 5 5 2.</_></rects>
      <tilted>0</tilted></_></features></cascade>
</opencv_storage>
