<?xml version="1.0"?>
<opencv_storage>
<cascade>
  <stageType>BOOST</stageType>
  <featureType>HAAR</featureType>
  <height>16</height>
  <width>32</width>
  <stageParams>
    <boostType>GAB</boostType>
    <minHitRate>9.9800002574920654e-01</minHitRate>
    <maxFalseAlarm>5.0000000000000000e-01</maxFalseAlarm>
    <weightTrimRate>9.3999999761581421e-01</weightTrimRate>
    <maxDepth>1</maxDepth>
    <maxWeakCount>100</maxWeakCount></stageParams>
  <featureParams>
    <maxCatCount>0</maxCatCount>
    <featSize>1</featSize>
    <mode>BASIC</mode></featureParams>
  <stageNum>2</stageNum>
  <stages>
    <!-- stage 0 -->
    <_>
      <maxWeakCount>3</maxWeakCount>
      <stageThreshold>-1.0033241510391235e+00</stageThreshold>
      <weakClassifiers>
        <_>
          <internalNodes>
            0 -1 4 2.5388181209564209e-01</internalNodes>
          <leafValues>
            -9.3774318695068359e-01 9.7058820724487305e-01</leafValues></_>
        <_>
          <internalNodes>
            0 -1 1 -1.3772854581475258e-03</internalNodes>
          <leafValues>
            1. -8.5892558097839355e-01</leafValues></_>
        <_>
          <internalNodes>
            0 -1 0 2.3750212788581848e-01</internalNodes>
          <leafValues>
            -9.6027696132659912e-01 7.9334461688995361e-01</leafValues></_></weakClassifiers></_>
    <!-- stage 1 -->
    <_>
      <maxWeakCount>2</maxWeakCount>
      <stageThreshold>-2.2377908229827881e-01</stageThreshold>
      <weakClassifiers>
        <_>
          <internalNodes>
            0 -1 3 -3.6911800503730774e-02</internalNodes>
          <leafValues>
            9.0545451641082764e-01 -9.2585366964340210e-01</leafValues></_>
        <_>
          <internalNodes>
            0 -1 2 -3.3061951398849487e-05</internalNodes>
          <leafValues>
            7.0207458734512329e-01 -9.9791747331619263e-01</leafValues></_></weakClassifiers></_></stages>
  <features>
    <_>
      <rects>
        <_>
          6 0 17 14 -1.</_>
        <_>
          6 7 17 7 2.</_></rects>
      <tilted>0</tilted></_>
    <_>
      <rects>
        <_>
          10 14 20 2 -1.</_>
        <_>
          10 15 20 1 2.</_></rects>
      <tilted>0</tilted></_>
    <_>
      <rects>
        <_>
          13 1 12 1 -1.</_>
        <_>
          17 1 4 1 3.</_></rects>
      <tilted>0</tilted></_>
    <_>
      <rects>
        <_>
          14 0 8 14 -1.</_>
        <_>
          18 0 4 14 2.</_></rects>
      <tilted>0</tilted></_>
    <_>
      <rects>
        <_>
          15 0 12 12 -1.</_>
        <_>
          15 6 12 6 2.</_></rects>
      <tilted>0</tilted></_></features></cascade>
</opencv_storage>
