<?xml version="1.0"?>
<opencv_storage>
<cascade>
  <stageType>BOOST</stageType>
  <featureType>HAAR</featureType>
  <height>16</height>
  <width>32</width>
  <stageParams>
    <boostType>GAB</boostType>
    <minHitRate>9.9500000476837158e-01</minHitRate>
    <maxFalseAlarm>5.0000000000000000e-01</maxFalseAlarm>
    <weightTrimRate>9.4999998807907104e-01</weightTrimRate>
    <maxDepth>1</maxDepth>
    <maxWeakCount>100</maxWeakCount></stageParams>
  <featureParams>
    <maxCatCount>0</maxCatCount>
    <featSize>1</featSize>
    <mode>BASIC</mode></featureParams>
  <stageNum>1</stageNum>
  <stages>
    <!-- stage 0 -->
    <_>
      <maxWeakCount>4</maxWeakCount>
      <stageThreshold>-1.8596954345703125e+00</stageThreshold>
      <weakClassifiers>
        <_>
          <internalNodes>
            0 -1 2 2.0033898949623108e-01</internalNodes>
          <leafValues>
            -9.6603399515151978e-01 8.3919596672058105e-01</leafValues></_>
        <_>
          <internalNodes>
            0 -1 1 -3.3885403536260128e-04</internalNodes>
          <leafValues>
            9.3363130092620850e-01 -8.8918322324752808e-01</leafValues></_>
        <_>
          <internalNodes>
            0 -1 0 8.2252768334001303e-04</internalNodes>
          <leafValues>
            -8.0193924903869629e-01 9.6850913763046265e-01</leafValues></_>
        <_>
          <internalNodes>
            0 -1 3 5.5572375655174255e-02</internalNodes>
          <leafValues>
            -9.1773086786270142e-01 7.9746103286743164e-01</leafValues></_></weakClassifiers></_></stages>
  <features>
    <_>
      <rects>
        <_>
          0 6 2 9 -1.</_>
        <_>
          1 6 1 9 2.</_></rects>
      <tilted>0</tilted></_>
    <_>
      <rects>
        <_>
          7 14 24 2 -1.</_>
        <_>
          15 14 8 2 3.</_></rects>
      <tilted>0</tilted></_>
    <_>
      <rects>
        <_>
          10 0 11 10 -1.</_>
        <_>
          10 5 11 5 2.</_></rects>
      <tilted>0</tilted></_>
    <_>
      <rects>
        <_>
          15 1 4 8 -1.</_>
        <_>
          15 5 4 4 2.</_></rects>
      <tilted>0</tilted></_></features></cascade>
</opencv_storage>
