<?xml version="1.0"?>
<opencv_storage>
<stage2>
  <maxWeakCount>8</maxWeakCount>
  <stageThreshold>-1.0275642871856689e+00</stageThreshold>
  <weakClassifiers>
    <_>
      <internalNodes>
        0 -1 59894 -7.2931297123432159e-02</internalNodes>
      <leafValues>
        5.7526254653930664e-01 -6.6352623701095581e-01</leafValues></_>
    <_>
      <internalNodes>
        0 -1 29933 -1.1245456989854574e-03</internalNodes>
      <leafValues>
        6.8244892358779907e-01 -4.3240588903427124e-01</leafValues></_>
    <_>
      <internalNodes>
        0 -1 97927 -4.5998266432434320e-04</internalNodes>
      <leafValues>
        4.6475303173065186e-01 -5.2870464324951172e-01</leafValues></_>
    <_>
      <internalNodes>
        0 -1 126975 -5.2384589798748493e-04</internalNodes>
      <leafValues>
        3.8103923201560974e-01 -5.7048165798187256e-01</leafValues></_>
    <_>
      <internalNodes>
        0 -1 53992 -6.2150835990905762e-02</internalNodes>
      <leafValues>
        3.1974756717681885e-01 -7.7756589651107788e-01</leafValues></_>
    <_>
      <internalNodes>
        0 -1 83033 -4.7909704153425992e-04</internalNodes>
      <leafValues>
        8.9317387342453003e-01 -3.4085875749588013e-01</leafValues></_>
    <_>
      <internalNodes>
        0 -1 36788 2.1166563965380192e-04</internalNodes>
      <leafValues>
        -1.9090148806571960e-01 9.8444533348083496e-01</leafValues></_>
    <_>
      <internalNodes>
        0 -1 95174 9.7568816272541881e-05</internalNodes>
      <leafValues>
        -5.3796643018722534e-01 4.2804598808288574e-01</leafValues></_></weakClassifiers></stage2>
</opencv_storage>
