<?xml version="1.0"?>
<opencv_storage>
<stage1>
  <maxWeakCount>5</maxWeakCount>
  <stageThreshold>-8.5978531837463379e-01</stageThreshold>
  <weakClassifiers>
    <_>
      <internalNodes>
        0 -1 91333 -6.1600048094987869e-02</internalNodes>
      <leafValues>
        7.3315364122390747e-01 -6.3403260707855225e-01</leafValues></_>
    <_>
      <internalNodes>
        0 -1 47718 -8.1295162439346313e-02</internalNodes>
      <leafValues>
        6.0844075679779053e-01 -4.9472597241401672e-01</leafValues></_>
    <_>
      <internalNodes>
        0 -1 56017 -9.3124236445873976e-04</internalNodes>
      <leafValues>
        4.6718069911003113e-01 -6.8549746274948120e-01</leafValues></_>
    <_>
      <internalNodes>
        0 -1 73283 -4.8219051677733660e-04</internalNodes>
      <leafValues>
        5.2655690908432007e-01 -5.1168048381805420e-01</leafValues></_>
    <_>
      <internalNodes>
        0 -1 95176 1.0237116366624832e-03</internalNodes>
      <leafValues>
        -6.5270322561264038e-01 4.2791384458541870e-01</leafValues></_></weakClassifiers></stage1>
</opencv_storage>
