<?xml version="1.0"?>
<opencv_storage>
<cascade>
  <stageType>BOOST</stageType>
  <featureType>HAAR</featureType>
  <height>16</height>
  <width>32</width>
  <stageParams>
    <boostType>GAB</boostType>
    <minHitRate>9.9500000476837158e-01</minHitRate>
    <maxFalseAlarm>5.0000000000000000e-01</maxFalseAlarm>
    <weightTrimRate>9.4999999999999996e-01</weightTrimRate>
    <maxDepth>1</maxDepth>
    <maxWeakCount>100</maxWeakCount></stageParams>
  <featureParams>
    <maxCatCount>0</maxCatCount>
    <featSize>1</featSize>
    <mode>BASIC</mode></featureParams>
  <stageNum>2</stageNum>
  <stages>
    <!-- stage 0 -->
    <_>
      <maxWeakCount>2</maxWeakCount>
      <stageThreshold>-2.0445869863033295e-01</stageThreshold>
      <weakClassifiers>
        <_>
          <internalNodes>
            0 -1 1 -1.0818341374397278e-01</internalNodes>
          <leafValues>
            8.8625591993331909e-01 -9.8941797018051147e-01</leafValues></_>
        <_>
          <internalNodes>
            0 -1 0 6.4867436885833740e-02</internalNodes>
          <leafValues>
            -9.7257781028747559e-01 7.8495931625366211e-01</leafValues></_></weakClassifiers></_>
    <!-- stage 1 -->
    <_>
      <maxWeakCount>2</maxWeakCount>
      <stageThreshold>-9.1374300420284271e-02</stageThreshold>
      <weakClassifiers>
        <_>
          <internalNodes>
            0 -1 2 2.6709493249654770e-03</internalNodes>
          <leafValues>
            -9.6842104196548462e-01 8.7619048357009888e-01</leafValues></_>
        <_>
          <internalNodes>
            0 -1 3 -2.3010718822479248e-01</internalNodes>
          <leafValues>
            8.7704676389694214e-01 -7.3944556713104248e-01</leafValues></_></weakClassifiers></_></stages>
  <features>
    <_>
      <rects>
        <_>
          0 7 14 3 -1.</_>
        <_>
          7 7 7 3 2.</_></rects>
      <tilted>0</tilted></_>
    <_>
      <rects>
        <_>
          8 4 18 5 -1.</_>
        <_>
          14 4 6 5 3.</_></rects>
      <tilted>0</tilted></_>
    <_>
      <rects>
        <_>
          16 7 1 2 -1.</_>
        <_>
          16 8 1 1 2.</_></rects>
      <tilted>0</tilted></_>
    <_>
      <rects>
        <_>
          20 0 12 14 -1.</_>
        <_>
          26 0 6 14 2.</_></rects>
      <tilted>0</tilted></_></features></cascade>
</opencv_storage>
