<?xml version="1.0"?>
<opencv_storage>
<cascade>
  <stageType>BOOST</stageType>
  <featureType>HAAR</featureType>
  <height>16</height>
  <width>32</width>
  <stageParams>
    <boostType>GAB</boostType>
    <minHitRate>9.9500000476837158e-01</minHitRate>
    <maxFalseAlarm>5.0000000000000000e-01</maxFalseAlarm>
    <weightTrimRate>9.4999999999999996e-01</weightTrimRate>
    <maxDepth>1</maxDepth>
    <maxWeakCount>100</maxWeakCount></stageParams>
  <featureParams>
    <maxCatCount>0</maxCatCount>
    <featSize>1</featSize>
    <mode>BASIC</mode></featureParams>
  <stageNum>5</stageNum>
  <stages>
    <!-- stage 0 -->
    <_>
      <maxWeakCount>4</maxWeakCount>
      <stageThreshold>-1.5315407514572144e+00</stageThreshold>
      <weakClassifiers>
        <_>
          <internalNodes>
            0 -1 19 -6.3646182417869568e-02</internalNodes>
          <leafValues>
            7.7078086137771606e-01 -7.5930523872375488e-01</leafValues></_>
        <_>
          <internalNodes>
            0 -1 1 1.4407598972320557e-01</internalNodes>
          <leafValues>
            -8.0306696891784668e-01 5.8666288852691650e-01</leafValues></_>
        <_>
          <internalNodes>
            0 -1 30 7.4422685429453850e-04</internalNodes>
          <leafValues>
            -7.4648833274841309e-01 4.1715353727340698e-01</leafValues></_>
        <_>
          <internalNodes>
            0 -1 10 -3.6938548088073730e-02</internalNodes>
          <leafValues>
            4.4358256459236145e-01 -6.1241012811660767e-01</leafValues></_></weakClassifiers></_>
    <!-- stage 1 -->
    <_>
      <maxWeakCount>6</maxWeakCount>
      <stageThreshold>-1.4576685428619385e+00</stageThreshold>
      <weakClassifiers>
        <_>
          <internalNodes>
            0 -1 14 -3.0039601027965546e-02</internalNodes>
          <leafValues>
            5.8503401279449463e-01 -7.1866297721862793e-01</leafValues></_>
        <_>
          <internalNodes>
            0 -1 7 -4.4688519090414047e-02</internalNodes>
          <leafValues>
            5.8297848701477051e-01 -5.8347493410110474e-01</leafValues></_>
        <_>
          <internalNodes>
            0 -1 9 5.6502403458580375e-04</internalNodes>
          <leafValues>
            -3.5762485861778259e-01 6.3550949096679688e-01</leafValues></_>
        <_>
          <internalNodes>
            0 -1 32 1.4459673548117280e-04</internalNodes>
          <leafValues>
            -5.5764418840408325e-01 4.2269182205200195e-01</leafValues></_>
        <_>
          <internalNodes>
            0 -1 34 7.1140192449092865e-02</internalNodes>
          <leafValues>
            -4.9603807926177979e-01 3.9528584480285645e-01</leafValues></_>
        <_>
          <internalNodes>
            0 -1 18 -6.2665697187185287e-03</internalNodes>
          <leafValues>
            3.6445251107215881e-01 -5.1240074634552002e-01</leafValues></_></weakClassifiers></_>
    <!-- stage 2 -->
    <_>
      <maxWeakCount>7</maxWeakCount>
      <stageThreshold>-1.4827449321746826e+00</stageThreshold>
      <weakClassifiers>
        <_>
          <internalNodes>
            0 -1 27 8.6682122200727463e-03</internalNodes>
          <leafValues>
            -5.8236056566238403e-01 5.4161638021469116e-01</leafValues></_>
        <_>
          <internalNodes>
            0 -1 3 2.6174819469451904e-01</internalNodes>
          <leafValues>
            -5.0149649381637573e-01 4.3981558084487915e-01</leafValues></_>
        <_>
          <internalNodes>
            0 -1 26 -8.2683272194117308e-04</internalNodes>
          <leafValues>
            7.2089409828186035e-01 -3.3652582764625549e-01</leafValues></_>
        <_>
          <internalNodes>
            0 -1 29 5.6085060350596905e-04</internalNodes>
          <leafValues>
            -6.4614766836166382e-01 3.5554116964340210e-01</leafValues></_>
        <_>
          <internalNodes>
            0 -1 22 4.9095511436462402e-02</internalNodes>
          <leafValues>
            2.6161995530128479e-01 -6.6864830255508423e-01</leafValues></_>
        <_>
          <internalNodes>
            0 -1 0 3.6488331854343414e-02</internalNodes>
          <leafValues>
            -4.3786782026290894e-01 4.3888440728187561e-01</leafValues></_>
        <_>
          <internalNodes>
            0 -1 21 -5.3503969684243202e-03</internalNodes>
          <leafValues>
            4.2794376611709595e-01 -3.6394345760345459e-01</leafValues></_></weakClassifiers></_>
    <!-- stage 3 -->
    <_>
      <maxWeakCount>11</maxWeakCount>
      <stageThreshold>-1.1647850275039673e+00</stageThreshold>
      <weakClassifiers>
        <_>
          <internalNodes>
            0 -1 31 -1.4250169624574482e-04</internalNodes>
          <leafValues>
            4.6973365545272827e-01 -5.0129199028015137e-01</leafValues></_>
        <_>
          <internalNodes>
            0 -1 12 -1.1019107699394226e-01</internalNodes>
          <leafValues>
            6.2269562482833862e-01 -4.1817334294319153e-01</leafValues></_>
        <_>
          <internalNodes>
            0 -1 36 -5.2388913929462433e-02</internalNodes>
          <leafValues>
            4.8195526003837585e-01 -3.8096538186073303e-01</leafValues></_>
        <_>
          <internalNodes>
            0 -1 28 -5.9078546473756433e-04</internalNodes>
          <leafValues>
            3.3100044727325439e-01 -5.3439241647720337e-01</leafValues></_>
        <_>
          <internalNodes>
            0 -1 15 1.1778940097428858e-04</internalNodes>
          <leafValues>
            -3.6687365174293518e-01 4.8599967360496521e-01</leafValues></_>
        <_>
          <internalNodes>
            0 -1 23 -1.7627769557293504e-04</internalNodes>
          <leafValues>
            3.7023127079010010e-01 -5.0915294885635376e-01</leafValues></_>
        <_>
          <internalNodes>
            0 -1 2 1.1084047146141529e-02</internalNodes>
          <leafValues>
            -6.5278065204620361e-01 2.7529111504554749e-01</leafValues></_>
        <_>
          <internalNodes>
            0 -1 20 1.0593671351671219e-02</internalNodes>
          <leafValues>
            2.2870087623596191e-01 -6.6803830862045288e-01</leafValues></_>
        <_>
          <internalNodes>
            0 -1 17 -7.9081603325903416e-04</internalNodes>
          <leafValues>
            9.5031166076660156e-01 -1.9618117809295654e-01</leafValues></_>
        <_>
          <internalNodes>
            0 -1 8 4.9585845321416855e-02</internalNodes>
          <leafValues>
            -2.2749680280685425e-01 5.9702390432357788e-01</leafValues></_>
        <_>
          <internalNodes>
            0 -1 38 -2.5485461810603738e-04</internalNodes>
          <leafValues>
            6.0611683130264282e-01 -2.6650685071945190e-01</leafValues></_></weakClassifiers></_>
    <!-- stage 4 -->
    <_>
      <maxWeakCount>11</maxWeakCount>
      <stageThreshold>-1.2987698316574097e+00</stageThreshold>
      <weakClassifiers>
        <_>
          <internalNodes>
            0 -1 35 2.3348559625446796e-03</internalNodes>
          <leafValues>
            -3.9634799957275391e-01 5.5156952142715454e-01</leafValues></_>
        <_>
          <internalNodes>
            0 -1 25 5.9510814025998116e-04</internalNodes>
          <leafValues>
            -6.7467212677001953e-01 3.3536443114280701e-01</leafValues></_>
        <_>
          <internalNodes>
            0 -1 13 -4.0875814855098724e-02</internalNodes>
          <leafValues>
            4.3871620297431946e-01 -5.8821147680282593e-01</leafValues></_>
        <_>
          <internalNodes>
            0 -1 33 -1.9968664855696261e-04</internalNodes>
          <leafValues>
            7.4510675668716431e-01 -3.0619853734970093e-01</leafValues></_>
        <_>
          <internalNodes>
            0 -1 11 -2.5364169850945473e-03</internalNodes>
          <leafValues>
            6.4352017641067505e-01 -3.6036035418510437e-01</leafValues></_>
        <_>
          <internalNodes>
            0 -1 4 2.7707893401384354e-02</internalNodes>
          <leafValues>
            2.9417523741722107e-01 -6.1550313234329224e-01</leafValues></_>
        <_>
          <internalNodes>
            0 -1 5 9.6939187496900558e-03</internalNodes>
          <leafValues>
            4.1359734535217285e-01 -5.7622426748275757e-01</leafValues></_>
        <_>
          <internalNodes>
            0 -1 24 -3.1381234293803573e-04</internalNodes>
          <leafValues>
            7.0564478635787964e-01 -3.0875492095947266e-01</leafValues></_>
        <_>
          <internalNodes>
            0 -1 6 1.2580404989421368e-02</internalNodes>
          <leafValues>
            2.1949507296085358e-01 -9.6779757738113403e-01</leafValues></_>
        <_>
          <internalNodes>
            0 -1 16 -4.1393227875232697e-03</internalNodes>
          <leafValues>
            7.0612215995788574e-01 -3.2718080282211304e-01</leafValues></_>
        <_>
          <internalNodes>
            0 -1 37 -2.1605662186630070e-04</internalNodes>
          <leafValues>
            6.9744956493377686e-01 -4.0519025921821594e-01</leafValues></_></weakClassifiers></_></stages>
  <features>
    <_>
      <rects>
        <_>
          0 0 8 8 -1.</_>
        <_>
          0 0 4 4 2.</_>
        <_>
          4 4 4 4 2.</_></rects>
      <tilted>0</tilted></_>
    <_>
      <rects>
        <_>
          0 0 12 16 -1.</_>
        <_>
          6 0 6 16 2.</_></rects>
      <tilted>0</tilted></_>
    <_>
      <rects>
        <_>
          0 0 13 4 -1.</_>
        <_>
          0 2 13 2 2.</_></rects>
      <tilted>0</tilted></_>
    <_>
      <rects>
        <_>
          0 2 18 13 -1.</_>
        <_>
          6 2 6 13 3.</_></rects>
      <tilted>0</tilted></_>
    <_>
      <rects>
        <_>
          0 6 11 6 -1.</_>
        <_>
          0 8 11 2 3.</_></rects>
      <tilted>0</tilted></_>
    <_>
      <rects>
        <_>
          0 6 11 6 -1.</_>
        <_>
          0 9 11 3 2.</_></rects>
      <tilted>0</tilted></_>
    <_>
      <rects>
        <_>
          0 7 14 3 -1.</_>
        <_>
          0 8 14 1 3.</_></rects>
      <tilted>0</tilted></_>
    <_>
      <rects>
        <_>
          1 1 16 8 -1.</_>
        <_>
          1 1 8 4 2.</_>
        <_>
          9 5 8 4 2.</_></rects>
      <tilted>0</tilted></_>
    <_>
      <rects>
        <_>
          1 7 6 7 -1.</_>
        <_>
          4 7 3 7 2.</_></rects>
      <tilted>0</tilted></_>
    <_>
      <rects>
        <_>
          2 0 20 1 -1.</_>
        <_>
          12 0 10 1 2.</_></rects>
      <tilted>0</tilted></_>
    <_>
      <rects>
        <_>
          4 0 14 12 -1.</_>
        <_>
          4 0 7 6 2.</_>
        <_>
          11 6 7 6 2.</_></rects>
      <tilted>0</tilted></_>
    <_>
      <rects>
        <_>
          4 4 4 6 -1.</_>
        <_>
          4 4 2 3 2.</_>
        <_>
          6 7 2 3 2.</_></rects>
      <tilted>0</tilted></_>
    <_>
      <rects>
        <_>
          5 5 14 9 -1.</_>
        <_>
          12 5 7 9 2.</_></rects>
      <tilted>0</tilted></_>
    <_>
      <rects>
        <_>
          7 5 14 11 -1.</_>
        <_>
          14 5 7 11 2.</_></rects>
      <tilted>0</tilted></_>
    <_>
      <rects>
        <_>
          7 6 12 3 -1.</_>
        <_>
          13 6 6 3 2.</_></rects>
      <tilted>0</tilted></_>
    <_>
      <rects>
        <_>
          8 1 18 1 -1.</_>
        <_>
          17 1 9 1 2.</_></rects>
      <tilted>0</tilted></_>
    <_>
      <rects>
        <_>
          9 0 15 3 -1.</_>
        <_>
          14 0 5 3 3.</_></rects>
      <tilted>0</tilted></_>
    <_>
      <rects>
        <_>
          9 0 18 1 -1.</_>
        <_>
          15 0 6 1 3.</_></rects>
      <tilted>0</tilted></_>
    <_>
      <rects>
        <_>
          11 4 4 10 -1.</_>
        <_>
          13 4 2 10 2.</_></rects>
      <tilted>0</tilted></_>
    <_>
      <rects>
        <_>
          11 4 18 12 -1.</_>
        <_>
          11 4 9 6 2.</_>
        <_>
          20 10 9 6 2.</_></rects>
      <tilted>0</tilted></_>
    <_>
      <rects>
        <_>
          11 5 13 6 -1.</_>
        <_>
          11 7 13 2 3.</_></rects>
      <tilted>0</tilted></_>
    <_>
      <rects>
        <_>
          12 0 4 12 -1.</_>
        <_>
          14 0 2 12 2.</_></rects>
      <tilted>0</tilted></_>
    <_>
      <rects>
        <_>
          12 1 12 12 -1.</_>
        <_>
          12 7 12 6 2.</_></rects>
      <tilted>0</tilted></_>
    <_>
      <rects>
        <_>
          12 5 2 3 -1.</_>
        <_>
          13 5 1 3 2.</_></rects>
      <tilted>0</tilted></_>
    <_>
      <rects>
        <_>
          12 6 3 1 -1.</_>
        <_>
          13 6 1 1 3.</_></rects>
      <tilted>0</tilted></_>
    <_>
      <rects>
        <_>
          12 8 7 2 -1.</_>
        <_>
          12 9 7 1 2.</_></rects>
      <tilted>0</tilted></_>
    <_>
      <rects>
        <_>
          13 1 6 2 -1.</_>
        <_>
          16 1 3 2 2.</_></rects>
      <tilted>0</tilted></_>
    <_>
      <rects>
        <_>
          13 5 5 10 -1.</_>
        <_>
          13 10 5 5 2.</_></rects>
      <tilted>0</tilted></_>
    <_>
      <rects>
        <_>
          14 7 4 3 -1.</_>
        <_>
          14 8 4 1 3.</_></rects>
      <tilted>0</tilted></_>
    <_>
      <rects>
        <_>
          14 8 5 2 -1.</_>
        <_>
          14 9 5 1 2.</_></rects>
      <tilted>0</tilted></_>
    <_>
      <rects>
        <_>
          15 7 2 4 -1.</_>
        <_>
          15 9 2 2 2.</_></rects>
      <tilted>0</tilted></_>
    <_>
      <rects>
        <_>
          15 9 3 1 -1.</_>
        <_>
          16 9 1 1 3.</_></rects>
      <tilted>0</tilted></_>
    <_>
      <rects>
        <_>
          17 8 1 2 -1.</_>
        <_>
          17 9 1 1 2.</_></rects>
      <tilted>0</tilted></_>
    <_>
      <rects>
        <_>
          18 0 3 3 -1.</_>
        <_>
          19 0 1 3 3.</_></rects>
      <tilted>0</tilted></_>
    <_>
      <rects>
        <_>
          19 0 12 12 -1.</_>
        <_>
          23 0 4 12 3.</_></rects>
      <tilted>0</tilted></_>
    <_>
      <rects>
        <_>
          22 2 6 4 -1.</_>
        <_>
          24 2 2 4 3.</_></rects>
      <tilted>0</tilted></_>
    <_>
      <rects>
        <_>
          24 3 8 5 -1.</_>
        <_>
          28 3 4 5 2.</_></rects>
      <tilted>0</tilted></_>
    <_>
      <rects>
        <_>
          29 0 2 13 -1.</_>
        <_>
          30 0 1 13 2.</_></rects>
      <tilted>0</tilted></_>
    <_>
      <rects>
        <_>
          29 7 3 8 -1.</_>
        <_>
          30 7 1 8 3.</_></rects>
      <tilted>0</tilted></_></features></cascade>
</opencv_storage>
