<?xml version="1.0"?>
<opencv_storage>
<stage2>
  <maxWeakCount>7</maxWeakCount>
  <stageThreshold>-1.3146088123321533e+00</stageThreshold>
  <weakClassifiers>
    <_>
      <internalNodes>
        0 -1 92636 1.7305029556155205e-02</internalNodes>
      <leafValues>
        -8.3578950166702271e-01 3.5288888216018677e-01</leafValues></_>
    <_>
      <internalNodes>
        0 -1 35331 9.0133938938379288e-03</internalNodes>
      <leafValues>
        3.4291732311248779e-01 -8.0875617265701294e-01</leafValues></_>
    <_>
      <internalNodes>
        0 -1 127444 -1.4897435903549194e-03</internalNodes>
      <leafValues>
        4.7969889640808105e-01 -5.4162603616714478e-01</leafValues></_>
    <_>
      <internalNodes>
        0 -1 22885 -7.2639103746041656e-04</internalNodes>
      <leafValues>
        8.6688679456710815e-01 -3.3161759376525879e-01</leafValues></_>
    <_>
      <internalNodes>
        0 -1 760 2.0845900475978851e-01</internalNodes>
      <leafValues>
        -4.3986058235168457e-01 5.7810217142105103e-01</leafValues></_>
    <_>
      <internalNodes>
        0 -1 45417 6.5205506980419159e-02</internalNodes>
      <leafValues>
        -9.5980775356292725e-01 3.0133816599845886e-01</leafValues></_>
    <_>
      <internalNodes>
        0 -1 95148 -1.4650903176516294e-04</internalNodes>
      <leafValues>
        1.9002941250801086e-01 -8.1774896383285522e-01</leafValues></_></weakClassifiers></stage2>
</opencv_storage>
