<?xml version="1.0"?>
<opencv_storage>
<stage1>
  <maxWeakCount>6</maxWeakCount>
  <stageThreshold>-1.3820722103118896e+00</stageThreshold>
  <weakClassifiers>
    <_>
      <internalNodes>
        0 -1 73901 1.2673339247703552e-01</internalNodes>
      <leafValues>
        -6.8959999084472656e-01 4.4205129146575928e-01</leafValues></_>
    <_>
      <internalNodes>
        0 -1 7821 -4.9225793918594718e-04</internalNodes>
      <leafValues>
        9.1524463891983032e-01 -3.5490879416465759e-01</leafValues></_>
    <_>
      <internalNodes>
        0 -1 16857 1.2823852896690369e-01</internalNodes>
      <leafValues>
        -8.6709964275360107e-01 4.3702748417854309e-01</leafValues></_>
    <_>
      <internalNodes>
        0 -1 128245 -1.1302140774205327e-03</internalNodes>
      <leafValues>
        6.9123035669326782e-01 -5.1721996068954468e-01</leafValues></_>
    <_>
      <internalNodes>
        0 -1 95177 1.3935097958892584e-03</internalNodes>
      <leafValues>
        -5.9412199258804321e-01 4.4021320343017578e-01</leafValues></_>
    <_>
      <internalNodes>
        0 -1 83161 6.9416093174368143e-04</internalNodes>
      <leafValues>
        -6.5338051319122314e-01 3.7072479724884033e-01</leafValues></_></weakClassifiers></stage1>
</opencv_storage>
