<?xml version="1.0"?>
<opencv_storage>
<stage4>
  <maxWeakCount>7</maxWeakCount>
  <stageThreshold>-1.0319073200225830e+00</stageThreshold>
  <weakClassifiers>
    <_>
      <internalNodes>
        0 -1 90751 1.6649907920509577e-03</internalNodes>
      <leafValues>
        -5.0113892555236816e-01 6.0941827297210693e-01</leafValues></_>
    <_>
      <internalNodes>
        0 -1 56500 -2.1927956491708755e-02</internalNodes>
      <leafValues>
        -7.7952700853347778e-01 4.2605546116828918e-01</leafValues></_>
    <_>
      <internalNodes>
        0 -1 7821 -2.7272594161331654e-03</internalNodes>
      <leafValues>
        1. -3.1514224410057068e-01</leafValues></_>
    <_>
      <internalNodes>
        0 -1 57008 -1.8964638933539391e-02</internalNodes>
      <leafValues>
        -8.7999707460403442e-01 3.6028879880905151e-01</leafValues></_>
    <_>
      <internalNodes>
        0 -1 94607 1.4367159456014633e-03</internalNodes>
      <leafValues>
        -4.4463974237442017e-01 7.2293215990066528e-01</leafValues></_>
    <_>
      <internalNodes>
        0 -1 66332 -2.9830373823642731e-03</internalNodes>
      <leafValues>
        -8.2109099626541138e-01 2.9626390337944031e-01</leafValues></_>
    <_>
      <internalNodes>
        0 -1 78387 1.3375176116824150e-02</internalNodes>
      <leafValues>
        -7.8160697221755981e-01 3.5198780894279480e-01</leafValues></_></weakClassifiers></stage4>
</opencv_storage>
