<?xml version="1.0"?>
<opencv_storage>
<cascade>
  <stageType>BOOST</stageType>
  <featureType>HAAR</featureType>
  <height>16</height>
  <width>32</width>
  <stageParams>
    <boostType>GAB</boostType>
    <minHitRate>9.9500000476837158e-01</minHitRate>
    <maxFalseAlarm>5.0000000000000000e-01</maxFalseAlarm>
    <weightTrimRate>9.4999999999999996e-01</weightTrimRate>
    <maxDepth>1</maxDepth>
    <maxWeakCount>100</maxWeakCount></stageParams>
  <featureParams>
    <maxCatCount>0</maxCatCount>
    <featSize>1</featSize>
    <mode>BASIC</mode></featureParams>
  <stageNum>2</stageNum>
  <stages>
    <!-- stage 0 -->
    <_>
      <maxWeakCount>2</maxWeakCount>
      <stageThreshold>-1.4640934765338898e-01</stageThreshold>
      <weakClassifiers>
        <_>
          <internalNodes>
            0 -1 0 -7.7064499258995056e-02</internalNodes>
          <leafValues>
            8.8405799865722656e-01 -9.4818651676177979e-01</leafValues></_>
        <_>
          <internalNodes>
            0 -1 2 -2.8699383139610291e-02</internalNodes>
          <leafValues>
            8.0177718400955200e-01 -9.0596693754196167e-01</leafValues></_></weakClassifiers></_>
    <!-- stage 1 -->
    <_>
      <maxWeakCount>3</maxWeakCount>
      <stageThreshold>-8.9376270771026611e-01</stageThreshold>
      <weakClassifiers>
        <_>
          <internalNodes>
            0 -1 1 -1.1596856266260147e-01</internalNodes>
          <leafValues>
            1. -7.0940172672271729e-01</leafValues></_>
        <_>
          <internalNodes>
            0 -1 4 5.4676481522619724e-04</internalNodes>
          <leafValues>
            -8.9955580234527588e-01 7.4745082855224609e-01</leafValues></_>
        <_>
          <internalNodes>
            0 -1 3 -3.5996435326524079e-04</internalNodes>
          <leafValues>
            7.1519482135772705e-01 -9.9415564537048340e-01</leafValues></_></weakClassifiers></_></stages>
  <features>
    <_>
      <rects>
        <_>
          1 8 30 5 -1.</_>
        <_>
          11 8 10 5 3.</_></rects>
      <tilted>0</tilted></_>
    <_>
      <rects>
        <_>
          6 9 18 7 -1.</_>
        <_>
          12 9 6 7 3.</_></rects>
      <tilted>0</tilted></_>
    <_>
      <rects>
        <_>
          14 5 5 8 -1.</_>
        <_>
          14 9 5 4 2.</_></rects>
      <tilted>0</tilted></_>
    <_>
      <rects>
        <_>
          15 7 1 9 -1.</_>
        <_>
          15 10 1 3 3.</_></rects>
      <tilted>0</tilted></_>
    <_>
      <rects>
        <_>
          26 1 4 6 -1.</_>
        <_>
          26 1 2 3 2.</_>
        <_>
          28 4 2 3 2.</_></rects>
      <tilted>0</tilted></_></features></cascade>
</opencv_storage>
