<?xml version="1.0"?>
<opencv_storage>
<cascade>
  <stageType>BOOST</stageType>
  <featureType>HAAR</featureType>
  <height>16</height>
  <width>32</width>
  <stageParams>
    <boostType>GAB</boostType>
    <minHitRate>9.9500000476837158e-01</minHitRate>
    <maxFalseAlarm>5.0000000000000000e-01</maxFalseAlarm>
    <weightTrimRate>9.4999999999999996e-01</weightTrimRate>
    <maxDepth>1</maxDepth>
    <maxWeakCount>100</maxWeakCount></stageParams>
  <featureParams>
    <maxCatCount>0</maxCatCount>
    <featSize>1</featSize>
    <mode>BASIC</mode></featureParams>
  <stageNum>2</stageNum>
  <stages>
    <!-- stage 0 -->
    <_>
      <maxWeakCount>2</maxWeakCount>
      <stageThreshold>-2.0252652466297150e-01</stageThreshold>
      <weakClassifiers>
        <_>
          <internalNodes>
            0 -1 0 -8.2161441445350647e-02</internalNodes>
          <leafValues>
            9.5131844282150269e-01 -9.2504930496215820e-01</leafValues></_>
        <_>
          <internalNodes>
            0 -1 2 -8.4463544189929962e-03</internalNodes>
          <leafValues>
            7.2252279520034790e-01 -9.7555661201477051e-01</leafValues></_></weakClassifiers></_>
    <!-- stage 1 -->
    <_>
      <maxWeakCount>3</maxWeakCount>
      <stageThreshold>-8.4298437833786011e-01</stageThreshold>
      <weakClassifiers>
        <_>
          <internalNodes>
            0 -1 1 -7.3634818196296692e-02</internalNodes>
          <leafValues>
            8.9979124069213867e-01 -8.2725524902343750e-01</leafValues></_>
        <_>
          <internalNodes>
            0 -1 3 5.3244382143020630e-02</internalNodes>
          <leafValues>
            -8.9840453863143921e-01 7.7220821380615234e-01</leafValues></_>
        <_>
          <internalNodes>
            0 -1 4 1.5369224548339844e-01</internalNodes>
          <leafValues>
            -7.7490037679672241e-01 8.8267540931701660e-01</leafValues></_></weakClassifiers></_></stages>
  <features>
    <_>
      <rects>
        <_>
          2 9 27 7 -1.</_>
        <_>
          11 9 9 7 3.</_></rects>
      <tilted>0</tilted></_>
    <_>
      <rects>
        <_>
          4 10 24 6 -1.</_>
        <_>
          12 10 8 6 3.</_></rects>
      <tilted>0</tilted></_>
    <_>
      <rects>
        <_>
          14 6 3 9 -1.</_>
        <_>
          14 9 3 3 3.</_></rects>
      <tilted>0</tilted></_>
    <_>
      <rects>
        <_>
          16 0 4 10 -1.</_>
        <_>
          16 5 4 5 2.</_></rects>
      <tilted>0</tilted></_>
    <_>
      <rects>
        <_>
          21 0 11 12 -1.</_>
        <_>
          21 6 11 6 2.</_></rects>
      <tilted>0</tilted></_></features></cascade>
</opencv_storage>
