<?xml version="1.0"?>
<opencv_storage>
<cascade>
  <stageType>BOOST</stageType>
  <featureType>HAAR</featureType>
  <height>16</height>
  <width>32</width>
  <stageParams>
    <boostType>GAB</boostType>
    <minHitRate>9.9500000476837158e-01</minHitRate>
    <maxFalseAlarm>5.0000000000000000e-01</maxFalseAlarm>
    <weightTrimRate>9.4999999999999996e-01</weightTrimRate>
    <maxDepth>1</maxDepth>
    <maxWeakCount>100</maxWeakCount></stageParams>
  <featureParams>
    <maxCatCount>0</maxCatCount>
    <featSize>1</featSize>
    <mode>BASIC</mode></featureParams>
  <stageNum>5</stageNum>
  <stages>
    <!-- stage 0 -->
    <_>
      <maxWeakCount>6</maxWeakCount>
      <stageThreshold>-1.6803601980209351e+00</stageThreshold>
      <weakClassifiers>
        <_>
          <internalNodes>
            0 -1 42 -4.2488198960199952e-04</internalNodes>
          <leafValues>
            6.9006621837615967e-01 -6.1656802892684937e-01</leafValues></_>
        <_>
          <internalNodes>
            0 -1 24 2.1862994879484177e-02</internalNodes>
          <leafValues>
            -6.5917289257049561e-01 5.6938302516937256e-01</leafValues></_>
        <_>
          <internalNodes>
            0 -1 11 -1.1145004536956549e-03</internalNodes>
          <leafValues>
            4.4997903704643250e-01 -6.6017931699752808e-01</leafValues></_>
        <_>
          <internalNodes>
            0 -1 4 1.4900589361786842e-02</internalNodes>
          <leafValues>
            -5.9570604562759399e-01 3.7083297967910767e-01</leafValues></_>
        <_>
          <internalNodes>
            0 -1 2 -9.5668260473757982e-04</internalNodes>
          <leafValues>
            5.7478791475296021e-01 -3.6228278279304504e-01</leafValues></_>
        <_>
          <internalNodes>
            0 -1 33 1.9033901393413544e-02</internalNodes>
          <leafValues>
            -7.5102686882019043e-01 2.4700993299484253e-01</leafValues></_></weakClassifiers></_>
    <!-- stage 1 -->
    <_>
      <maxWeakCount>9</maxWeakCount>
      <stageThreshold>-1.5449608564376831e+00</stageThreshold>
      <weakClassifiers>
        <_>
          <internalNodes>
            0 -1 41 -3.9799686055630445e-04</internalNodes>
          <leafValues>
            4.4123712182044983e-01 -6.7936509847640991e-01</leafValues></_>
        <_>
          <internalNodes>
            0 -1 13 -3.3772498369216919e-02</internalNodes>
          <leafValues>
            5.1224416494369507e-01 -5.8871269226074219e-01</leafValues></_>
        <_>
          <internalNodes>
            0 -1 21 -4.2315563769079745e-04</internalNodes>
          <leafValues>
            4.6493610739707947e-01 -5.8181238174438477e-01</leafValues></_>
        <_>
          <internalNodes>
            0 -1 35 2.1891489624977112e-02</internalNodes>
          <leafValues>
            -7.2348606586456299e-01 2.9570007324218750e-01</leafValues></_>
        <_>
          <internalNodes>
            0 -1 2 -3.5137782106176019e-04</internalNodes>
          <leafValues>
            4.4021683931350708e-01 -4.3885642290115356e-01</leafValues></_>
        <_>
          <internalNodes>
            0 -1 31 -1.5551965043414384e-04</internalNodes>
          <leafValues>
            3.8158160448074341e-01 -4.7040769457817078e-01</leafValues></_>
        <_>
          <internalNodes>
            0 -1 20 1.1538555845618248e-02</internalNodes>
          <leafValues>
            -4.2973825335502625e-01 3.6435237526893616e-01</leafValues></_>
        <_>
          <internalNodes>
            0 -1 46 -3.6254030419513583e-04</internalNodes>
          <leafValues>
            6.5134400129318237e-01 -2.4069273471832275e-01</leafValues></_>
        <_>
          <internalNodes>
            0 -1 9 -3.2990521867759526e-04</internalNodes>
          <leafValues>
            6.1495971679687500e-01 -2.5191479921340942e-01</leafValues></_></weakClassifiers></_>
    <!-- stage 2 -->
    <_>
      <maxWeakCount>9</maxWeakCount>
      <stageThreshold>-1.4212993383407593e+00</stageThreshold>
      <weakClassifiers>
        <_>
          <internalNodes>
            0 -1 12 -2.7989320456981659e-02</internalNodes>
          <leafValues>
            5.2317881584167480e-01 -4.6745562553405762e-01</leafValues></_>
        <_>
          <internalNodes>
            0 -1 18 1.9516773521900177e-02</internalNodes>
          <leafValues>
            -2.9737702012062073e-01 6.6504216194152832e-01</leafValues></_>
        <_>
          <internalNodes>
            0 -1 15 -1.6554584726691246e-03</internalNodes>
          <leafValues>
            3.9230346679687500e-01 -5.7734453678131104e-01</leafValues></_>
        <_>
          <internalNodes>
            0 -1 29 -3.3326679840683937e-03</internalNodes>
          <leafValues>
            2.7743273973464966e-01 -5.4848420619964600e-01</leafValues></_>
        <_>
          <internalNodes>
            0 -1 26 -1.3660344993695617e-03</internalNodes>
          <leafValues>
            2.0494766533374786e-01 -7.5746917724609375e-01</leafValues></_>
        <_>
          <internalNodes>
            0 -1 23 3.6311531439423561e-03</internalNodes>
          <leafValues>
            -7.3510062694549561e-01 1.8638348579406738e-01</leafValues></_>
        <_>
          <internalNodes>
            0 -1 38 6.7927553318440914e-03</internalNodes>
          <leafValues>
            -1.8662217259407043e-01 8.1207668781280518e-01</leafValues></_>
        <_>
          <internalNodes>
            0 -1 45 2.9434249154292047e-04</internalNodes>
          <leafValues>
            -2.4515044689178467e-01 6.5558022260665894e-01</leafValues></_>
        <_>
          <internalNodes>
            0 -1 7 1.1941587924957275e-01</internalNodes>
          <leafValues>
            -4.5984455943107605e-01 3.3867511153221130e-01</leafValues></_></weakClassifiers></_>
    <!-- stage 3 -->
    <_>
      <maxWeakCount>12</maxWeakCount>
      <stageThreshold>-1.2137181758880615e+00</stageThreshold>
      <weakClassifiers>
        <_>
          <internalNodes>
            0 -1 6 6.2625601887702942e-02</internalNodes>
          <leafValues>
            -4.9938347935676575e-01 5.1330798864364624e-01</leafValues></_>
        <_>
          <internalNodes>
            0 -1 43 -2.8505903901532292e-04</internalNodes>
          <leafValues>
            3.8318023085594177e-01 -5.2641952037811279e-01</leafValues></_>
        <_>
          <internalNodes>
            0 -1 2 -1.5900819562375546e-04</internalNodes>
          <leafValues>
            3.8885247707366943e-01 -4.7830763459205627e-01</leafValues></_>
        <_>
          <internalNodes>
            0 -1 22 9.9497996270656586e-03</internalNodes>
          <leafValues>
            -5.7165855169296265e-01 3.1067928671836853e-01</leafValues></_>
        <_>
          <internalNodes>
            0 -1 36 4.4258541311137378e-04</internalNodes>
          <leafValues>
            -7.0683550834655762e-01 2.2744747996330261e-01</leafValues></_>
        <_>
          <internalNodes>
            0 -1 28 1.4967641327530146e-03</internalNodes>
          <leafValues>
            -4.1322687268257141e-01 3.5070911049842834e-01</leafValues></_>
        <_>
          <internalNodes>
            0 -1 16 1.1669027117022779e-05</internalNodes>
          <leafValues>
            2.0599885284900665e-01 -6.1999797821044922e-01</leafValues></_>
        <_>
          <internalNodes>
            0 -1 17 -9.1747250407934189e-03</internalNodes>
          <leafValues>
            -6.5626114606857300e-01 1.9233724474906921e-01</leafValues></_>
        <_>
          <internalNodes>
            0 -1 10 -1.5185930533334613e-04</internalNodes>
          <leafValues>
            5.5726689100265503e-01 -2.5760462880134583e-01</leafValues></_>
        <_>
          <internalNodes>
            0 -1 32 -2.3949133174028248e-04</internalNodes>
          <leafValues>
            2.5893038511276245e-01 -4.7188287973403931e-01</leafValues></_>
        <_>
          <internalNodes>
            0 -1 8 -7.5949346646666527e-03</internalNodes>
          <leafValues>
            -7.6825964450836182e-01 2.0318984985351562e-01</leafValues></_>
        <_>
          <internalNodes>
            0 -1 40 -7.7774071542080492e-05</internalNodes>
          <leafValues>
            5.8163785934448242e-01 -2.2984564304351807e-01</leafValues></_></weakClassifiers></_>
    <!-- stage 4 -->
    <_>
      <maxWeakCount>13</maxWeakCount>
      <stageThreshold>-1.3437184095382690e+00</stageThreshold>
      <weakClassifiers>
        <_>
          <internalNodes>
            0 -1 14 -1.4061682857573032e-02</internalNodes>
          <leafValues>
            4.8831489682197571e-01 -5.0444728136062622e-01</leafValues></_>
        <_>
          <internalNodes>
            0 -1 5 -3.2553594792261720e-04</internalNodes>
          <leafValues>
            4.8679277300834656e-01 -4.1458371281623840e-01</leafValues></_>
        <_>
          <internalNodes>
            0 -1 3 3.8755107671022415e-02</internalNodes>
          <leafValues>
            -4.1342139244079590e-01 4.1146132349967957e-01</leafValues></_>
        <_>
          <internalNodes>
            0 -1 44 -4.4802250340580940e-04</internalNodes>
          <leafValues>
            3.7247097492218018e-01 -4.5324444770812988e-01</leafValues></_>
        <_>
          <internalNodes>
            0 -1 37 -6.0853194445371628e-03</internalNodes>
          <leafValues>
            3.3651536703109741e-01 -5.2730399370193481e-01</leafValues></_>
        <_>
          <internalNodes>
            0 -1 25 -1.8917771521955729e-03</internalNodes>
          <leafValues>
            5.9674108028411865e-01 -2.9059961438179016e-01</leafValues></_>
        <_>
          <internalNodes>
            0 -1 34 2.6283808983862400e-04</internalNodes>
          <leafValues>
            -4.0628489851951599e-01 3.7281292676925659e-01</leafValues></_>
        <_>
          <internalNodes>
            0 -1 27 1.3674736022949219e-02</internalNodes>
          <leafValues>
            -2.3886032402515411e-01 7.4895900487899780e-01</leafValues></_>
        <_>
          <internalNodes>
            0 -1 19 -8.8864413555711508e-04</internalNodes>
          <leafValues>
            8.2513636350631714e-01 -2.0522667467594147e-01</leafValues></_>
        <_>
          <internalNodes>
            0 -1 39 3.0182378395693377e-05</internalNodes>
          <leafValues>
            -1.7054902017116547e-01 7.9606270790100098e-01</leafValues></_>
        <_>
          <internalNodes>
            0 -1 30 1.2698011705651879e-03</internalNodes>
          <leafValues>
            -2.6612305641174316e-01 5.3273653984069824e-01</leafValues></_>
        <_>
          <internalNodes>
            0 -1 1 8.7094609625637531e-05</internalNodes>
          <leafValues>
            -9.5985102653503418e-01 1.8502262234687805e-01</leafValues></_>
        <_>
          <internalNodes>
            0 -1 0 1.1172674596309662e-01</internalNodes>
          <leafValues>
            -2.0952154695987701e-01 1.</leafValues></_></weakClassifiers></_></stages>
  <features>
    <_>
      <rects>
        <_>
          0 1 8 10 -1.</_>
        <_>
          0 6 8 5 2.</_></rects>
      <tilted>0</tilted></_>
    <_>
      <rects>
        <_>
          0 2 8 6 -1.</_>
        <_>
          4 2 4 6 2.</_></rects>
      <tilted>0</tilted></_>
    <_>
      <rects>
        <_>
          0 12 27 4 -1.</_>
        <_>
          9 12 9 4 3.</_></rects>
      <tilted>0</tilted></_>
    <_>
      <rects>
        <_>
          1 2 12 7 -1.</_>
        <_>
          7 2 6 7 2.</_></rects>
      <tilted>0</tilted></_>
    <_>
      <rects>
        <_>
          1 5 10 3 -1.</_>
        <_>
          6 5 5 3 2.</_></rects>
      <tilted>0</tilted></_>
    <_>
      <rects>
        <_>
          1 12 30 4 -1.</_>
        <_>
          11 12 10 4 3.</_></rects>
      <tilted>0</tilted></_>
    <_>
      <rects>
        <_>
          2 2 15 8 -1.</_>
        <_>
          7 2 5 8 3.</_></rects>
      <tilted>0</tilted></_>
    <_>
      <rects>
        <_>
          6 0 14 12 -1.</_>
        <_>
          6 4 14 4 3.</_></rects>
      <tilted>0</tilted></_>
    <_>
      <rects>
        <_>
          6 9 14 2 -1.</_>
        <_>
          6 9 7 1 2.</_>
        <_>
          13 10 7 1 2.</_></rects>
      <tilted>0</tilted></_>
    <_>
      <rects>
        <_>
          6 13 18 3 -1.</_>
        <_>
          12 13 6 3 3.</_></rects>
      <tilted>0</tilted></_>
    <_>
      <rects>
        <_>
          6 13 24 1 -1.</_>
        <_>
          14 13 8 1 3.</_></rects>
      <tilted>0</tilted></_>
    <_>
      <rects>
        <_>
          8 0 21 4 -1.</_>
        <_>
          15 0 7 4 3.</_></rects>
      <tilted>0</tilted></_>
    <_>
      <rects>
        <_>
          8 4 8 6 -1.</_>
        <_>
          12 4 4 6 2.</_></rects>
      <tilted>0</tilted></_>
    <_>
      <rects>
        <_>
          8 7 12 4 -1.</_>
        <_>
          12 7 4 4 3.</_></rects>
      <tilted>0</tilted></_>
    <_>
      <rects>
        <_>
          8 8 12 1 -1.</_>
        <_>
          12 8 4 1 3.</_></rects>
      <tilted>0</tilted></_>
    <_>
      <rects>
        <_>
          10 0 21 4 -1.</_>
        <_>
          17 0 7 4 3.</_></rects>
      <tilted>0</tilted></_>
    <_>
      <rects>
        <_>
          10 1 18 1 -1.</_>
        <_>
          16 1 6 1 3.</_></rects>
      <tilted>0</tilted></_>
    <_>
      <rects>
        <_>
          10 7 15 3 -1.</_>
        <_>
          15 7 5 3 3.</_></rects>
      <tilted>0</tilted></_>
    <_>
      <rects>
        <_>
          10 10 18 6 -1.</_>
        <_>
          19 10 9 6 2.</_></rects>
      <tilted>0</tilted></_>
    <_>
      <rects>
        <_>
          10 12 10 2 -1.</_>
        <_>
          10 12 5 1 2.</_>
        <_>
          15 13 5 1 2.</_></rects>
      <tilted>0</tilted></_>
    <_>
      <rects>
        <_>
          11 0 2 6 -1.</_>
        <_>
          11 3 2 3 2.</_></rects>
      <tilted>0</tilted></_>
    <_>
      <rects>
        <_>
          11 0 18 3 -1.</_>
        <_>
          17 0 6 3 3.</_></rects>
      <tilted>0</tilted></_>
    <_>
      <rects>
        <_>
          11 1 8 4 -1.</_>
        <_>
          11 3 8 2 2.</_></rects>
      <tilted>0</tilted></_>
    <_>
      <rects>
        <_>
          11 7 18 6 -1.</_>
        <_>
          17 7 6 6 3.</_></rects>
      <tilted>0</tilted></_>
    <_>
      <rects>
        <_>
          12 0 8 10 -1.</_>
        <_>
          12 0 4 5 2.</_>
        <_>
          16 5 4 5 2.</_></rects>
      <tilted>0</tilted></_>
    <_>
      <rects>
        <_>
          12 6 3 1 -1.</_>
        <_>
          13 6 1 1 3.</_></rects>
      <tilted>0</tilted></_>
    <_>
      <rects>
        <_>
          12 7 1 8 -1.</_>
        <_>
          12 11 1 4 2.</_></rects>
      <tilted>0</tilted></_>
    <_>
      <rects>
        <_>
          14 4 6 4 -1.</_>
        <_>
          14 4 3 2 2.</_>
        <_>
          17 6 3 2 2.</_></rects>
      <tilted>0</tilted></_>
    <_>
      <rects>
        <_>
          15 10 15 1 -1.</_>
        <_>
          20 10 5 1 3.</_></rects>
      <tilted>0</tilted></_>
    <_>
      <rects>
        <_>
          17 2 6 6 -1.</_>
        <_>
          17 2 3 3 2.</_>
        <_>
          20 5 3 3 2.</_></rects>
      <tilted>0</tilted></_>
    <_>
      <rects>
        <_>
          17 4 2 4 -1.</_>
        <_>
          17 4 1 2 2.</_>
        <_>
          18 6 1 2 2.</_></rects>
      <tilted>0</tilted></_>
    <_>
      <rects>
        <_>
          17 8 1 2 -1.</_>
        <_>
          17 9 1 1 2.</_></rects>
      <tilted>0</tilted></_>
    <_>
      <rects>
        <_>
          17 8 2 2 -1.</_>
        <_>
          17 9 2 1 2.</_></rects>
      <tilted>0</tilted></_>
    <_>
      <rects>
        <_>
          18 0 1 15 -1.</_>
        <_>
          18 5 1 5 3.</_></rects>
      <tilted>0</tilted></_>
    <_>
      <rects>
        <_>
          18 0 3 4 -1.</_>
        <_>
          18 2 3 2 2.</_></rects>
      <tilted>0</tilted></_>
    <_>
      <rects>
        <_>
          18 1 1 15 -1.</_>
        <_>
          18 6 1 5 3.</_></rects>
      <tilted>0</tilted></_>
    <_>
      <rects>
        <_>
          18 5 2 6 -1.</_>
        <_>
          18 7 2 2 3.</_></rects>
      <tilted>0</tilted></_>
    <_>
      <rects>
        <_>
          21 0 10 10 -1.</_>
        <_>
          21 0 5 5 2.</_>
        <_>
          26 5 5 5 2.</_></rects>
      <tilted>0</tilted></_>
    <_>
      <rects>
        <_>
          24 2 6 2 -1.</_>
        <_>
          27 2 3 2 2.</_></rects>
      <tilted>0</tilted></_>
    <_>
      <rects>
        <_>
          26 0 2 2 -1.</_>
        <_>
          26 0 1 1 2.</_>
        <_>
          27 1 1 1 2.</_></rects>
      <tilted>0</tilted></_>
    <_>
      <rects>
        <_>
          28 4 4 9 -1.</_>
        <_>
          28 7 4 3 3.</_></rects>
      <tilted>0</tilted></_>
    <_>
      <rects>
        <_>
          29 3 2 11 -1.</_>
        <_>
          30 3 1 11 2.</_></rects>
      <tilted>0</tilted></_>
    <_>
      <rects>
        <_>
          30 0 2 13 -1.</_>
        <_>
          31 0 1 13 2.</_></rects>
      <tilted>0</tilted></_>
    <_>
      <rects>
        <_>
          30 2 2 12 -1.</_>
        <_>
          31 2 1 12 2.</_></rects>
      <tilted>0</tilted></_>
    <_>
      <rects>
        <_>
          30 3 2 10 -1.</_>
        <_>
          31 3 1 10 2.</_></rects>
      <tilted>0</tilted></_>
    <_>
      <rects>
        <_>
          31 0 1 12 -1.</_>
        <_>
          31 6 1 6 2.</_></rects>
      <tilted>0</tilted></_>
    <_>
      <rects>
        <_>
          31 6 1 10 -1.</_>
        <_>
          31 11 1 5 2.</_></rects>
      <tilted>0</tilted></_></features></cascade>
</opencv_storage>
