<?xml version="1.0"?>
<opencv_storage>
<stage0>
  <maxWeakCount>6</maxWeakCount>
  <stageThreshold>-1.6803601980209351e+00</stageThreshold>
  <weakClassifiers>
    <_>
      <internalNodes>
        0 -1 128073 -4.2488198960199952e-04</internalNodes>
      <leafValues>
        6.9006621837615967e-01 -6.1656802892684937e-01</leafValues></_>
    <_>
      <internalNodes>
        0 -1 78327 2.1862994879484177e-02</internalNodes>
      <leafValues>
        -6.5917289257049561e-01 5.6938302516937256e-01</leafValues></_>
    <_>
      <internalNodes>
        0 -1 56375 -1.1145004536956549e-03</internalNodes>
      <leafValues>
        4.4997903704643250e-01 -6.6017931699752808e-01</leafValues></_>
    <_>
      <internalNodes>
        0 -1 12034 1.4900589361786842e-02</internalNodes>
      <leafValues>
        -5.9570604562759399e-01 3.7083297967910767e-01</leafValues></_>
    <_>
      <internalNodes>
        0 -1 7488 -9.5668260473757982e-04</internalNodes>
      <leafValues>
        5.7478791475296021e-01 -3.6228278279304504e-01</leafValues></_>
    <_>
      <internalNodes>
        0 -1 103775 1.9033901393413544e-02</internalNodes>
      <leafValues>
        -7.5102686882019043e-01 2.4700993299484253e-01</leafValues></_></weakClassifiers></stage0>
</opencv_storage>
