<?xml version="1.0"?>
<opencv_storage>
<stage4>
  <maxWeakCount>13</maxWeakCount>
  <stageThreshold>-1.3437184095382690e+00</stageThreshold>
  <weakClassifiers>
    <_>
      <internalNodes>
        0 -1 60592 -1.4061682857573032e-02</internalNodes>
      <leafValues>
        4.8831489682197571e-01 -5.0444728136062622e-01</leafValues></_>
    <_>
      <internalNodes>
        0 -1 15105 -3.2553594792261720e-04</internalNodes>
      <leafValues>
        4.8679277300834656e-01 -4.1458371281623840e-01</leafValues></_>
    <_>
      <internalNodes>
        0 -1 9921 3.8755107671022415e-02</internalNodes>
      <leafValues>
        -4.1342139244079590e-01 4.1146132349967957e-01</leafValues></_>
    <_>
      <internalNodes>
        0 -1 128204 -4.4802250340580940e-04</internalNodes>
      <leafValues>
        3.7247097492218018e-01 -4.5324444770812988e-01</leafValues></_>
    <_>
      <internalNodes>
        0 -1 113455 -6.0853194445371628e-03</internalNodes>
      <leafValues>
        3.3651536703109741e-01 -5.2730399370193481e-01</leafValues></_>
    <_>
      <internalNodes>
        0 -1 81112 -1.8917771521955729e-03</internalNodes>
      <leafValues>
        5.9674108028411865e-01 -2.9059961438179016e-01</leafValues></_>
    <_>
      <internalNodes>
        0 -1 103864 2.6283808983862400e-04</internalNodes>
      <leafValues>
        -4.0628489851951599e-01 3.7281292676925659e-01</leafValues></_>
    <_>
      <internalNodes>
        0 -1 89671 1.3674736022949219e-02</internalNodes>
      <leafValues>
        -2.3886032402515411e-01 7.4895900487899780e-01</leafValues></_>
    <_>
      <internalNodes>
        0 -1 72708 -8.8864413555711508e-04</internalNodes>
      <leafValues>
        8.2513636350631714e-01 -2.0522667467594147e-01</leafValues></_>
    <_>
      <internalNodes>
        0 -1 123892 3.0182378395693377e-05</internalNodes>
      <leafValues>
        -1.7054902017116547e-01 7.9606270790100098e-01</leafValues></_>
    <_>
      <internalNodes>
        0 -1 101703 1.2698011705651879e-03</internalNodes>
      <leafValues>
        -2.6612305641174316e-01 5.3273653984069824e-01</leafValues></_>
    <_>
      <internalNodes>
        0 -1 2008 8.7094609625637531e-05</internalNodes>
      <leafValues>
        -9.5985102653503418e-01 1.8502262234687805e-01</leafValues></_>
    <_>
      <internalNodes>
        0 -1 1324 1.1172674596309662e-01</internalNodes>
      <leafValues>
        -2.0952154695987701e-01 1.</leafValues></_></weakClassifiers></stage4>
</opencv_storage>
