<?xml version="1.0"?>
<opencv_storage>
<stage3>
  <maxWeakCount>12</maxWeakCount>
  <stageThreshold>-1.2137181758880615e+00</stageThreshold>
  <weakClassifiers>
    <_>
      <internalNodes>
        0 -1 17439 6.2625601887702942e-02</internalNodes>
      <leafValues>
        -4.9938347935676575e-01 5.1330798864364624e-01</leafValues></_>
    <_>
      <internalNodes>
        0 -1 128165 -2.8505903901532292e-04</internalNodes>
      <leafValues>
        3.8318023085594177e-01 -5.2641952037811279e-01</leafValues></_>
    <_>
      <internalNodes>
        0 -1 7488 -1.5900819562375546e-04</internalNodes>
      <leafValues>
        3.8885247707366943e-01 -4.7830763459205627e-01</leafValues></_>
    <_>
      <internalNodes>
        0 -1 73981 9.9497996270656586e-03</internalNodes>
      <leafValues>
        -5.7165855169296265e-01 3.1067928671836853e-01</leafValues></_>
    <_>
      <internalNodes>
        0 -1 105587 4.4258541311137378e-04</internalNodes>
      <leafValues>
        -7.0683550834655762e-01 2.2744747996330261e-01</leafValues></_>
    <_>
      <internalNodes>
        0 -1 95667 1.4967641327530146e-03</internalNodes>
      <leafValues>
        -4.1322687268257141e-01 3.5070911049842834e-01</leafValues></_>
    <_>
      <internalNodes>
        0 -1 68477 1.1669027117022779e-05</internalNodes>
      <leafValues>
        2.0599885284900665e-01 -6.1999797821044922e-01</leafValues></_>
    <_>
      <internalNodes>
        0 -1 71402 -9.1747250407934189e-03</internalNodes>
      <leafValues>
        -6.5626114606857300e-01 1.9233724474906921e-01</leafValues></_>
    <_>
      <internalNodes>
        0 -1 49787 -1.5185930533334613e-04</internalNodes>
      <leafValues>
        5.5726689100265503e-01 -2.5760462880134583e-01</leafValues></_>
    <_>
      <internalNodes>
        0 -1 102860 -2.3949133174028248e-04</internalNodes>
      <leafValues>
        2.5893038511276245e-01 -4.7188287973403931e-01</leafValues></_>
    <_>
      <internalNodes>
        0 -1 48850 -7.5949346646666527e-03</internalNodes>
      <leafValues>
        -7.6825964450836182e-01 2.0318984985351562e-01</leafValues></_>
    <_>
      <internalNodes>
        0 -1 126937 -7.7774071542080492e-05</internalNodes>
      <leafValues>
        5.8163785934448242e-01 -2.2984564304351807e-01</leafValues></_></weakClassifiers></stage3>
</opencv_storage>
