<?xml version="1.0"?>
<opencv_storage>
<stage1>
  <maxWeakCount>5</maxWeakCount>
  <stageThreshold>-1.1294531822204590e+00</stageThreshold>
  <weakClassifiers>
    <_>
      <internalNodes>
        0 -1 15971 1.9990126020275056e-04</internalNodes>
      <leafValues>
        4.0540540218353271e-01 -9.1836732625961304e-01</leafValues></_>
    <_>
      <internalNodes>
        0 -1 55978 -5.0228985492140055e-04</internalNodes>
      <leafValues>
        7.2108322381973267e-01 -5.2094554901123047e-01</leafValues></_>
    <_>
      <internalNodes>
        0 -1 100552 1.5021966397762299e-01</internalNodes>
      <leafValues>
        -6.7739039659500122e-01 3.6935162544250488e-01</leafValues></_>
    <_>
      <internalNodes>
        0 -1 50085 -7.0142629556357861e-04</internalNodes>
      <leafValues>
        3.5687151551246643e-01 -5.6538659334182739e-01</leafValues></_>
    <_>
      <internalNodes>
        0 -1 5544 3.7033922970294952e-02</internalNodes>
      <leafValues>
        -6.7592447996139526e-01 2.2886395454406738e-01</leafValues></_></weakClassifiers></stage1>
</opencv_storage>
