<?xml version="1.0"?>
<opencv_storage>
<cascade>
  <stageType>BOOST</stageType>
  <featureType>HAAR</featureType>
  <height>16</height>
  <width>32</width>
  <stageParams>
    <boostType>GAB</boostType>
    <minHitRate>9.9500000476837158e-01</minHitRate>
    <maxFalseAlarm>5.0000000000000000e-01</maxFalseAlarm>
    <weightTrimRate>9.4999999999999996e-01</weightTrimRate>
    <maxDepth>1</maxDepth>
    <maxWeakCount>100</maxWeakCount></stageParams>
  <featureParams>
    <maxCatCount>0</maxCatCount>
    <featSize>1</featSize>
    <mode>BASIC</mode></featureParams>
  <stageNum>4</stageNum>
  <stages>
    <!-- stage 0 -->
    <_>
      <maxWeakCount>3</maxWeakCount>
      <stageThreshold>-1.0221226215362549e+00</stageThreshold>
      <weakClassifiers>
        <_>
          <internalNodes>
            0 -1 10 1.7511174082756042e-01</internalNodes>
          <leafValues>
            -8.4653466939926147e-01 8.6363637447357178e-01</leafValues></_>
        <_>
          <internalNodes>
            0 -1 3 3.0714176595211029e-02</internalNodes>
          <leafValues>
            -8.1760597229003906e-01 5.7235985994338989e-01</leafValues></_>
        <_>
          <internalNodes>
            0 -1 0 -1.1722708586603403e-03</internalNodes>
          <leafValues>
            6.4201807975769043e-01 -7.1850782632827759e-01</leafValues></_></weakClassifiers></_>
    <!-- stage 1 -->
    <_>
      <maxWeakCount>3</maxWeakCount>
      <stageThreshold>-9.1215848922729492e-01</stageThreshold>
      <weakClassifiers>
        <_>
          <internalNodes>
            0 -1 9 9.9403552711009979e-02</internalNodes>
          <leafValues>
            -7.9054915904998779e-01 7.5764995813369751e-01</leafValues></_>
        <_>
          <internalNodes>
            0 -1 5 -1.5678741037845612e-02</internalNodes>
          <leafValues>
            7.2291660308837891e-01 -6.0225915908813477e-01</leafValues></_>
        <_>
          <internalNodes>
            0 -1 7 -2.6444438844919205e-03</internalNodes>
          <leafValues>
            4.8064985871315002e-01 -8.3011758327484131e-01</leafValues></_></weakClassifiers></_>
    <!-- stage 2 -->
    <_>
      <maxWeakCount>5</maxWeakCount>
      <stageThreshold>-1.0217045545578003e+00</stageThreshold>
      <weakClassifiers>
        <_>
          <internalNodes>
            0 -1 8 -1.2773999571800232e-01</internalNodes>
          <leafValues>
            6.7181926965713501e-01 -7.4440050125122070e-01</leafValues></_>
        <_>
          <internalNodes>
            0 -1 12 2.3486029356718063e-02</internalNodes>
          <leafValues>
            -6.4616495370864868e-01 6.5700161457061768e-01</leafValues></_>
        <_>
          <internalNodes>
            0 -1 6 1.9444372504949570e-02</internalNodes>
          <leafValues>
            -7.7574539184570312e-01 5.0284361839294434e-01</leafValues></_>
        <_>
          <internalNodes>
            0 -1 2 -4.5706570381298661e-04</internalNodes>
          <leafValues>
            5.6823229789733887e-01 -6.0287898778915405e-01</leafValues></_>
        <_>
          <internalNodes>
            0 -1 14 -2.7834512293338776e-03</internalNodes>
          <leafValues>
            5.7637411355972290e-01 -5.7957875728607178e-01</leafValues></_></weakClassifiers></_>
    <!-- stage 3 -->
    <_>
      <maxWeakCount>4</maxWeakCount>
      <stageThreshold>-3.1565353274345398e-01</stageThreshold>
      <weakClassifiers>
        <_>
          <internalNodes>
            0 -1 1 6.8537942133843899e-03</internalNodes>
          <leafValues>
            -8.8532882928848267e-01 5.2135056257247925e-01</leafValues></_>
        <_>
          <internalNodes>
            0 -1 4 -1.8206853419542313e-02</internalNodes>
          <leafValues>
            5.5148512125015259e-01 -8.1142753362655640e-01</leafValues></_>
        <_>
          <internalNodes>
            0 -1 13 1.3824224006384611e-03</internalNodes>
          <leafValues>
            -4.5594257116317749e-01 8.3296179771423340e-01</leafValues></_>
        <_>
          <internalNodes>
            0 -1 11 1.0379074956290424e-04</internalNodes>
          <leafValues>
            -8.1477159261703491e-01 5.2506667375564575e-01</leafValues></_></weakClassifiers></_></stages>
  <features>
    <_>
      <rects>
        <_>
          2 12 27 4 -1.</_>
        <_>
          11 12 9 4 3.</_></rects>
      <tilted>0</tilted></_>
    <_>
      <rects>
        <_>
          4 8 16 1 -1.</_>
        <_>
          12 8 8 1 2.</_></rects>
      <tilted>0</tilted></_>
    <_>
      <rects>
        <_>
          4 13 24 1 -1.</_>
        <_>
          12 13 8 1 3.</_></rects>
      <tilted>0</tilted></_>
    <_>
      <rects>
        <_>
          7 0 12 12 -1.</_>
        <_>
          7 0 6 6 2.</_>
        <_>
          13 6 6 6 2.</_></rects>
      <tilted>0</tilted></_>
    <_>
      <rects>
        <_>
          7 0 21 5 -1.</_>
        <_>
          14 0 7 5 3.</_></rects>
      <tilted>0</tilted></_>
    <_>
      <rects>
        <_>
          8 0 21 4 -1.</_>
        <_>
          15 0 7 4 3.</_></rects>
      <tilted>0</tilted></_>
    <_>
      <rects>
        <_>
          9 6 10 8 -1.</_>
        <_>
          14 6 5 8 2.</_></rects>
      <tilted>0</tilted></_>
    <_>
      <rects>
        <_>
          9 8 10 2 -1.</_>
        <_>
          9 9 10 1 2.</_></rects>
      <tilted>0</tilted></_>
    <_>
      <rects>
        <_>
          13 6 7 10 -1.</_>
        <_>
          13 11 7 5 2.</_></rects>
      <tilted>0</tilted></_>
    <_>
      <rects>
        <_>
          14 0 5 10 -1.</_>
        <_>
          14 5 5 5 2.</_></rects>
      <tilted>0</tilted></_>
    <_>
      <rects>
        <_>
          14 1 5 15 -1.</_>
        <_>
          14 6 5 5 3.</_></rects>
      <tilted>0</tilted></_>
    <_>
      <rects>
        <_>
          14 9 3 1 -1.</_>
        <_>
          15 9 1 1 3.</_></rects>
      <tilted>0</tilted></_>
    <_>
      <rects>
        <_>
          17 0 10 16 -1.</_>
        <_>
          22 0 5 16 2.</_></rects>
      <tilted>0</tilted></_>
    <_>
      <rects>
        <_>
          18 12 8 1 -1.</_>
        <_>
          22 12 4 1 2.</_></rects>
      <tilted>0</tilted></_>
    <_>
      <rects>
        <_>
          29 4 2 12 -1.</_>
        <_>
          30 4 1 12 2.</_></rects>
      <tilted>0</tilted></_></features></cascade>
</opencv_storage>
